{"meta":{"in_dim":3,"hidden_dim":128,"hidden_layers":8,"out_dim":2,"skip_in":[4],"w0":30.0,"w0_hidden":30.0},"layers":[{"weight":[[-0.2137596160173416,-0.017293889075517654,-0.29886776208877563],[0.11818172037601471,-0.31079062819480896,0.15482811629772186],[-0.029800549149513245,0.17492590844631195,0.2914087176322937],[-0.12963798642158508,-0.23782604932785034,0.27476322650909424],[0.1479477435350418,0.1116507425904274,0.08033435046672821],[-0.15353384613990784,0.10044141113758087,-0.1357562392950058],[-0.08480126410722733,-0.21872465312480927,0.16965998709201813],[0.02665298618376255,0.09020072966814041,0.2979147434234619],[-0.26195746660232544,0.22959430515766144,-0.18087708950042725],[0.06329595297574997,-0.2629392147064209,-0.1488388180732727],[-0.026068322360515594,0.2559932768344879,-0.07188680768013],[-0.027964074164628983,-0.13231977820396423,0.043829597532749176],[0.11594545096158981,0.20173491537570953,0.011700828559696674],[-0.26261311769485474,0.10930777341127396,-0.11670755594968796],[-0.2995139956474304,-0.25881683826446533,-0.136241152882576],[0.05510839447379112,0.2794934809207916,0.03902149572968483],[-0.27484235167503357,-0.12352251261472702,0.11916457116603851],[0.20573461055755615,-0.2714705467224121,0.14631257951259613],[-0.06708787381649017,-0.31088271737098694,-0.17253001034259796],[-0.09160855412483215,-0.0737839937210083,-0.2088976353406906],[-0.016175402328372,0.024450067430734634,0.09063098579645157],[0.21401308476924896,-0.28681695461273193,-0.059010736644268036],[0.17670677602291107,-0.1586589515209198,0.13759920001029968],[-0.23156306147575378,0.002791943261399865,0.31100398302078247],[0.23843087255954742,0.009963033720850945,0.13108861446380615],[-0.07578540593385696,-0.3239920735359192,0.26271557807922363],[-0.15099884569644928,0.25072088837623596,0.2638993561267853],[0.19923719763755798,-0.24456626176834106,0.13962483406066895],[0.2003730833530426,-0.09868372231721878,-0.11367599666118622],[-0.2323620766401291,0.11529051512479782,-0.0005444799899123609],[-0.3184671998023987,0.1601436734199524,0.1905311644077301],[-0.2818731367588043,-0.18591523170471191,-0.21172834932804108],[0.27988380193710327,-0.27620092034339905,-0.22664782404899597],[-0.02777375467121601,0.2076973170042038,0.0037003722973167896],[0.21157541871070862,0.1511506736278534,0.016260648146271706],[0.14630328118801117,-0.06015373393893242,-0.19450260698795319],[0.270663857460022,-0.2651338279247284,0.3059665560722351],[0.06152915954589844,-0.22756287455558777,-0.1699208766222],[-0.3108593225479126,-0.2078138142824173,0.2602942883968353],[-0.039569176733493805,-0.21778178215026855,-0.05070485547184944],[0.15815284848213196,-0.29477086663246155,-0.07949066162109375],[-0.08330173790454865,-0.20027829706668854,-0.09617343544960022],[-0.1571185141801834,-0.142042875289917,-0.00929169449955225],[-0.23832544684410095,0.07571204006671906,-0.2507094144821167],[-0.2647073566913605,-0.2901223301887512,0.26614412665367126],[-0.0448947474360466,0.13345664739608765,0.1890673190355301],[0.32188501954078674,-0.13064375519752502,0.09013203531503677],[0.02166788838803768,-0.08820704370737076,0.1062922403216362],[0.1420729011297226,0.035613395273685455,-0.29870080947875977],[0.2748279869556427,0.07527933269739151,0.31868571043014526],[-0.08241254091262817,0.08038885146379471,0.27709969878196716],[0.06250260025262833,0.22379624843597412,-0.2882377803325653],[-0.1994720995426178,-0.11155915260314941,0.22058998048305511],[0.06658165901899338,0.12200279533863068,0.032230108976364136],[0.11222285777330399,-0.2509002983570099,-0.0626271516084671],[0.3057566285133362,0.009258969686925411,-0.08614254742860794],[0.18456166982650757,0.254731684923172,-0.26306867599487305],[0.2968518137931824,-0.0739310160279274,0.0013015184085816145],[-0.3148902356624603,0.1865033358335495,0.3043895661830902],[-0.06725972890853882,-0.3024374842643738,0.1038898378610611],[-0.1022888794541359,0.05412260442972183,0.2707380950450897],[-0.21846354007720947,0.2823582887649536,-0.03253786265850067],[-0.026866644620895386,-0.24386188387870789,-0.2968555986881256],[0.0641731545329094,0.21191801130771637,0.2729564309120178],[-0.052733492106199265,-0.01897108182311058,-0.12149564176797867],[0.10841041803359985,-0.2565336227416992,-0.2537168860435486],[0.20061461627483368,-0.08239804208278656,-0.06272570043802261],[0.12738047540187836,0.004464894533157349,0.024530308321118355],[-0.18074709177017212,0.16467083990573883,-0.11197271198034286],[0.10329072177410126,-0.03349560871720314,0.16959752142429352],[-0.0697009265422821,-0.12198106199502945,-0.20318445563316345],[-0.19762536883354187,-0.2859460413455963,-0.20896178483963013],[0.20779280364513397,-0.07820955663919449,-0.23105651140213013],[-0.07303627580404282,-0.13317932188510895,0.01212217751890421],[-0.0833350196480751,-0.14384490251541138,-0.04833478853106499],[-0.2779494524002075,-0.17633777856826782,0.2595953643321991],[-0.13450025022029877,0.12129092216491699,0.009307893924415112],[-0.12198576331138611,-0.02830314077436924,-0.15910281240940094],[0.2964007258415222,0.31769198179244995,-0.2079388052225113],[0.03352361172437668,-0.19570745527744293,-0.12799865007400513],[0.062040988355875015,0.30680733919143677,-0.03244203329086304],[0.3017604649066925,-0.0017677778378129005,-0.2337121069431305],[-0.03836798295378685,0.22712861001491547,-0.1773994117975235],[-0.28654250502586365,0.07851037383079529,-0.17950525879859924],[-0.11071926355361938,0.18608033657073975,-0.17161616683006287],[-0.28299015760421753,0.15410810708999634,-0.15653835237026215],[0.3004435896873474,0.07907961308956146,0.24551256000995636],[-0.0403580404818058,0.13330578804016113,-0.12420130521059036],[-0.005003978963941336,0.16242781281471252,-0.19999991357326508],[-0.1448226273059845,-0.023490477353334427,-0.15165844559669495],[-0.12764503061771393,-0.09010099619626999,0.1457872837781906],[0.0690578818321228,-0.10594329982995987,-0.3162873685359955],[0.06437641382217407,-0.16774769127368927,0.11349721252918243],[-0.09425070136785507,0.191306471824646,-0.21798788011074066],[-0.1253339946269989,-0.30166321992874146,0.22828572988510132],[-0.009015151299536228,-0.14097540080547333,-0.10268015414476395],[0.21778668463230133,-0.16697916388511658,-0.24494782090187073],[0.004808713681995869,0.16986140608787537,-0.015296828001737595],[-0.2816382646560669,-0.09625492990016937,-0.04667019098997116],[0.07556518912315369,0.25952208042144775,0.12359049916267395],[0.25601139664649963,0.009026986546814442,-0.14292675256729126],[0.21172505617141724,0.1834963709115982,0.2990078628063202],[0.2742423415184021,-0.19738885760307312,0.029491575434803963],[0.22211705148220062,0.0009949347004294395,-0.007284353021532297],[0.22470584511756897,0.13887782394886017,0.2486204355955124],[0.007819903083145618,0.21929556131362915,-0.23273269832134247],[-0.0933021530508995,0.0668679028749466,0.12262307852506638],[0.1871202290058136,0.2057611644268036,0.14948788285255432],[-0.10459932684898376,0.023072397336363792,-0.04800840839743614],[0.26708540320396423,0.032734934240579605,-0.06389845162630081],[0.11044463515281677,0.1596880853176117,-0.19670775532722473],[0.003506103530526161,0.30804380774497986,-0.04676882550120354],[-0.002139649586752057,0.0077733262442052364,-0.12079911679029465],[-0.2930241823196411,0.18043626844882965,0.05300525948405266],[0.0008726193918846548,-0.19862627983093262,-0.036896735429763794],[-0.05318832024931908,-0.21820704638957977,0.1365257352590561],[-0.188365176320076,0.2986021637916565,0.2890283167362213],[-0.11746016144752502,-0.1060776486992836,-0.12175370007753372],[-0.19686254858970642,0.05943281576037407,-0.1934540718793869],[-0.3198348581790924,-0.10039515048265457,-0.1772516965866089],[0.1535506695508957,-0.23036544024944305,0.11938836425542831],[-0.04769361764192581,-0.2656821608543396,0.04807033762335777],[0.19849146902561188,0.22689200937747955,-0.18223755061626434],[-0.07536903023719788,0.07043882459402084,0.038592543452978134],[-0.2305334061384201,0.18434783816337585,0.21798746287822723],[-0.10454193502664566,-0.07936762273311615,-0.14545436203479767],[0.28371888399124146,0.21253830194473267,-0.3232104182243347],[-0.10468760877847672,-0.16104650497436523,-0.25409212708473206]],"bias":[0.08880773186683655,-0.3414401412010193,-0.19904214143753052,-0.06843123584985733,0.4427219033241272,0.28519415855407715,0.4090202748775482,-0.1174088567495346,-0.322232723236084,-0.573319673538208,-0.44646671414375305,-0.23255594074726105,0.19533802568912506,-0.3531356453895569,0.23335494101047516,-0.02068317122757435,-0.32377833127975464,-0.35784268379211426,0.48392820358276367,0.1935383528470993,-0.316161185503006,0.5190703868865967,0.052020493894815445,-0.35088393092155457,0.22185108065605164,-0.25230872631073,0.5065103769302368,0.0017280445899814367,-0.12662453949451447,-0.5603111982345581,-0.23035113513469696,0.2575119137763977,0.014754356816411018,-0.45506054162979126,0.43188637495040894,0.568010151386261,0.4147663414478302,0.5321842432022095,-0.1361551582813263,-0.4848518371582031,0.1493518203496933,0.028598053380846977,-0.46909773349761963,0.09742148965597153,0.042113617062568665,0.040485575795173645,-0.06725429743528366,-0.3393295407295227,-0.431633859872818,-0.5521776676177979,0.2137923538684845,-0.1214275062084198,-0.16237179934978485,0.4458675682544708,0.5670211911201477,0.3352057635784149,-0.08805197477340698,0.2203390896320343,-0.43116191029548645,0.16513407230377197,-0.3892608880996704,-0.49534571170806885,-0.2581844925880432,-0.26743820309638977,0.001014644280076027,-0.060697171837091446,-0.5632054209709167,-0.3570200204849243,0.5184800624847412,0.5257429480552673,0.4616363048553467,-0.08190727233886719,-0.45108121633529663,0.23010337352752686,0.5494988560676575,-0.16891051828861237,-0.2741069495677948,-0.17962589859962463,0.28385648131370544,-0.34369945526123047,0.5147184729576111,-0.051668111234903336,0.054227232933044434,-0.20679312944412231,-0.5311642289161682,-0.5134002566337585,-0.22160226106643677,0.15456148982048035,0.09861978143453598,-0.022385457530617714,-0.12363322824239731,0.24477864801883698,0.4286384582519531,0.5369765758514404,-0.39660173654556274,0.05681190639734268,-0.5122982859611511,0.020415039733052254,-0.20400507748126984,0.542738139629364,0.43771010637283325,-0.5592353940010071,0.536297619342804,-0.4747622013092041,0.19434987008571625,-0.5136808753013611,0.14017309248447418,0.13899573683738708,-0.4298124611377716,-0.4723893105983734,0.2562400698661804,0.48420608043670654,-0.5708287358283997,0.2469368278980255,-0.07019612193107605,0.11224724352359772,-0.0059593250043690205,0.04299392178654671,0.18172305822372437,-0.06926880776882172,0.14718668162822723,-0.3133082091808319,0.07774070650339127,0.2998174726963043,0.1399799883365631,-0.15948669612407684,0.048374176025390625,0.20498548448085785],"w0":30.0},{"weight":[[-0.0039253318682312965,0.004783386364579201,-0.003186228219419718,0.0016781633021309972,0.009803731925785542,0.002772943116724491,-0.00443881843239069,0.007077822461724281,0.004653354175388813,-0.0018293082248419523,-0.007386361248791218,0.010422919876873493,0.006484006531536579,0.005994592327624559,-0.002507323632016778,0.002740967320278287,-0.008319390006363392,0.001887165242806077,0.0015775191131979227,-0.00491327652707696,0.0023323106579482555,0.00513120973482728,0.0025282790884375572,0.0020265846978873014,0.005390441510826349,0.0006945882341824472,0.003231555223464966,0.00229893671348691,0.005625519901514053,0.003912860061973333,0.00016709942428860813,0.0017160698771476746,-0.003080120077356696,-0.004341977182775736,0.0006313099293038249,0.0035881302319467068,0.005082765594124794,0.0062912702560424805,-0.0007910294225439429,-0.0010775383561849594,-0.004374526906758547,0.009026807732880116,-0.007909310981631279,0.009394184686243534,-0.0016088623087853193,0.0007328137289732695,-0.002711194334551692,-0.012850678525865078,0.0036823228001594543,0.0001019578703562729,0.004016018006950617,0.0057564834132790565,0.0005468447925522923,-0.014990250580012798,0.0002854027843568474,-0.0052605583332479,0.0014570869971066713,-0.008330106735229492,0.003438618965446949,0.00043790671043097973,0.004892410710453987,-0.004209062084555626,-0.005360923707485199,-0.0011378718772903085,0.008171611465513706,-0.0007925371173769236,-0.012685286812484264,-0.015349156223237514,0.0033853875938802958,0.004758743569254875,-0.01177606638520956,-0.004147043917328119,-0.004812523256987333,-0.0005764586967416108,0.010992716997861862,0.000255605234997347,-0.0076576597057282925,-0.006205874495208263,-0.0023950510658323765,-0.007138727232813835,0.0052672880701720715,-0.0037632386665791273,-0.0017004600958898664,-0.004155601840466261,0.0028526100795716047,0.0014294929569587111,-0.00284115900285542,-0.014927460812032223,-0.004765183664858341,-0.004045618232339621,0.004554916173219681,0.001288384199142456,0.002054003067314625,0.0010315610561519861,0.005328831262886524,-0.0026566863525658846,-0.005526055581867695,0.00678827241063118,0.007239490747451782,0.0028809637296944857,0.001809299923479557,0.002261721296235919,0.00432840920984745,-0.013497015461325645,0.0011316441232338548,0.004980853758752346,-0.0003698341315612197,0.0035078178625553846,-0.004847285337746143,0.0006148791871964931,-0.010172887705266476,-0.011394194327294827,-0.010696331970393658,0.0020008981227874756,0.009344492107629776,-0.0016960345674306154,-0.0013576594647020102,-0.0003334547800477594,0.006844666320830584,0.0021948441863059998,0.006883400492370129,0.006590495351701975,0.002908037742599845,-0.011216930113732815,-0.0031867194920778275,0.006894407793879509,-0.004645108710974455,0.003412347985431552],[0.004645505454391241,0.0030276551842689514,-0.005265197716653347,0.008518792688846588,-0.007134725805372,-0.0028043193742632866,0.0021865812595933676,0.0033338190987706184,-0.005710317753255367,-0.0026674994733184576,0.007241571322083473,0.007871049456298351,-0.0005305594531819224,-0.0031449852976948023,0.0056894272565841675,0.006351386196911335,0.005557331256568432,0.00021950363588985056,0.0005975519889034331,-0.002143342047929764,0.0005506130401045084,0.004930620081722736,0.0012653048615902662,0.0036275724414736032,-0.0029285235796123743,0.0055157216265797615,0.004004318732768297,-0.007876853458583355,0.00418324489146471,0.008702350780367851,-0.0005672834231518209,0.0021282241214066744,0.0025375052355229855,-0.005790605675429106,-0.005203291308134794,0.006851226557046175,-0.006471098866313696,0.0015955246053636074,0.0023827673867344856,0.005745533853769302,-1.8399670807411894e-05,0.006080456078052521,0.004821312613785267,0.0024959633592516184,-0.005324866622686386,-0.007202694658190012,-0.004822969436645508,-0.010544726625084877,-0.006508443504571915,0.0008476669900119305,-0.0008578603155910969,-0.001899608876556158,-0.0034810672514140606,-0.012370027601718903,0.0010637943632900715,-0.002329937182366848,-0.0036758650094270706,-0.0044646551832556725,-0.004214669577777386,0.003340387251228094,-0.003515651449561119,-0.002677574986591935,-0.0007495405152440071,0.0013520335778594017,0.0057802326045930386,0.0004793303378392011,0.0015158981550484896,-0.00667767645791173,0.004540507216006517,-0.005829398985952139,0.0009611403802409768,-0.0043367138132452965,-0.00467678951099515,0.004675858188420534,0.0034444669727236032,-0.003528058994561434,0.0007283352897502482,-0.005983799695968628,0.0027449920307844877,-0.003931839019060135,-0.00023086009605322033,-0.0024705780670046806,-0.010578831657767296,0.007862627506256104,0.0008287454838864505,-0.001971868332475424,-0.001738774823024869,0.003914578352123499,-0.007947522215545177,-0.008866366930305958,0.003225254127755761,-0.005020405165851116,0.007986640557646751,-0.0039244177751243114,-0.0046125235967338085,-0.0040876963175833225,-0.0007224597502499819,-0.008599553257226944,0.012249366380274296,0.0003548146050889045,0.00030366997816599905,0.0012525857891887426,-0.002032087417319417,-0.0017329866532236338,-0.00042214407585561275,0.0015467405319213867,0.01440034992992878,-0.0029086419381201267,0.004108272958546877,0.006344953086227179,0.0032400861382484436,0.0025812399107962847,-0.011060862801969051,0.0017128927865996957,-0.010802077129483223,-0.004774085246026516,-0.0014247415820136666,0.004088221117854118,0.008268105797469616,-0.00706019951030612,0.0025208175648003817,0.002478889422491193,-0.0013242592103779316,0.016660122200846672,-0.0020720690954476595,0.003423063550144434,-0.00110446207690984,-0.002379919867962599],[-0.002444167621433735,0.00020823134400416166,-0.007434273604303598,0.004752885550260544,0.0009053542162291706,-0.00220977864228189,-0.006938185077160597,0.00538585614413023,-0.004150689579546452,0.0005041588447056711,0.0025983189698308706,-0.013185459189116955,0.0006399021949619055,0.009248032234609127,0.004202012438327074,-0.0007576954085379839,0.007590994238853455,0.01005810871720314,0.0017932446207851171,-0.0012297873618081212,0.0055189793929457664,-0.0020431920420378447,-0.005606848280876875,0.000891258823685348,0.00040239456575363874,0.000885823683347553,6.633257726207376e-05,0.0054369233548641205,0.004181098658591509,0.002416938776150346,0.00283406232483685,-0.002854912308976054,-0.00024735077749937773,0.004652729257941246,-0.009558252990245819,-0.004143858328461647,-0.002314795972779393,-0.0039886231534183025,0.0029341387562453747,0.0037352778017520905,-0.0034628950525075197,-0.001964397495612502,-0.0021133627742528915,0.001194741460494697,-0.0016759453574195504,0.003065634984523058,-0.002809520810842514,0.0033088657073676586,0.00295036262832582,-0.00043145936797372997,-0.0061326236464083195,-0.006231590639799833,-0.010621576569974422,0.0022831950336694717,0.0010651882039383054,-0.001056184875778854,0.0005287180538289249,-0.0013707359321415424,-0.003274829825386405,-0.008161528035998344,0.0037700720131397247,-0.006287550088018179,0.0006098575540818274,-0.0019737686961889267,0.0032717303838580847,-0.0005419464432634413,0.002630933653563261,0.008531901054084301,-0.005022062454372644,0.004610183648765087,-0.0038924121763557196,0.002810047008097172,-0.002712652552872896,-0.009050399996340275,-0.0033884719014167786,-0.0027822719421237707,0.0017217175336554646,-0.0025428475346416235,0.0010724790627136827,0.0023470609448850155,-0.0025689422618597746,0.002983793383464217,0.008071587421000004,0.003805682063102722,-0.002628270536661148,-0.0004897001199424267,-0.003212552284821868,-0.004043802618980408,0.008387207053601742,-0.010387849994003773,-0.002366309752687812,0.009558127261698246,-0.0073042674921453,0.002526850439608097,-0.0027034201193600893,-0.0015260480577126145,0.0017194552347064018,0.00022569469001609832,-0.005886364728212357,-0.0018948251381516457,-0.005228562746196985,0.00472175981849432,-0.002870588330551982,0.004147524479776621,-0.0013867943780496716,0.002703506965190172,-0.0029211058281362057,-0.0019749326165765524,-0.002131272805854678,-0.00574369914829731,-0.010325885377824306,-0.002285059541463852,0.007341913413256407,0.0006893055979162455,0.0010294385720044374,-0.001944261253811419,-0.002688266336917877,-0.008280405774712563,-0.0025347801856696606,0.0007484220550395548,0.0072652786038815975,0.003130275057628751,-0.008223062381148338,0.003151120152324438,-0.003017907030880451,-0.005764666013419628,-0.002210135105997324,0.0012277469504624605],[0.00012271721789147705,-0.00890742614865303,-0.00023032230092212558,0.0013727115001529455,0.00531937088817358,0.006591589655727148,0.011681316420435905,0.0052370717748999596,0.004618000239133835,-0.003004186088219285,0.012860682792961597,0.00031983331427909434,-0.0006427878397516906,-0.004576226230710745,0.00040014725527726114,-0.00437408359721303,0.0014557103859260678,0.0005052444757893682,0.004354079253971577,0.00030702207004651427,0.010895649902522564,0.0008021775865927339,-0.0066222152672708035,-0.005403661634773016,-0.005300157703459263,-0.0017225113697350025,-0.0017267896328121424,-0.0024190109688788652,-0.0058882590383291245,0.0014658212894573808,-0.004293432459235191,-0.007236873265355825,-0.0027486237231642008,0.009454961866140366,-0.006882172077894211,0.006238879635930061,-0.008347083814442158,-0.0020910799503326416,0.0022144210524857044,-0.0012427159817889333,0.0028739909175783396,0.002828326541930437,0.00348613690584898,0.002840049797669053,0.002146997954696417,-0.0005254020798020065,-0.005223502870649099,-0.0023071314208209515,0.0064398981630802155,8.248285303125158e-05,0.003819971578195691,-0.002989951055496931,-0.0015738607617095113,0.001148981275036931,0.007635750342160463,-0.00484509440138936,-0.0035484193358570337,-0.008745110593736172,-0.006722785998135805,-0.002164937322959304,-0.005368238780647516,0.003453838871791959,-0.0020665035117417574,0.006933778524398804,0.00492374412715435,-0.0007734333630651236,-0.0034174141474068165,-0.002874181140214205,0.0009558199089951813,0.0034155419562011957,0.008583477698266506,-0.006778616923838854,0.0010272283107042313,0.001398667460307479,-0.003980027977377176,-0.0008964144508354366,-0.0077719613909721375,0.003208743641152978,0.0011245766654610634,-0.007530556060373783,-0.001780544058419764,-0.0031779175624251366,0.00593496672809124,-0.003104414790868759,-0.0018633456202223897,-0.009209329262375832,0.0003151887212879956,-0.015234995633363724,0.00543448980897665,0.005609323736280203,0.01389780081808567,-0.0025683362036943436,0.011787486262619495,0.0028757688123732805,-0.0011015760246664286,0.012701098807156086,0.001405925489962101,-0.00392671674489975,0.002957438351586461,0.007040740456432104,0.005944492761045694,0.00030890764901414514,0.004131638444960117,0.00028891777037642896,-0.006491956301033497,0.005609495099633932,0.001377108390443027,-0.006818627472966909,0.005622385069727898,-0.0024789180606603622,0.0010191973997280002,-0.0059366729110479355,0.000686544633936137,0.003687240881845355,0.0027167818043380976,-0.011569560505449772,-0.0032069359440356493,-0.004415333271026611,-0.009747736155986786,0.0048596784472465515,0.006450515706092119,0.0051545449532568455,0.007183580659329891,-0.005110725294798613,0.004512230399996042,-0.004373682662844658,0.00026057532522827387,0.003600353142246604],[2.2926054953131825e-05,-0.008853252977132797,-0.005080564878880978,-0.0001605061552254483,0.007542285602539778,0.007783500477671623,-0.002229737350717187,-0.002048136666417122,0.008386612869799137,-0.0005135575775057077,0.0030691958963871002,-0.0027786018326878548,-0.0009415635140612721,0.006751674227416515,-0.003050812054425478,0.002850334858521819,0.0042088949121534824,0.0014517365489155054,-0.003389800898730755,0.004786462057381868,-0.0077661373652517796,-0.0038595050573349,-0.0028744274750351906,0.002324221655726433,0.00759517028927803,-0.006734227295964956,0.003426571609452367,0.005544151645153761,0.002341131679713726,-0.008448068052530289,0.0015636262251064181,0.0019308747723698616,-0.0007922109798528254,0.0007616582443006337,7.501436630263925e-05,-0.0011304640211164951,0.005454810801893473,0.008875608444213867,0.0023843299131840467,-0.004570985212922096,0.0024625901132822037,0.0046288026496768,-0.002791332546621561,0.0020220421720296144,0.0037620211951434612,-0.006301104556769133,-0.0012505067279562354,-0.013163730502128601,0.005482550710439682,0.001632182626053691,-0.009588336572051048,-0.0031226915307343006,0.0009096366702578962,-0.00042487678001634777,-0.001072622137144208,-0.0040662591345608234,-0.0077252015471458435,0.007541367318481207,-0.003438236890360713,-0.0015552393160760403,-0.008081507869064808,0.006416941061615944,0.00026517288642935455,0.005564219783991575,0.0026896342169493437,-0.002016739221289754,0.004182908684015274,0.004777309484779835,-0.0010313399834558368,0.006079573649913073,0.0019801571033895016,-0.001128695672377944,-0.0007479051128029823,0.0057294489815831184,0.00147824187297374,0.0012566903606057167,-0.0007706186734139919,0.0037837435957044363,0.0008337771869264543,0.003958700690418482,-0.0020572191569954157,-0.004112826660275459,0.0006076950812712312,-0.005040149670094252,-0.006088146939873695,0.008514947257936,0.0044058337807655334,-0.0016738816630095243,-0.0027914925012737513,-0.007221459411084652,-0.004986537620425224,-0.003309217980131507,0.013157013803720474,0.0015001214342191815,0.0030072105582803488,-0.00403949897736311,-0.003944580443203449,0.0012021762086078525,-0.0014366707764565945,-0.0030218930914998055,0.0007171174511313438,-0.0005468682502396405,-0.0033337839413434267,0.00273960642516613,-0.002939709695056081,0.001111192163079977,0.0014618129935115576,0.003882787423208356,-0.011641545221209526,-0.0007002531783655286,0.002200883813202381,0.0034671255853027105,-0.005847948137670755,-0.007495458237826824,-0.001696125022135675,-0.0003326323931105435,-0.003415647428482771,-0.003693496808409691,-0.005481740925461054,0.005803513340651989,0.004057839512825012,-0.003471910022199154,-0.00036392113543115556,-0.012755800038576126,-0.0011121324496343732,0.000897740013897419,-0.0018275202019140124,0.0026005180552601814],[0.0015119464369490743,-0.006734732072800398,-0.005649735685437918,0.003706183983013034,0.008547033183276653,0.013263897970318794,-0.007023849990218878,0.00642690435051918,0.002844395814463496,0.00947499368339777,-0.004250043537467718,0.01206569466739893,0.003664143616333604,-0.0007251351489685476,0.0009928446961566806,0.00040749035542830825,-0.0032491518650203943,-0.005270033609122038,0.004330327734351158,-0.0005461002583615482,-0.0028632862959057093,0.001913883606903255,-0.00033095976687036455,-0.006181327626109123,0.005882456433027983,-0.0031640599481761456,0.0028075301088392735,-0.0007248762995004654,-0.005299586337059736,-0.004011732991784811,0.005761306267231703,-0.002425938146188855,-0.0016905940137803555,-0.011616366915404797,0.005095444619655609,0.0023379286285489798,0.0014233015244826674,-0.0014600297436118126,-0.0017474035266786814,-0.0039177765138447285,-0.005518898833543062,0.0014806523686274886,0.005667936056852341,0.0030890125781297684,-0.001396259176544845,0.002498454647138715,-0.005245487671345472,-0.008755320683121681,0.0027193925343453884,0.0036400207318365574,-0.00602593831717968,-0.0007114447071217,-0.0023139193654060364,0.001434180187061429,-0.002511347411200404,0.0068698120303452015,0.0013228791067376733,0.0036650248803198338,0.0009433287777937949,-0.001941709197126329,0.00011145632743136957,0.00012155208241892979,-0.00023132844944484532,-0.002772534266114235,-0.0035504435654729605,0.004504289012402296,-0.006484968587756157,-0.009536233730614185,0.005010053049772978,-0.0036341515369713306,0.006725597195327282,0.0025015403516590595,-0.002110337605699897,-0.007329948712140322,0.00016708415932953358,-0.002328999573364854,-0.0026583638973534107,0.003885166719555855,-0.001592002110555768,0.008696191944181919,4.075794277014211e-05,0.006985607091337442,-0.0037342719733715057,-0.0054031494073569775,-0.0010309607023373246,0.0031140223145484924,0.0026042426470667124,0.0007415704894810915,-0.005517904181033373,-0.012407124973833561,0.005273608025163412,-0.002158684656023979,0.011458332650363445,0.0012230962747707963,0.0006955888820812106,0.007046172395348549,0.0037565084639936686,-0.0019354501273483038,-0.005378429777920246,0.0042952592484653,-0.0036519260611385107,0.005439617205411196,-0.008369707502424717,-0.009011412970721722,0.0006923207547515631,-0.006866953801363707,0.009139719419181347,0.003577577881515026,0.0005592569941654801,0.007332673296332359,0.009671887382864952,-0.0032800203189253807,-0.00983335543423891,-0.0007221487467177212,-0.0008760994533076882,-0.004736840259283781,-0.0005091696511954069,0.0052595301531255245,-0.008168628439307213,0.0014219374861568213,-0.002749975770711899,-0.004323165398091078,-0.005096364766359329,-0.000506012060213834,0.0023533760104328394,0.004983318503946066,-0.002972015179693699,0.0031953377183526754],[-0.0045191203244030476,-0.002177335787564516,0.0021889545023441315,-0.00184601079672575,0.004637857899069786,-0.002821238711476326,-0.0024552340619266033,0.0003594169393181801,-0.001683038310147822,-0.0006073872209526598,-0.00280362437479198,-0.004358476493507624,-0.0027774544432759285,-0.0029249677900224924,-0.0057830726727843285,-7.141524838516489e-05,0.004570923279970884,0.004156995564699173,-0.003985527902841568,-0.0028691089246422052,-0.00549750542268157,0.0023059521336108446,0.002342518186196685,-0.001123138819821179,0.0016255545197054744,-0.009915204718708992,-0.003953760955482721,-0.0006873122765682638,-0.004968919791281223,-0.0024014427326619625,-0.0026681688614189625,-0.0027703416999429464,-0.0021094821859151125,0.005746454931795597,0.0031381845474243164,-0.0012542129261419177,0.0026332836132496595,-0.0004229314799886197,0.00395544245839119,0.0038631302304565907,0.0054137189872562885,0.003239384386688471,-0.001119763939641416,-0.008421502076089382,0.0002458088274579495,0.007802580948919058,0.001367479912005365,-0.003111218800768256,0.006015755236148834,-0.005203125067055225,-0.001792611088603735,0.0003848802880384028,-0.00020022275566589087,0.0005390028818510473,-0.01148462388664484,-0.00206213491037488,-0.006297712214291096,0.00040709180757403374,-0.001403365982696414,-0.004993712063878775,0.0030592160765081644,0.004224888049066067,-0.00263011222705245,-0.0001063430099748075,0.0014643108006566763,-0.0058805630542337894,0.001254176371730864,0.00295604532584548,-0.0028576443437486887,0.006344962399452925,0.005647085141390562,0.0025445728097110987,-0.0010649902978911996,-0.010345798917114735,0.010099864564836025,-0.003197849029675126,0.0066755386069417,0.006967122666537762,-0.0011978760594502091,-0.0006323498673737049,0.005700959358364344,0.003291892120614648,-0.0027353214100003242,-0.003439130261540413,-0.0033657599706202745,-0.0019136307528242469,0.003854053094983101,-0.014871052466332912,-0.0006456164410337806,-0.007428153418004513,0.001720160129480064,-0.002700643613934517,-0.011485664173960686,0.0017007052665576339,0.0035498656798154116,0.0023686974309384823,-0.0006683220854029059,0.0034756010863929987,-0.0014218729920685291,-0.0045667774975299835,-0.00039469642797484994,-0.0033108284696936607,-0.001795478048734367,0.008750103414058685,0.006149022374302149,0.005143781192600727,0.0025829446967691183,-0.00414445623755455,-0.010117702186107635,0.005043279845267534,-0.0017136615933850408,0.003566853702068329,3.404116432648152e-05,-0.003437445033341646,0.010019144974648952,0.0008012386388145387,-0.0032685112673789263,0.0013938919873908162,-0.003733476623892784,0.003798464313149452,0.0029304581694304943,0.004165259189903736,0.0021504599135369062,-0.002638928359374404,-0.002438281662762165,0.006402232684195042,0.0006510023958981037,0.0018823103746399283],[0.008792852982878685,-0.008847535587847233,0.007203343790024519,-0.0011793799931183457,-0.00815965048968792,-0.005655897315591574,0.002384910127148032,-0.0023788369726389647,-0.0031036867294460535,-0.0022675294894725084,0.001691867713816464,0.00827090535312891,-0.015726733952760696,-0.0025162503588944674,-5.088864782010205e-05,-0.008074511773884296,0.001160757732577622,-0.0017218432622030377,-0.0002942534629255533,0.0013938540359959006,0.00017064636631403118,-0.0007134843617677689,0.003236042568460107,-0.009889987297356129,-0.0021114663686603308,-0.0035296925343573093,-0.006102627608925104,0.004013611935079098,-0.0062309675849974155,-0.01095237024128437,0.0010271398350596428,-0.00026231887750327587,0.00010915904567809775,0.0022344004828482866,-0.013739487156271935,-0.0021732139866799116,0.005674993619322777,-0.0035412730649113655,0.0022774890530854464,0.003644834505394101,0.0010601626709103584,0.005418379325419664,0.0034523792564868927,0.010491419583559036,-0.0066750021651387215,6.115101859904826e-05,0.0021110798697918653,-0.005116350948810577,-0.004386039916425943,0.0010592072503641248,0.00938583817332983,0.004030703101307154,-0.0022414233535528183,-0.0008296034066006541,0.004721516743302345,-0.002112317830324173,-0.004669761285185814,0.0019165552221238613,0.006973848678171635,0.0017994705121964216,0.0019214984495192766,0.0031004399061203003,-0.002985574072226882,-0.00300577306188643,-0.0006410042988136411,-0.0030661295168101788,-0.0028178703505545855,-0.005380856338888407,-0.0102809714153409,-0.004229838028550148,0.0009155179723165929,-0.0032235656399279833,0.001929516321979463,0.006448228377848864,-0.00788753479719162,-0.0034101824276149273,0.0016717860708013177,-0.0038119275122880936,-0.00015316660574171692,-0.002524944255128503,0.00199835654348135,0.0042671398259699345,0.001108481315895915,-0.0003560206387192011,-0.005243510473519564,-0.003821481019258499,0.002138719893991947,2.5301455025328323e-05,-0.0010411887196823955,0.006755286827683449,0.002360063139349222,-0.002895334269851446,-0.00020504782150965184,0.0036146442871540785,0.0021777518559247255,0.004446567967534065,-1.799407255020924e-05,0.008753105066716671,-0.0024942790623754263,0.0072296177968382835,-0.0052331904880702496,0.002173797693103552,0.006453136447817087,0.00890908669680357,-0.000591553864069283,0.007771070580929518,0.0013984485995024443,0.0031668345909565687,0.0029442748054862022,0.005066210404038429,-0.0007229921175166965,-0.006951285991817713,-0.00830805953592062,-0.003056562040001154,-0.0010791560634970665,0.0019595706835389137,-0.0004416861047502607,0.00547071173787117,0.008489422500133514,0.0035962031688541174,-0.0006316700018942356,-0.008833655156195164,-0.0003211303264833987,0.009415234439074993,0.000654336588922888,0.007929777726531029,-0.005419605877250433,-0.0051572551019489765],[0.0036635000724345446,-0.0011007258435711265,-0.005630493629723787,0.0006506893550977111,-0.010116590186953545,-0.0030873268842697144,-0.004142565652728081,7.177081715781242e-05,0.0031807648483663797,-0.0021940625738352537,0.005949204321950674,-0.017317740246653557,-0.005988291930407286,-0.0029825521633028984,-0.005620124749839306,-0.007455136626958847,0.004276263993233442,-0.00374973239377141,-0.00026449954020790756,-0.009247979149222374,0.0056082806549966335,0.0004326412745285779,-0.0017780502093955874,-0.0003770710027310997,-0.005928753409534693,0.0016682902351021767,0.008772075176239014,0.006432420574128628,-0.011015281081199646,-0.008522900752723217,-0.007617915980517864,0.0014356074389070272,0.0020292378030717373,-0.006424345076084137,0.00847373716533184,0.003597899107262492,0.008433680981397629,-0.0011541425483301282,0.0015335417119786143,0.0013181817485019565,0.010596306063234806,-0.008745132945477962,0.003262618789449334,0.006819507107138634,-0.002238659420982003,-0.00809499528259039,-0.0027037663385272026,-0.013117748312652111,0.008901935070753098,0.005251893773674965,-0.01103745773434639,-0.006859892979264259,-0.006167312152683735,0.009812085889279842,-0.00227536354213953,-0.0009264330728910863,-0.009709577076137066,0.005687907803803682,-0.0008023431873880327,0.0021914681419730186,0.0023220055736601353,0.009789422154426575,-0.0029161737766116858,0.0028348735067993402,0.0006979268509894609,0.009005029685795307,0.004727672319859266,0.006100327707827091,0.0010666532907634974,-0.008474959060549736,0.003800011705607176,-0.006730346009135246,0.003946023061871529,-0.003811401082202792,0.008386823348701,0.008194769732654095,-0.011255738325417042,0.005168742500245571,0.005165749229490757,0.006558876950293779,0.0005648824153468013,-0.0007545059197582304,-0.00791560485959053,-0.004621713887900114,-0.005360196810215712,0.006274173501878977,-0.0013799769803881645,0.008871332742273808,0.0025135083124041557,-0.00954380538314581,-0.0017108500469475985,0.0002175135159632191,0.004408455453813076,-0.0013617209624499083,-0.0008135892567224801,0.0011619280558079481,0.004759889096021652,0.00011182372691109776,0.002848757663741708,-0.0069184135645627975,0.0029000265058130026,0.003314240137115121,-0.008914090692996979,-0.007183936890214682,-0.0039923605509102345,0.001198398764245212,-0.008453639224171638,-0.0011434397893026471,0.009205860085785389,0.006198017857968807,0.0019101060461252928,-0.002581552602350712,-0.0026680349837988615,0.0020832312293350697,0.0013734876411035657,-0.0016519988421350718,0.0012093823170289397,0.0040353131480515,0.0071456218138337135,0.004676399752497673,-0.0033197905868291855,-0.0009719152003526688,-0.00835449993610382,-0.007910064421594143,-0.0035012976732105017,0.0072660367004573345,0.0013174050254747272,0.010095207951962948],[-0.0029326353687793016,-0.001660365262068808,0.0020140528213232756,-0.0013655888615176082,0.009202910587191582,0.0012459600111469626,-0.002219612943008542,0.005499925464391708,0.00419314019382,-0.00035370088880881667,0.008727551437914371,0.00631978502497077,0.00044911130680702627,-0.002335104625672102,-0.0009026071638800204,0.003329045372083783,-0.003748901654034853,-0.003572731977328658,-0.0012360397959128022,0.0007433140417560935,-0.0006025258335284889,0.00529433973133564,-0.006014690268784761,0.0006274146144278347,0.0006110790418460965,0.0019262656569480896,-0.001966973068192601,-0.003590910229831934,0.012302139773964882,-0.0036383343394845724,0.000229936238611117,-0.0011542384745553136,-0.0032754279673099518,-0.004946145229041576,-0.012557489797472954,0.004183041863143444,0.001273887581191957,0.0031952112913131714,0.0020589123014360666,-0.002609712304547429,-0.0004075302858836949,-0.007367472164332867,-0.0030202476773411036,-0.0021400966215878725,-0.0008260097820311785,-0.0014903226401656866,-0.0007359472801908851,0.006178319454193115,-0.0011423223186284304,0.0017672327812761068,-0.008288583718240261,-0.0030116841662675142,0.0050768544897437096,0.003493465483188629,0.003043705364689231,-0.003471929579973221,-0.0007327118655666709,-0.007094210479408503,-0.000382622005417943,0.0007923900848254561,0.005377938970923424,0.0020628119818866253,0.0062377601861953735,0.0039034299552440643,-0.011635331436991692,0.001235898002050817,-0.010020578280091286,0.0055952901020646095,0.0029448778368532658,-0.0006835933891125023,-0.008436029776930809,0.0006413367227651179,-0.0028343640733510256,0.0007502996013499796,-0.015057481825351715,0.0016682203859090805,-0.0042523350566625595,0.00940069928765297,0.0014976751990616322,0.0024703447706997395,0.001337449997663498,-0.0016017068410292268,-0.008111543953418732,-0.0034938661847263575,-0.0002798479108605534,-0.006869981996715069,-0.0029595738742500544,-0.010799374431371689,-0.004290473647415638,-0.004443631041795015,-0.0020703484769910574,0.005072776228189468,0.012497111223638058,0.00503666652366519,0.0033855668734759092,0.011883320286870003,-0.0015188518445938826,0.0012349400203675032,0.000593057251535356,0.0041123549453914165,-0.006633513607084751,-0.0026729938108474016,0.005808594636619091,0.0028793122619390488,0.00285415630787611,0.0037714678328484297,-0.004000940825790167,0.0004991996102035046,-0.005193694029003382,0.004251366015523672,-0.0095831835642457,-0.0013504450907930732,0.004437437746673822,-6.549897534569027e-06,-0.0068265525624156,-0.005477687809616327,0.00044443420483730733,-0.005448146723210812,5.148884156369604e-06,-0.002091762376949191,0.006111190188676119,-0.006941876374185085,0.00340833212248981,-0.0010508529376238585,-0.0033301159273833036,0.006771679036319256,-0.0033062943257391453,-0.003944338299334049],[0.0012556866277009249,0.001537639880552888,-0.001290049054659903,0.006169388070702553,0.0004135605995543301,-0.006773131433874369,-0.005381290335208178,7.543811807408929e-05,-0.005007411353290081,-0.005164766684174538,-0.0054135918617248535,0.009437858127057552,-0.006768848281353712,-0.0029993767384439707,0.006591020151972771,-0.009405423887073994,0.00022971343423705548,0.006687906105071306,-0.003266136860474944,0.0041750771924853325,-0.002503870753571391,0.0008608491625636816,-0.00044835847802460194,0.004605849739164114,-0.007247826084494591,0.0038334131240844727,0.001198416342958808,0.002227204153314233,-0.003214271040633321,-0.005386296194046736,-0.0012157955206930637,0.0017430391162633896,0.0035980576649308205,0.002241147216409445,-0.0002681269543245435,-0.0036654078867286444,-0.0013459884794428945,0.004576504696160555,0.00811893679201603,-0.007846775464713573,0.0003942364128306508,0.007022270932793617,-0.0037458972074091434,0.000779028341639787,-0.003285773564130068,0.0029340465553104877,0.00423092395067215,-0.0012508082436397672,0.0034480204340070486,-0.004233805928379297,-0.0009478670544922352,-0.005176940001547337,0.009989552199840546,0.0073518273420631886,0.006615505553781986,-0.00034944896469824016,-0.00692240335047245,-0.00559601467102766,-0.003328756894916296,-0.0069860052317380905,-0.008047549054026604,-0.00276395957916975,-0.0024497737176716328,0.002043897518888116,-0.007271684240549803,0.0020964713767170906,9.596689051249996e-05,-0.003029600018635392,-0.0065646786242723465,0.005021176300942898,0.0018568752566352487,-0.0023876549676060677,0.0014703753404319286,0.011684156022965908,-0.0004201512783765793,-0.0044612521305680275,0.0032807032112032175,-0.002636320423334837,0.00010010562255047262,-0.004059277940541506,0.00010219434625469148,-0.007448443677276373,0.008046886883676052,0.007263357751071453,0.006203959695994854,-0.0029580569826066494,-0.0010600336827337742,0.00023313825658988208,-0.00015111951506696641,0.0034687190782278776,0.010341726243495941,-0.0006313956109806895,-0.01021990180015564,0.006674982141703367,0.001878660055808723,0.004706603474915028,-0.0002663680643308908,0.0034623059909790754,-0.0034899930469691753,-0.0071383509784936905,-0.00026459572836756706,-0.004991699475795031,0.0091555779799819,-0.001579304225742817,0.001635868800804019,-0.0011069263564422727,0.009531601332128048,-0.002992188325151801,-0.003749331459403038,-0.0019647737499326468,0.014278273098170757,0.006205527111887932,0.0010721235303208232,0.005271386355161667,-0.004776507616043091,-0.008727905340492725,0.000794620078522712,0.0037385474424809217,0.005401190370321274,-0.0038478635251522064,0.0047730496153235435,-0.006842412985861301,0.011930556036531925,0.005652149207890034,0.003401822643354535,0.002425441052764654,-0.002411649329587817,-0.0020270589739084244],[0.00044716455158777535,-0.005549535155296326,0.00022591445303987712,-0.005314289126545191,0.011003697291016579,0.010800733231008053,-0.005622627213597298,-0.015105726197361946,-0.0038471033331006765,0.0026725593488663435,0.0057600149884819984,0.0031678492669016123,0.00973393302410841,-0.00206792657263577,-0.005784214474260807,-0.007651456631720066,-0.005758258979767561,0.0028919046744704247,0.004168685991317034,0.003258583601564169,-0.001536427647806704,0.004973678383976221,0.00011845996777992696,0.003271417925134301,0.0045003220438957214,0.005898382980376482,-0.009203430265188217,-0.0059568872675299644,0.010867751203477383,0.014486961998045444,-0.0007385059143416584,0.007556175347417593,-0.0005658621666952968,0.0022732806392014027,-0.008218384347856045,0.008181615732610226,-0.0029758939053863287,0.004629073198884726,0.0003737131191883236,-0.002030210802331567,0.00906586553901434,0.005612092558294535,-0.004709409084171057,0.007060778792947531,-0.0009632821893319488,-4.149244887230452e-06,-0.006022007670253515,0.009743434377014637,-0.003277786308899522,0.001147714676335454,-0.0014810225693508983,0.005562927108258009,-0.0007678958354517817,-0.0017063068225979805,-0.005876419600099325,-0.00013736890105064958,0.002292351797223091,-0.0092164920642972,-0.005682349670678377,0.011327692307531834,0.008346932008862495,0.0017155249370262027,0.00028467163792811334,0.005430575460195541,-0.012592267245054245,0.003668527351692319,-0.00045890017645433545,0.0015612166607752442,-0.0009492835961282253,0.004065203480422497,0.0022140529472380877,-0.0027995314449071884,-0.0009531998657621443,-0.000671016052365303,0.004689577966928482,-0.003271473105996847,0.0035092823673039675,0.0035269164945930243,-0.0006817638641223311,-0.0063405283726751804,-0.00946973916143179,-0.003127500880509615,0.0005171237280592322,0.011448848061263561,-0.007217776030302048,0.0024283910170197487,-0.002386219799518585,0.013387477025389671,0.0049699400551617146,0.013917858712375164,-0.0052345674484968185,-0.0020958464592695236,0.00222916342318058,-0.0027861050330102444,-0.004031430929899216,-0.0073705390095710754,-0.004129024688154459,0.006078229285776615,-0.005118946079164743,0.0035908822901546955,0.010909667238593102,-0.004724988713860512,0.010294116102159023,0.004478864371776581,0.0026522143743932247,0.0008425332489423454,-0.003240241901949048,0.007244762033224106,-0.0025378044229000807,0.00043083136552013457,-0.00734791811555624,-0.0021324220579117537,0.0012037381529808044,0.003797148121520877,0.004875696264207363,0.0037985180970281363,-0.005144326947629452,-0.0016818820731714368,0.00719207338988781,-0.0009288214496336877,-0.00011222395551158115,-0.0031082655768841505,0.008276354521512985,-0.0028778081759810448,-0.0036432927008718252,-0.00010186881991103292,0.0020953856874257326,0.004321756772696972],[0.004690013825893402,0.0005100884009152651,0.004613060969859362,-0.0021263514645397663,-0.003017101902514696,0.004758629947900772,0.0030567811336368322,-0.003525814972817898,-0.003047522157430649,-0.004479080904275179,0.006245786789804697,-0.004158728290349245,0.0032307892106473446,-0.005820290185511112,0.0015460281865671277,0.00533868744969368,-0.005533644463866949,-0.003672969061881304,-0.004509910009801388,-0.007003108970820904,0.003214130876585841,0.001544248079881072,-0.009523372165858746,-0.005307839717715979,0.0017609859351068735,-0.0065863956697285175,0.0038828011602163315,-0.001346752978861332,0.0016616781940683722,-0.010456347838044167,0.0038682620506733656,-0.0013290533097460866,-0.002674184273928404,0.014469980262219906,0.004764418117702007,0.00445439713075757,-0.002679598517715931,0.0028686393052339554,0.0004953263560310006,0.012935888953506947,0.0017137130489572883,-0.007682064548134804,0.001869217143394053,0.001852221554145217,6.092572948546149e-05,0.003177481237798929,0.0038509501609951258,0.005358719266951084,-0.003915369510650635,-0.0014298079768195748,0.010937197133898735,0.006378671620041132,-0.0009704658295959234,-0.009340229444205761,0.007279569283127785,0.0040388465858995914,0.0005005807615816593,-0.0034041302278637886,0.001872932305559516,0.003795425407588482,0.003379306523129344,0.003491778392344713,0.0033850271720439196,-0.0011465403949841857,0.00929178949445486,0.0038174132350832224,-0.010906764306128025,-0.009817312471568584,0.0010088321287184954,0.0008041184628382325,0.0027286901604384184,0.00443460326641798,-0.0030919078271836042,-0.013944040983915329,0.008106011897325516,-1.5861302244957187e-06,0.005341141950339079,0.0004242243885528296,-0.0002567061164882034,-0.0002160958101740107,0.00016685253649484366,0.008853011764585972,-0.0034065425861626863,0.0028077252209186554,0.0024384595453739166,-0.0017951097106561065,0.0019422528566792607,0.004235496744513512,0.011554211378097534,0.005441946908831596,-0.0019793380051851273,-0.0004214250948280096,0.008889849297702312,0.007094751112163067,0.003356262343004346,0.007348236627876759,-0.0015737718204036355,0.0034819995053112507,-0.00448202108964324,-0.0024618140887469053,0.00014163029845803976,0.000465892517240718,0.004275362007319927,0.006769211497157812,0.007712202612310648,0.007648257073014975,0.0013475528685376048,-0.005004398990422487,-0.002378613455221057,-0.0006439277203753591,-0.0022424685303121805,-0.006253144238144159,0.01178982574492693,0.002924212720245123,0.002390157664194703,-0.012500529177486897,-0.00037593781598843634,-0.005662098526954651,0.004013662226498127,-0.00035807653330266476,-0.0009044863982126117,0.003954724874347448,0.0018079753499478102,0.010901513509452343,-0.0005248479428701103,0.007092786952853203,-0.0021458056289702654,-9.70165419857949e-05],[-0.0008354478632099926,0.0003009331412613392,0.004275517538189888,0.0007368164951913059,-0.008187314495444298,-0.009028407745063305,-0.010584498755633831,0.008763371966779232,-0.005746759939938784,-0.004877490922808647,-0.005014912225306034,0.0015534169506281614,-0.0021206368692219257,-0.007211151998490095,0.0016829250380396843,-0.003305372316390276,-0.00407586432993412,0.0019664617720991373,0.005135172046720982,0.0053914678283035755,-0.0009321337565779686,0.0010896034073084593,-0.001990264281630516,0.003326843259856105,-0.0016892343992367387,0.0016233520582318306,0.007258117664605379,-0.00630283635109663,-0.0024614634457975626,-0.007005857303738594,0.0018995943246409297,0.002684219740331173,0.008226189762353897,-0.0032194913364946842,-0.007133045233786106,-0.0013872592244297266,9.817809768719599e-05,0.006273295264691114,0.004890461917966604,0.00047097622882574797,-0.0010180444223806262,-0.01122224424034357,0.004773737862706184,0.0021253791637718678,0.0027412455528974533,0.0007768287905491889,0.0012501450255513191,-0.007420504465699196,0.004522725939750671,-0.0027660143095999956,0.0007201958796940744,0.0010975385084748268,-0.0032007533591240644,-0.004954006057232618,0.001602838048711419,-0.0039411792531609535,-0.004242046736180782,0.0035676131956279278,0.003275264985859394,1.1030218047380913e-05,0.0006980915786698461,-0.0001887842227006331,-0.0018821716075763106,0.0041558449156582355,-0.004583509638905525,0.002720632590353489,-0.003737093647941947,-0.0024127012584358454,-0.0013931586872786283,0.005230638198554516,-0.005237464793026447,0.0007151917088776827,-0.0005712105194106698,0.0033956854604184628,0.01197362132370472,0.0029475674964487553,0.005627606995403767,-0.005425156094133854,-7.662354619242251e-05,0.0028753336519002914,0.0028821590822190046,-0.0011187517084181309,-0.002875866601243615,-0.0028948639519512653,0.00041796767618507147,0.0008088848553597927,0.00010723888408392668,-0.004378704819828272,0.0008963333093561232,0.008290871046483517,0.0033044328447431326,0.005463463254272938,0.003800296690315008,-0.0001881927455542609,0.007222600746899843,-0.004766618832945824,-0.007733400911092758,0.0014136986574158072,0.0020267139188945293,-0.0016957988264039159,-0.0002006528084166348,-0.00747839966788888,-0.0012874571839347482,0.008425219915807247,0.006096856668591499,-0.012610111385583878,-0.002100406913086772,0.004216680768877268,-5.4470834584208205e-05,0.0023228260688483715,0.007759155705571175,0.0025566169060766697,-0.004940031562000513,0.0006719065131619573,0.006091426592320204,0.0008369731949642301,-0.005638614762574434,-0.011997280642390251,-0.0019503365037962794,-0.005224314518272877,0.0044074696488678455,0.0001450746931368485,0.008146189153194427,0.011774564161896706,0.00012222540681250393,-0.009340483695268631,0.00422855606302619,0.002964375540614128],[-0.001336592249572277,-0.0021547202486544847,-0.005321134347468615,0.004097776021808386,-0.008162358775734901,0.007475757971405983,-0.006699814461171627,0.0050127035938203335,-0.0023686480708420277,0.003327985992655158,-0.0012540991883724928,0.0028154482133686543,0.004836446605622768,0.003864989848807454,0.00015212826838251203,0.001865306869149208,-0.0072531565092504025,0.007518458180129528,-0.0060935840010643005,0.007461679633706808,-0.010984494350850582,-0.00023541270638816059,0.005886246915906668,-0.004135224502533674,-0.005230408627539873,-0.002859982196241617,-0.0013164433185011148,0.004058239981532097,-0.004339953884482384,0.0015775620704516768,-0.0022387949284166098,0.0005136298714205623,0.0006753788329660892,-0.007116653025150299,-0.0009319467935711145,0.009019005112349987,-0.006435135845094919,0.0036382575053721666,-0.0037450967356562614,-0.0021662309300154448,0.0016899504698812962,-0.005169208627194166,0.0014637658605352044,-0.0062141758389770985,0.006005896255373955,0.00887925736606121,-0.0017677339492365718,0.0002360064972890541,0.006772368680685759,-0.002520210575312376,-0.009548822417855263,0.0014729826943948865,-0.011826991103589535,-0.010846978053450584,-0.0027516689151525497,-0.0033055911771953106,0.005550678353756666,0.0018637576140463352,-0.0038290279917418957,-0.003408031305298209,-7.21090764272958e-05,0.0003788417670875788,0.00338762067258358,0.0011627143248915672,-0.007855835370719433,0.003467818722128868,-0.012135321274399757,-0.002268862212076783,0.009018206037580967,-0.0008811199804767966,0.010516272857785225,-0.00047127364086918533,0.009116112254559994,-0.007326372899115086,-0.0018683983944356441,0.0014473949559032917,-0.0012126392684876919,0.001195109449326992,0.0018096291460096836,0.010739178396761417,0.004123197868466377,0.005253583192825317,-0.0033967681229114532,0.009098285809159279,0.006689442787319422,-0.004323997069150209,0.002132030436769128,-0.008171061985194683,-0.0015474854735657573,0.009227829053997993,0.0014658475993201137,0.0029043047688901424,-0.008265122771263123,-0.004038256127387285,0.0038003544323146343,0.007419737055897713,-0.003299834206700325,-0.0071417479775846004,-0.007031962741166353,-0.008836225606501102,-0.006280248519033194,-0.0014856182970106602,-0.0003569115942809731,0.004588466137647629,0.0053267283365130424,0.0013544821413233876,-0.008480644784867764,0.00391426170244813,0.0038951016031205654,0.007176863960921764,-0.0013148902216926217,-0.0025507837999612093,-0.008913282305002213,-0.004288183059543371,-0.008963614702224731,0.003681731875985861,0.0001346865901723504,-0.0006296730716712773,-0.001545076142065227,0.0025749446358531713,-0.007863134145736694,-0.001085907337255776,-0.010433637537062168,-0.0015292334137484431,0.006092633120715618,-0.004735421855002642,0.002641192404553294,0.005056943744421005],[-0.004328269511461258,0.003007098101079464,0.0010797574650496244,0.004507734440267086,0.005217379424721003,0.0021311533637344837,-0.004384397994726896,0.007350187283009291,-0.002662783022969961,0.004737996496260166,-0.0005255202995613217,-0.00833061058074236,-0.00838103424757719,0.003789718495681882,0.00579011719673872,0.0017747323727235198,0.010041514411568642,0.004192892462015152,-0.0019275315571576357,0.0020640473812818527,0.0019630533643066883,0.0026867880951613188,0.004542071837931871,-0.00866541638970375,0.001701993984170258,-0.0053723896853625774,5.031022010371089e-05,-0.01057916134595871,0.004425297491252422,0.0069684917107224464,-0.002683918457478285,0.003747120499610901,0.0032437497284263372,-0.0005328616825863719,-0.0019307485781610012,-0.0055907005444169044,-0.0037724822759628296,-0.003169197589159012,-0.0014806671533733606,-0.006373570300638676,-0.003760723629966378,0.005048187915235758,-0.00021100188314449042,-0.006893099285662174,-0.0006735229399055243,0.003290572203695774,0.0028987929690629244,0.010141505859792233,0.009100250899791718,-0.0029718009755015373,-0.006674288306385279,0.0018852490466088057,-0.0010467653628438711,-0.004575246479362249,0.0030398324597626925,-0.006320479325950146,-0.005349318031221628,0.007825497537851334,-0.001195422257296741,-0.005104852374643087,-0.0007961485534906387,-0.005665618926286697,-0.0020337041933089495,0.005633029155433178,-0.006437945179641247,-0.001752961310558021,-0.0007496832986362278,-0.006335725076496601,-0.004504423588514328,0.0038695414550602436,0.005248240195214748,-0.009091542102396488,0.00402770284563303,-0.003100283909589052,-0.0026620717253535986,-0.006570245139300823,-0.001528087304905057,-0.004326384048908949,0.0018305436242371798,0.007530079688876867,0.006979882251471281,0.008927549235522747,0.011333621107041836,-0.0015099594602361321,-0.003997968044131994,-0.0043723913840949535,-0.007031111977994442,-0.004307544324547052,-0.003349890699610114,0.000687094870954752,0.0027388932649046183,-0.0024768549483269453,-0.005902630276978016,-0.004453613888472319,0.004651403985917568,0.00056935113389045,-0.0005512275965884328,0.0010761539451777935,-0.005950156133621931,-0.004144397564232349,0.004228985868394375,0.004235120955854654,0.004656850825995207,-0.0003379864210728556,0.002257855609059334,-0.0008805131074041128,-0.004443077370524406,-0.0019698916003108025,-0.0030365395359694958,-0.0037866837810724974,0.0075313313864171505,0.004946452099829912,-0.007051233202219009,-0.007050823885947466,-0.0021276420447975397,0.0016346244374290109,-0.002648001303896308,0.0075166975148022175,-0.0018259200733155012,-0.0010122674284502864,0.002365620108321309,0.002760078525170684,-0.00025135293253697455,-0.008283615112304688,0.0013232320779934525,0.001176653546281159,-3.91344801755622e-05,-0.00424182927235961],[-0.000681348901707679,-0.007569593843072653,-0.001658290741033852,0.0013322025770321488,0.0027117596473544836,-0.004190096165984869,-0.0012930668890476227,-7.425749208778143e-05,-0.005276243668049574,0.0009222800727002323,-0.0022771761287003756,0.0050471024587750435,0.007759339176118374,-0.002825644798576832,0.00826274137943983,-0.0024355275090783834,-0.005098429974168539,-0.005078604910522699,-0.0029683869797736406,0.0036032223142683506,-0.012372489087283611,0.005704669747501612,-0.003177639562636614,-0.002546033589169383,-0.004629116505384445,0.0010861253831535578,-0.006754429079592228,-0.0065635438077151775,-0.001573212444782257,0.007109633646905422,0.0016433843411505222,-0.0017899731174111366,-0.0021128500811755657,-0.0016975681064650416,-0.001335122506134212,-0.003684538882225752,0.0010623971465975046,0.007961616851389408,-0.005349179729819298,0.0014367069816216826,-0.007495901081711054,-0.006936816964298487,0.0007792655378580093,-0.010589056648314,0.0013287768233567476,0.000787183060310781,0.002039330778643489,-0.0063134110532701015,-0.006460958626121283,0.0017056590877473354,0.0038791729602962732,0.003080310532823205,-0.003997767344117165,-0.0013821643078699708,0.005743508227169514,-0.0017158653354272246,0.003479480743408203,0.004772779066115618,0.003029185114428401,0.007516611833125353,0.0005639618611894548,-0.005663653835654259,0.007746408227831125,0.004822904244065285,-0.00305460998788476,0.00420413538813591,-0.0013625511201098561,0.005192149430513382,0.000976678798906505,0.0023430234286934137,0.0018770891474559903,-0.002242070622742176,-0.00870237872004509,-0.008977653458714485,-0.0020199804566800594,0.005068715196102858,0.013062248937785625,-0.0056040468625724316,-0.0010224595898762345,-0.005197890568524599,0.006707094609737396,-0.0032884220127016306,0.006127561908215284,0.0035427638795226812,-0.0035154030192643404,-0.001717745210044086,-0.005772571545094252,-0.0018921064911410213,0.006551443599164486,-0.0067956396378576756,0.002531680976971984,-0.0029513761401176453,0.004293371457606554,0.005112180486321449,0.007904646918177605,0.0024125140625983477,0.00021870910131838173,-0.011001541279256344,-0.008390765637159348,-0.0013016172451898456,0.00011111429921584204,0.0034126427490264177,0.000639920646790415,0.0018725853879004717,-0.003116150386631489,0.001676221494562924,-0.006895733065903187,0.002468508668243885,-0.00034422861062921584,-0.004682924132794142,-0.0006797472597099841,-0.00415275851264596,0.0023161531426012516,-9.341115946881473e-05,0.005896471906453371,0.0037868903018534184,0.0023450441658496857,-0.005091626197099686,-0.005881947465240955,-0.0004070954746566713,-0.0027220617048442364,-0.0016059528570622206,0.005360538139939308,-0.0006783394492231309,0.0017808174015954137,-0.004145969171077013,-0.005459565669298172,0.0018441608408465981],[-0.0020581588614732027,-0.004653503652662039,0.002083402592688799,-0.0045119947753846645,0.007100066635757685,-0.0010402272455394268,-0.00485206488519907,-0.0020174114033579826,-2.7375981517252512e-05,-0.011068062856793404,-0.00231942324899137,0.007242694031447172,-0.001941343885846436,0.01118674036115408,-0.00759977288544178,-0.005270765163004398,-0.0010868440149351954,0.003921149764209986,-0.006533114239573479,-0.00038074530311860144,-0.0018583206692710519,-0.0070192040875554085,-0.0025686861481517553,-0.005607322324067354,-0.0020788093097507954,0.001178932492621243,-0.0033792247995734215,-0.0006528205121867359,-0.004922035615891218,0.0032530738972127438,-0.0056525892578065395,-0.0064025879837572575,0.0007248338661156595,0.007530308328568935,-0.000786490913014859,0.007780682295560837,0.0010253088548779488,0.001108440337702632,-0.0015030078357085586,0.01150283869355917,0.003388369455933571,-0.004060111008584499,0.006251316983252764,-0.0019190411549061537,0.004027202725410461,0.0015983600169420242,-0.00105468335095793,-0.005570221692323685,-0.004150148015469313,-0.0011203584726899862,0.00630626454949379,0.004504602402448654,-0.008483621291816235,-0.007475807797163725,0.010386760346591473,-0.012174287810921669,0.005386215168982744,0.005244370549917221,0.0016680796397849917,0.006110304035246372,-0.003771285293623805,-0.00018146279035136104,0.0041433111764490604,0.001953626051545143,0.009425939060747623,0.0005163926398381591,0.0014518779935315251,0.010755498893558979,0.00016068833065219223,-0.005001426674425602,0.0004018676991108805,0.0025837025605142117,-0.003978665918111801,-0.008689898066222668,0.0003140268672723323,0.005475506652146578,-0.001248284475877881,0.008538367226719856,0.007755164057016373,-0.001706620561890304,0.0003848888154607266,-0.001224755891598761,-0.005059934686869383,-0.0034897211007773876,-0.004931177012622356,-0.003243042388930917,0.007158324588090181,-0.0019495644373819232,-0.0024052809458225965,-0.002521906979382038,-0.007714391220360994,0.0011420872760936618,-0.008178304880857468,0.0004614466452039778,0.005839445628225803,-0.0024328315630555153,0.0062004378996789455,-0.004210402723401785,-0.0070014894008636475,0.009138387627899647,-0.0034185550175607204,-7.460745837306604e-05,0.002601956482976675,-0.0015994751593098044,0.007488219067454338,0.004604237619787455,-0.0055439649149775505,0.008719122037291527,0.010348547250032425,-0.0025219563394784927,-0.0017832806333899498,-0.002852545352652669,-0.004810047335922718,-0.007907175458967686,0.005231334362179041,-0.000995208160020411,0.0017279607709497213,-0.0017853633034974337,0.008595224469900131,0.007243981119245291,0.00834234431385994,-0.0019254995277151465,0.00501488521695137,0.009373977780342102,0.005035605747252703,0.004295973107218742,-0.0026626186445355415,0.003808572655543685],[-0.004098018631339073,0.012441283091902733,0.0024717089254409075,-0.0013675743248313665,0.0003871545777656138,0.006619117222726345,-0.012271777726709843,-0.005449010990560055,-0.0014079735847190022,0.0029911326710134745,-0.004577456973493099,0.00020003541430924088,0.00725163659080863,-0.0014087996678426862,0.0029882981907576323,-5.133376544108614e-05,0.006692375056445599,-0.003437911393120885,0.0005613573011942208,-0.0040982309728860855,-0.0016854722052812576,-0.002630067290738225,0.006866750307381153,0.003384099807590246,-0.004527062177658081,-0.004669973161071539,-0.00750608928501606,-0.004315835889428854,-0.0022440121974796057,-0.003613037522882223,-0.00010062457295134664,0.0010368518996983767,-0.002971972106024623,0.003618191462010145,-0.0007021473720669746,0.004347733687609434,0.0021983038168400526,0.004267513286322355,0.005382988136261702,-0.00931375753134489,-0.0005770532297901809,-0.0018160738982260227,-0.005049119703471661,-0.007757772225886583,0.003585728583857417,-0.0018087067874148488,0.007976869121193886,0.0025096898898482323,0.002026739064604044,0.004087880719453096,0.0017716435249894857,-0.0008808776619844139,-0.0017248643562197685,-0.0011639100266620517,-0.001585945370607078,0.0031305248849093914,-0.00593284098431468,-0.001855978392995894,0.005944248754531145,-0.011601838283240795,-0.0020148404873907566,-0.0020190305076539516,-0.003200196661055088,0.0022630912717431784,-0.005941352806985378,-0.0065772151574492455,-0.0062297130934894085,0.0051253060810267925,0.002373366616666317,0.004972823429852724,0.005698779132217169,0.00038002533256076276,0.002638057805597782,-0.0026299175806343555,-0.006196720991283655,0.0025006516370922327,-0.00020103743008803576,0.010302701964974403,-0.0023969218600541353,0.004591413773596287,-0.0023796174209564924,0.003585194004699588,0.004841248970478773,0.0039762696251273155,0.0028990383725613356,-0.0017239282606169581,-0.00496015977114439,-0.007391052320599556,-0.004861699882894754,-0.009880042634904385,0.0004358452861197293,0.0029245957266539335,0.0038320065941661596,-0.0037766953464597464,-0.00035783855128102005,0.008501897566020489,-0.003336559748277068,0.007859178818762302,0.004026336595416069,0.004316906910389662,0.011418690904974937,-0.005467661190778017,0.004351008217781782,0.007899687625467777,-0.0006981522892601788,-0.002143801422789693,-0.009295467287302017,0.0005507394671440125,-0.003611619584262371,0.0031383305322378874,-0.003795505966991186,-0.00607760064303875,0.006227198056876659,0.001521945116110146,-0.0009980323957279325,-0.009189426898956299,-0.00430492777377367,0.004731832072138786,-0.0103929303586483,-0.0017415352631360292,-0.0031875581480562687,0.002890030387789011,0.0035674984101206064,0.005642988253384829,0.0021482559386640787,0.006164522375911474,-0.0014081153785809875,0.0022677576635032892],[0.0032313987612724304,0.005633264780044556,-0.004720175638794899,0.0026789074763655663,-0.0114362807944417,-0.006819897796958685,-0.005135525483638048,-0.00016449233226012439,0.001566759659908712,-0.004500261507928371,0.0015461836010217667,-0.008363823406398296,-0.011752191931009293,0.00824108999222517,-0.00222866446711123,-0.0073281582444906235,0.004837161861360073,0.0036213016137480736,0.006001238711178303,-0.001027569524012506,-0.00208352692425251,-0.000640413083601743,-0.007601903285831213,0.0016690670745447278,-0.004090787377208471,-0.0023846628610044718,0.0032788102980703115,0.00041720937588252127,0.0007249181508086622,0.016963757574558258,-0.00830554123967886,-0.0021175798028707504,0.0040648761205375195,-0.0022300295531749725,-0.008678960613906384,-0.0014415655750781298,-0.0016586881829425693,-0.0025438712909817696,0.004378709942102432,0.0038113738410174847,-0.004004655871540308,0.0014541986165568233,-0.0013652592897415161,0.0018534736009314656,-0.002401802223175764,-0.011280747130513191,9.072844841284677e-05,-0.0029243244789540768,-0.001664911862462759,0.0011624156031757593,-0.003795025637373328,0.0033008584287017584,0.0002569408970884979,0.007130118552595377,0.0073347254656255245,0.0033319154754281044,-0.002830936573445797,0.008049811236560345,0.00010882264177780598,0.0031190200243145227,0.0072616166435182095,-0.0026081842370331287,-0.008971202187240124,-0.0025113436859101057,-0.007987705059349537,-0.006819441914558411,-0.005731156561523676,0.0010598556837067008,-0.004866818431764841,-0.00563442287966609,0.0023489126469939947,0.0009028622298501432,-0.004944046959280968,0.0060935718938708305,-0.01357697881758213,-0.003642947878688574,0.005004655569791794,0.008322152309119701,-0.001905725453980267,-0.010344828478991985,0.0038020727224648,-0.002677083248272538,-0.0033915448002517223,-0.0016212202608585358,0.0016952634323388338,-0.00432791979983449,0.009594466537237167,0.008576286025345325,-0.005049545783549547,-0.0007373611442744732,0.007228303700685501,0.0033455381635576487,-0.0038402352947741747,-0.005103746894747019,-0.0023725759238004684,0.005924363620579243,-0.010026627220213413,-0.0011329530971124768,0.0015829931944608688,0.010897353291511536,0.0001880641793832183,-0.0009095324203372002,-0.00011649904627120122,0.003657428314909339,0.0017244978807866573,-0.0027895013336092234,0.009382162243127823,-0.0011805202811956406,-0.0024195220321416855,-0.003181326435878873,-0.0037673928309231997,0.004323736764490604,0.006483795121312141,0.004186667501926422,0.006001668516546488,0.00684825936332345,-0.0024500300642102957,0.0022477356251329184,0.012660961598157883,-0.000639250676613301,-0.0021112298127263784,0.002557356609031558,-0.0022353860549628735,0.0034638538490980864,-0.00679326057434082,-0.0006305855349637568,0.0013174639316275716,0.005140337161719799],[-0.003098921151831746,-0.0016288793412968516,-0.009838782250881195,0.0045642186887562275,0.006542126182466745,-0.005084754433482885,-0.003508862806484103,0.004161745309829712,0.002801626455038786,0.000694393937010318,-0.013295505195856094,-0.0023808551486581564,-0.0016233983915299177,0.00917549803853035,-0.0022222173865884542,-0.006227713543921709,0.001008727471344173,-0.002341880463063717,-0.0008724737563170493,0.004625171422958374,-0.0021051266230642796,-0.004449441097676754,0.0014377159532159567,-0.002056382829323411,0.006522872019559145,-0.0008405567496083677,0.00292881578207016,0.0015466399490833282,0.006836051121354103,-0.005995462648570538,0.0031197548378258944,-0.002777694258838892,-0.0009118465823121369,0.011035428382456303,0.009859597310423851,0.005542771425098181,0.002964043989777565,-0.0010087431874126196,0.0031974369194358587,0.007474295794963837,0.006252964958548546,0.005596156697720289,0.005971001926809549,0.007307557854801416,-0.0015015711542218924,0.00563568202778697,0.008363219909369946,0.00406610919162631,0.006383942440152168,-0.0005324964877218008,-0.008649948984384537,-0.0019882265478372574,-0.005526058375835419,-0.006896112579852343,-0.0018335640197619796,0.004479199647903442,-0.005068084690719843,-0.0009472759556956589,-0.00149461068212986,0.0005189452203921974,0.0029973378404974937,0.007402662653476,0.0024933144450187683,0.0002665715874172747,0.0078096818178892136,0.0012125566136091948,-0.0023981535341590643,-0.004826033487915993,0.004678966943174601,0.003634984139353037,-0.004723804071545601,0.006200659088790417,-0.000739873037673533,0.007959182374179363,0.006414045114070177,-0.002675879979506135,0.006655802018940449,-0.008852449245750904,-0.0024962949100881815,0.0002054070500889793,0.005542179103940725,-0.001733510522171855,0.003953257575631142,-0.004315710160881281,0.0016340164002031088,-0.00024770665913820267,0.005123628303408623,0.006161316763609648,0.0012932177633047104,0.007684424519538879,-0.004065051209181547,-0.0013121790252625942,0.00572994677349925,-0.0009030340588651597,0.0009716328931972384,-0.011314519681036472,-0.0014923514099791646,-0.005304498132318258,-0.002593307988718152,-0.009615368209779263,-0.006525265518575907,-0.0024812931660562754,-0.0021295577753335238,0.0012585956137627363,0.0036949117202311754,-0.003810547525063157,0.0028955156449228525,-0.004140099044889212,4.3450185330584645e-05,0.009394410997629166,0.0044655767269432545,0.0038146579172462225,-0.010297015309333801,-0.007267234846949577,-0.003963134251534939,-0.0006649406859651208,0.0012379208346828818,-0.00804672110825777,0.0024329277221113443,-0.00031793711241334677,-0.010247011668980122,0.0030161102768033743,-0.0048243883065879345,0.006626267917454243,-0.001993096200749278,-0.0008398420177400112,-0.0014281015610322356,-0.00028256408404558897],[-0.0006587461102753878,-0.00458845729008317,0.0014722285559400916,0.000174314875039272,0.005801189225167036,0.009585580788552761,0.00030556577257812023,0.0004708761698566377,0.006339109968394041,-0.001495956676080823,-0.0016898018075153232,-0.0057973614893853664,-0.0008970348862931132,0.0018014420056715608,0.001256087445653975,0.013020642101764679,0.003593566594645381,-0.006263463292270899,0.0015405379235744476,0.0030308314599096775,0.0053955321200191975,-0.006915614008903503,0.004380261525511742,-0.005449359305202961,-0.0007221213891170919,0.0021119252778589725,0.005605416838079691,-0.0012255033943802118,0.0009112541447393596,-0.007024772930890322,0.00487392907962203,0.0061246780678629875,0.0012741684913635254,-0.0021363000851124525,-0.010439547710120678,0.001218083081766963,0.0008499788818880916,-0.003943297080695629,0.0018938566790893674,-0.011547638103365898,0.004128206521272659,0.0009103602496907115,-0.009211902506649494,0.008538330905139446,-0.0011242630425840616,-0.001384733826853335,-0.0025114731397479773,0.0027772008907049894,-0.006679933052510023,-0.003282605903223157,0.0003305058926343918,-0.002805178752169013,-0.006739892531186342,-0.0061670877039432526,-0.002553290454670787,0.0006247317651286721,-0.0038231161888688803,-0.0014003500109538436,0.003991555888205767,0.0036042071878910065,0.0006397166289389133,0.008987760171294212,-9.757799853105098e-05,0.002353663556277752,-0.00909794308245182,-0.0022178401704877615,-0.01006274949759245,0.0025202613323926926,0.002846082905307412,0.004214541520923376,0.006959523074328899,0.002875536447390914,0.00562043534591794,-0.003962949384003878,-0.007758393418043852,-0.0019081378122791648,-0.01434051338583231,0.017013823613524437,-0.004335897509008646,0.004680298734456301,-0.00253165140748024,0.003844323568046093,-0.003240907797589898,0.001562763238325715,-0.0012899846769869328,0.0015338744269683957,0.0012654885649681091,-0.005136504303663969,0.0013908620458096266,0.007502722553908825,-0.005614736583083868,-0.006689295172691345,-0.005909426603466272,0.007800742983818054,-0.004231328144669533,0.0019256573868915439,0.007785570342093706,-0.0005215476849116385,-0.0001473850425099954,-0.001737440936267376,0.0016630309401080012,0.0010933884186670184,-0.004792341962456703,-0.014463992789387703,0.002299051033332944,0.005317588336765766,0.004118134267628193,-0.0031390576623380184,0.012500273995101452,0.011828702874481678,-0.004063623491674662,-0.0009720702655613422,-0.0034365318715572357,-0.001139628468081355,0.0023366324603557587,0.0039315614849328995,0.003916071727871895,0.002616678364574909,0.0010314998216927052,-0.0010411931434646249,-0.0002641527680680156,-0.004717264324426651,0.0006047212518751621,0.004931903909891844,-7.596446812385693e-05,0.00033966032788157463,-0.001912726555019617,0.0008834627806209028],[0.0004998552030883729,-0.002928792266175151,-0.007706953212618828,0.005336401052772999,-0.005720420740544796,0.008982295170426369,-0.00613347627222538,-0.004230795428156853,0.003896118840202689,0.002188815036788583,-0.01306010689586401,-0.012194827198982239,-0.008662380278110504,-0.0004810445534531027,0.005221563391387463,-0.001883692224510014,0.0032127881422638893,0.00290711154229939,0.0040837908163666725,0.002146734157577157,-0.013335946016013622,-0.006640128791332245,0.001698424224741757,0.0015594015130773187,0.0074669173918664455,0.002111331792548299,-0.002417248208075762,-0.006332161836326122,-0.005869839806109667,0.010648088529706001,-0.0014046663418412209,0.001226587686687708,-0.0008368320995941758,-6.564228533534333e-05,0.005086173303425312,-0.007047617342323065,-0.003314799163490534,-0.003470449009910226,0.003818406257778406,-0.0028794852551072836,-0.0061294883489608765,0.004160629119724035,-0.006979815196245909,-0.006413866765797138,-0.0016150111332535744,0.0007806457579135895,-0.0049446686170995235,3.89458000427112e-05,0.005406344775110483,0.002818712731823325,-0.003986506722867489,-0.006255830638110638,-0.0012605623342096806,-0.00011422407260397449,-0.002014589263126254,-0.0009165095980279148,-0.005839072167873383,0.0012840043054893613,-0.0008512481581419706,0.002165716141462326,-0.0009410514030605555,-0.0019625870045274496,0.00037380779394879937,-0.008526644669473171,0.005525513086467981,-0.000627795176114887,-0.005569484084844589,-0.003314396133646369,0.006141769699752331,-0.002374285599216819,0.000568035407923162,-0.007453270722180605,0.006947992369532585,-0.012261088006198406,0.004105288535356522,0.002544385613873601,-0.0007222332060337067,-0.003986272495239973,-0.0013429444516077638,-0.004851405043154955,-0.0008163673337548971,-0.0006742983241565526,0.009151746518909931,0.0033872982021421194,0.003435553051531315,0.0001487921690568328,-0.0003006793849635869,-0.000629994145128876,0.0002038774691754952,-0.0023563418071717024,0.004002992995083332,-0.0019204647978767753,0.006060428451746702,-0.012742729857563972,-0.0007863364880904555,0.007642277982085943,-0.0015675330068916082,0.0038647314067929983,0.0007863098871894181,0.0009030274231918156,0.0029457134660333395,0.00037680784589610994,0.0007012267597019672,0.0010847678640857339,-0.006090672221034765,-0.004515575710684061,0.00260684615932405,-0.004416224081069231,0.010422354564070702,-0.0029386209789663553,0.00653873709961772,0.0008561036083847284,-0.014336635358631611,0.002316509373486042,0.00023146640160121024,0.008838570676743984,0.0013033386785537004,0.013479446060955524,-0.0029377529863268137,-0.0035444183740764856,-0.0019472899148240685,-0.010178174823522568,0.0012368756579235196,0.0070204539224505424,0.006300018634647131,0.008183975704014301,-0.000772954779677093,0.008103704079985619],[0.0010029705008491874,-0.00023273333499673754,0.005498284474015236,-0.0027553203981369734,-0.001283643883652985,0.0038652766961604357,0.0016896361485123634,-0.0036566215567290783,-0.005452326033264399,0.009824342094361782,0.0066721485927701,-0.0020832933951169252,-0.01207373384386301,-0.010265994817018509,-0.00038803325151093304,-0.00021886618924327195,-0.004710571840405464,-0.002057466423138976,-0.006128130480647087,0.0024120891466736794,-0.01097644492983818,-0.005709528923034668,-0.005335558671504259,0.0032339415047317743,0.0004596544895321131,0.003638711990788579,0.0021760042291134596,0.0034387330524623394,0.004143087193369865,0.0009509847732260823,0.005708242766559124,-0.00016562452947255224,-0.0036058095283806324,0.00171933532692492,-0.0010587997967377305,-0.0031351610086858273,-0.0019245319999754429,-0.005538284778594971,-0.0012258677743375301,0.0017383771482855082,-0.0006041898159310222,-0.0017480928217992187,-0.00999906100332737,-0.0014348741387948394,-0.001908830483444035,-0.0006871212972328067,-0.0012892110971733928,0.0037784024607390165,0.002866671420633793,-0.0030515179969370365,-0.0005399720976129174,-0.0010111929150298238,0.002429523505270481,-0.0031703603453934193,-0.0008691020193509758,0.00495875021442771,-0.00033785312552936375,0.0036374605260789394,0.0028556149918586016,0.007968509569764137,-0.0023757468443363905,0.0022206606809049845,-0.004808497149497271,0.0019826123025268316,-0.008496279828250408,0.005404694937169552,0.0019348127534613013,0.005973794497549534,-0.0011295833392068744,-0.011011486873030663,-0.0016699769767001271,-0.0018293877365067601,0.004870912991464138,-0.007861806079745293,-0.005733432713896036,-0.00012200830678921193,-0.0019081970676779747,-0.0024903120938688517,-0.0011669708183035254,-0.012283247895538807,-0.006197044625878334,0.002095774980261922,-0.004867272451519966,-0.004047530237585306,0.0017449442530050874,-0.001613402971997857,-0.0008427216089330614,0.002224380848929286,0.0011122258147224784,-0.007317578420042992,-0.0015677525661885738,0.0026343234349042177,0.004355457611382008,-0.004296428523957729,0.0035657421685755253,0.002920853905379772,-0.00044383699423633516,0.005609453655779362,0.009325321763753891,0.004900960251688957,-0.0060660503804683685,-0.003670817008242011,-0.009308213368058205,0.004501312039792538,-0.004211177118122578,0.005602560937404633,-0.0014524919679388404,-0.0026081965770572424,-0.007425072602927685,-0.006072606425732374,-0.016034608706831932,-0.005671773571521044,-0.0054902927950024605,-0.0024777776561677456,0.007319669704884291,0.003292323788627982,0.0030816011130809784,-0.0003801986458711326,0.006829818245023489,0.001357190776616335,0.0074327546171844006,-0.008632779121398926,0.004778745584189892,0.00846777856349945,0.00044023338705301285,-0.002449802355840802,0.003240149235352874,-0.0006132064736448228],[-0.0023192937951534986,0.0009924988262355328,0.004498527850955725,0.0016709502087906003,5.542521466850303e-05,0.004769402090460062,0.005467269103974104,0.006855272222310305,0.0029760063625872135,-0.0013247882016003132,-0.0035188011825084686,-0.005545132327824831,-0.0042384895496070385,0.0060024382546544075,-0.007958999834954739,0.0026191326323896646,0.0017585777677595615,0.007335342932492495,-0.002777419751510024,-0.0027585013303905725,0.009497758001089096,-0.0028760330751538277,0.0017621045699343085,-0.002208329038694501,-0.0017500144895166159,0.009473825804889202,0.0016970190918073058,0.006707446649670601,-0.003923170268535614,0.011273903772234917,0.0006644256063736975,-0.0034753051586449146,0.0015271606389433146,0.00039420518442057073,-0.004093215335160494,0.008633468300104141,0.004218147136271,0.0032807111274451017,-0.000490604666993022,0.009117353707551956,0.006364664528518915,-0.0011562132276594639,-0.008520355448126793,0.005451965145766735,-0.0017353883013129234,0.0016010579420253634,0.0073633682914078236,-0.01114644855260849,-0.0005548177869059145,-0.0017755018780007958,0.005726126488298178,0.008458344265818596,0.003731271717697382,-0.015380414202809334,0.0002957131073344499,-0.0018110722303390503,-1.041583891492337e-05,0.004280720371752977,-0.0036660637706518173,0.007615200709551573,0.0022712133359164,0.00534505769610405,-0.0026226358022540808,0.004287431947886944,0.0143648162484169,-0.0025466529186815023,0.0005763375083915889,-0.004466894548386335,0.0036927938926965,0.0005023177363909781,-0.0022774299141019583,0.0005287725944072008,-0.007002860773354769,0.0060572437942028046,-0.003326122649013996,0.0008964872686192393,-0.0024299868382513523,-0.0006253872415982187,0.0007724783499725163,0.006226250436156988,-0.00578502519056201,-0.0016404840862378478,-0.007911221124231815,-0.0030509433709084988,-0.009700024500489235,0.00022966292453929782,0.0014844352845102549,-0.007086131721735001,-0.0037543820217251778,0.010496607050299644,-0.0007080662180669606,0.0044863540679216385,-0.00829066801816225,0.0062661683186888695,-0.005773568991571665,-0.0019505815580487251,0.0018214042065665126,-0.0009943286422640085,0.0020475329365581274,0.007725807838141918,-0.010431278496980667,-0.002496830653399229,-0.004631144925951958,-0.005369829945266247,8.00437464931747e-06,0.010816698893904686,-0.004032820463180542,-0.002284217858687043,-0.006073992233723402,0.003264922648668289,-0.004721332807093859,-0.007393819745630026,0.006106194108724594,-0.006961568258702755,-0.0027003763243556023,-0.006604660302400589,0.0020385608077049255,0.006517732981592417,0.005539456848055124,0.005144000053405762,0.006697733420878649,-0.007981821894645691,-0.0017522173002362251,-0.012812912464141846,-0.0031168453861027956,0.00029099828680045903,0.0012753382325172424,-0.003848141059279442],[0.002248545177280903,-0.0007085800170898438,0.0024898271076381207,0.0011159239802509546,0.015302345156669617,0.0030124245677143335,0.004055781755596399,0.0007079634233377874,0.0005900298128835857,0.0006538049783557653,-0.0031156495679169893,-0.0002610838273540139,-0.005560470744967461,-0.005258661694824696,-0.007023022044450045,0.004404764622449875,-0.0025593771133571863,-0.00610708212479949,-0.006354546640068293,-0.007255074568092823,-0.017425749450922012,0.0009523701737634838,-0.008725784718990326,-0.0025336018297821283,0.006941681727766991,-0.006037931889295578,-0.004137144889682531,-0.0016735522076487541,0.002716568298637867,-0.003091441700235009,0.0016446290537714958,-0.002808845601975918,0.0044754985719919205,0.007320044096559286,-0.005675176624208689,-0.006060156039893627,-0.0011742825154215097,-0.004915010184049606,-0.002760946052148938,-0.007531843148171902,-0.00403063278645277,0.004370695445686579,0.002453603781759739,0.003543774364516139,0.002273046877235174,-0.005611025262624025,-0.006568704731762409,-0.004655914846807718,-0.0009647548431530595,0.0022547671105712652,0.00783868320286274,0.007609236054122448,0.008437144570052624,0.008438549004495144,0.0058416989631950855,-7.48906095395796e-05,-0.0036674330476671457,-0.008365207351744175,0.0005619570147246122,-0.007906267419457436,-0.0037688524462282658,-0.0014331868151202798,-0.0026673583779484034,-0.00307700177654624,-0.005925585050135851,-0.003944455645978451,0.012620183639228344,0.008404848165810108,-0.0029048393480479717,-0.007119248155504465,0.008722642436623573,0.002424057573080063,-0.005171473138034344,-0.0028260170947760344,0.004527421202510595,0.0031772779766470194,0.005147090647369623,0.004526493139564991,0.0020202428568154573,0.00033209085813723505,-0.0030349495355039835,-0.0063500781543552876,0.0037352018989622593,0.005307684652507305,0.0038680213037878275,0.0009964464697986841,0.0027656378224492073,0.008988452143967152,0.007296565920114517,-0.006626241374760866,-0.004700936377048492,-0.0011927519226446748,0.010566210374236107,0.0068203723058104515,0.0025887181982398033,0.0032043433748185635,0.003565790131688118,0.007220459170639515,0.0023063886910676956,-0.0032820431515574455,-0.004067210014909506,0.005335862282663584,-0.0027452418580651283,-0.009357612580060959,-0.003619682975113392,0.0007397598819807172,-0.0024454710073769093,0.0023537843953818083,0.0014611451188102365,-0.001569632557220757,-0.005208651069551706,0.007485447451472282,0.005491180811077356,0.009737713262438774,-0.00979324895888567,0.0003784458967857063,0.0005775390309281647,0.011045830324292183,-0.0049244798719882965,0.0024221616331487894,-0.00028248512535355985,-0.009065771475434303,0.005626540165394545,-0.010593445040285587,-0.009928076528012753,0.003332610707730055,0.0006716447533108294,0.009409993886947632],[0.006413688417524099,-0.0008558969129808247,-0.002444413723424077,-0.0031160027720034122,0.007573235780000687,0.001567647559568286,0.01347179152071476,-0.006218920927494764,-0.0031594044994562864,0.009552395902574062,0.0049044666811823845,-0.004161523189395666,0.00013586397108156234,-0.006551314610987902,0.005388571415096521,0.009502923116087914,-0.006635128986090422,-0.001262518111616373,-0.004071728326380253,0.004915830213576555,-0.01273038238286972,-0.006203406024724245,0.0072354478761553764,0.0002649038506206125,-0.0031401824671775103,-0.0018167778616771102,0.006297321058809757,-0.0045142462477087975,0.0023927532602101564,-0.0026923969853669405,0.0001276156835956499,0.0023769689723849297,0.004793001804500818,0.0015094346599653363,0.0033455032389611006,0.004622779320925474,0.001553899608552456,-0.0064033265225589275,0.0008374557946808636,-0.004427086096256971,-0.009129364974796772,0.009092219173908234,-0.016596155241131783,0.00030253949807956815,0.001026996411383152,-0.0025011252146214247,-0.005065795965492725,-0.006358236074447632,0.00852357130497694,-0.004099046811461449,-0.006608609575778246,0.010018345899879932,0.006371635477989912,-0.003647405421361327,-0.0003500109014566988,-0.0027331686578691006,0.009430784732103348,0.004820869769901037,-0.0033144811168313026,0.0024060558062046766,-0.0029191868379712105,0.01062016561627388,0.0062492284923791885,-4.9011465307557955e-05,-0.0061125000938773155,0.0028472100384533405,-0.0010458756005391479,0.003390250261873007,-0.00660844799131155,0.0013520080829039216,-0.00557619147002697,0.006838830187916756,0.0036551090888679028,0.012366621755063534,0.0039047717582434416,-0.000136376271257177,0.014095660299062729,0.0011244416236877441,0.00045060180127620697,0.006765307392925024,-0.0027128502260893583,-0.002640125574544072,-0.004116430878639221,0.004099921323359013,-0.005080641247332096,-0.002367874141782522,-0.00033823889680206776,0.0023271022364497185,-0.0031043936032801867,0.003926308825612068,-0.004107734654098749,-0.005749101750552654,0.0046380311250686646,-0.004731181543320417,0.00607159873470664,-0.0098755843937397,-0.006688116583973169,0.004399302881211042,0.00994350016117096,0.0017480471869930625,0.000359830359229818,-0.003898321185261011,0.0038128115702420473,-0.006035471335053444,0.005469625350087881,-0.0009260062943212688,0.0027843306306749582,0.005517246667295694,-0.004506959579885006,-0.00574299693107605,-0.0014263773337006569,-0.0019162304233759642,-0.012108049355447292,-0.004798792768269777,0.004075160250067711,-0.007826427929103374,-0.000591274059843272,-0.006712197791785002,0.0064771720208227634,0.006697970442473888,-0.002949546091258526,0.0045107887126505375,0.009959939867258072,0.009510715492069721,0.004999870900064707,-0.0035407827235758305,0.001237897202372551,0.0005003573023714125],[-0.0090438611805439,-0.0038448197301477194,-0.003917074762284756,0.004811433143913746,0.0030009078327566385,0.006325904279947281,-0.004228897392749786,-0.005275696516036987,0.007250097580254078,0.00457583786919713,0.008084977976977825,0.012898828834295273,0.0009734088671393692,0.009744715876877308,9.836921526584774e-05,-0.00029643092420883477,-0.006291419733315706,0.007524188607931137,0.00466037355363369,-0.0001259914570255205,-0.009896213188767433,-0.002541337627917528,-0.0011344174854457378,-0.004073949530720711,0.005816270597279072,0.0008162509766407311,0.007171600591391325,-0.000633461750112474,-0.004261072259396315,0.0017742846393957734,-1.9658324163174257e-05,0.0041804066859185696,0.003489856608211994,-0.010007357224822044,-0.008866515941917896,0.0007185108261182904,-0.0003338715177960694,0.005534906405955553,-0.0008856577915139496,-0.00030887455795891583,-0.0101475203409791,0.005951262544840574,-0.00400211475789547,0.0030209755059331656,-0.005809691734611988,0.006603507790714502,0.0020755939185619354,0.014756064862012863,0.009132889099419117,-0.001946480362676084,0.004055131692439318,-0.001702688867226243,0.0028359456919133663,-0.005636422894895077,-0.005589697975665331,0.0139137739315629,0.0014040454989299178,0.0032727192156016827,-0.0027215054724365473,0.00041866814717650414,-0.004390044137835503,-0.005875857546925545,0.006600638851523399,-0.002085309009999037,-0.004783792421221733,0.005310621112585068,-0.004742923192679882,0.006876214407384396,-0.0013046342646703124,0.0032583887223154306,-0.008805024437606335,-0.001782186678610742,0.0036299689672887325,-0.010574358515441418,0.010566971264779568,-0.0017633800162002444,-0.0009323496487922966,0.00924625899642706,0.0043961782939732075,-0.0019363693427294493,0.004835765343159437,0.001362807466648519,0.004505984950810671,-0.006062672473490238,-0.0006545829237438738,-0.006798674818128347,-0.002516574924811721,-0.002411237685009837,-0.005556489806622267,0.008583406917750835,0.009288426488637924,0.0033573706168681383,0.0028697981033474207,0.0036140275187790394,-0.003858037758618593,-0.005871532950550318,-0.0037856597919017076,-0.005353903863579035,-0.0010880990885198116,-0.01151666883379221,0.007426585536450148,9.195894381264225e-05,-0.001318562775850296,-0.0015728812431916595,-0.0066351741552352905,-0.0033523968886584044,-0.015071922913193703,-0.002555644139647484,0.0025280173867940903,-0.008460074663162231,-0.01004164107143879,-9.162708010990173e-05,0.013298092409968376,0.005096729379147291,-0.005152312573045492,0.000616315461229533,0.0008539562695659697,0.0080965431407094,-0.0005944729782640934,0.0017225508345291018,0.007523694541305304,-0.006688838824629784,0.003333962056785822,-0.007330055348575115,-0.004392716102302074,0.005788107868283987,0.001253614784218371,-0.0017525330185890198],[0.0009080711170099676,-0.0004973452305421233,-0.004099903628230095,0.0005557009135372937,0.0017413590103387833,-0.00231615430675447,-0.007448267191648483,3.202990455974941e-06,0.006728647742420435,-0.0014297092566266656,-0.004575884900987148,-0.007793582044541836,0.013853756710886955,-0.003285476705059409,-0.0014797189505770802,-0.0010389250237494707,0.0008673390257172287,0.007453290745615959,-0.00033393120975233614,-0.004976398777216673,-0.0016671764897182584,0.002394564915448427,-0.004450613167136908,-0.0022590511944144964,0.0024080476723611355,0.0035522542893886566,-0.0041359225288033485,0.00957948062568903,-0.008382387459278107,-0.002318727085366845,0.007001582533121109,-0.0027061894070357084,-0.0001438850158592686,-0.006532865110784769,0.003053485881537199,-0.004227282013744116,0.00032257818384096026,-0.007532482035458088,-0.001317807356826961,-0.001286860671825707,0.0006355326622724533,0.00043239889782853425,-0.007642093114554882,-0.0029353240970522165,0.0007911149295978248,0.0028583924286067486,-0.0028868720401078463,0.0008080565603449941,0.010475046932697296,0.007875059731304646,-0.0009361309348605573,-0.0013871374540030956,0.005666311830282211,0.017322063446044922,0.0020125936716794968,-0.005276655312627554,-0.0016878932947292924,0.0068314895033836365,0.002566264709457755,-0.002273906720802188,0.003304422367364168,-0.0021063743624836206,-0.004737368784844875,0.008200378157198429,0.01103205420076847,-0.0034621574450284243,-0.00665148114785552,0.012981071136891842,-0.0008573322556912899,-0.00831848755478859,0.011028256267309189,0.000339753256412223,0.00014685769565403461,-0.006510868668556213,-0.0019140263320878148,0.0008827327401377261,-0.004233715124428272,-0.0010536183835938573,-0.003341422649100423,0.007600131444633007,0.005953645799309015,0.0031023176852613688,0.0006355833611451089,-0.007876920513808727,-0.0018648623954504728,-0.0032431657891720533,0.0037654940970242023,0.002958719851449132,-0.0061402153223752975,-0.011002594605088234,-0.006364783737808466,-0.000527822005096823,-0.0002299108455190435,0.0018845903687179089,0.002593421610072255,-0.0003570028056856245,0.0011327718384563923,0.007238368503749371,0.004093681462109089,0.00426945835351944,-0.006066795438528061,0.0017622490413486958,-0.005604149773716927,0.00028498200117610395,0.0030013262294232845,-0.0014687268994748592,0.00842543225735426,-0.0017560055712237954,0.01418205164372921,-0.000630892114713788,-0.0010685687884688377,-0.0002859584637917578,0.007010639179497957,0.001195488148368895,-0.005265815649181604,-0.007170711178332567,0.0006424683961085975,0.0008683964842930436,-0.006808694917708635,-0.00040698886732570827,0.00628890935331583,-0.003915415145456791,-0.0016173335025087,0.010095768608152866,0.0008385704131796956,-0.0036643885541707277,-0.001212012954056263,-0.0006982051418162882],[-0.0031520214397460222,0.0061147804372012615,-0.0013392362743616104,0.0015748933656141162,0.003479523118585348,-0.00905434601008892,0.0011313696159049869,-0.0029025881085544825,-0.0008495281799696386,-0.01012441236525774,0.0006919191218912601,0.0014423606917262077,0.002516728127375245,-0.006985885091125965,0.0018716877093538642,-0.003678493434563279,-0.003157863626256585,-0.0031964692752808332,-0.006713856011629105,-0.0058706593699753284,0.005136395804584026,-0.005620808340609074,0.001272280584089458,-0.0022039187606424093,0.00042195949936285615,0.004518869798630476,0.006820679176598787,0.0033950277138501406,0.004785109311342239,-0.0080439867451787,0.0032118766102939844,2.2259886463871226e-05,-0.0044908360578119755,-0.0037613774184137583,0.0023860707879066467,0.0090650524944067,0.004367007873952389,-0.0008901458932086825,-0.00015561147301923484,0.000490330217871815,0.007584228180348873,-0.0050191995687782764,0.0037943844217807055,0.003155785147100687,-0.0007427291129715741,-0.006314180325716734,-0.0013775908155366778,0.003774285549297929,0.0017161223804578185,-0.003357102395966649,0.007423026021569967,0.009427784010767937,-0.00034701841650530696,-0.007196549791842699,0.0008155045798048377,0.004619625862687826,0.010560902766883373,-0.008815075270831585,-0.0014930646866559982,0.001995593775063753,-0.006609200965613127,0.00571310892701149,0.0022621918469667435,-0.0009877406992018223,0.012724561616778374,0.003613438457250595,0.010939819738268852,-0.003984812181442976,-0.00015692398301325738,0.008554190397262573,0.004526644945144653,0.006120692472904921,3.5451976145850495e-05,-0.0064256275072693825,-0.004150899592787027,-0.0015848182374611497,-0.010856402106583118,0.006071322597563267,0.0009145749500021338,0.007450741250067949,0.007602312136441469,-0.004429084714502096,-0.0025429127272218466,0.003331605577841401,-0.006245303899049759,0.0014095449587330222,-0.004692204762250185,-0.0023607686161994934,0.005146562587469816,0.00501998420804739,0.0032401776406913996,-0.0012952883262187243,-0.00672115758061409,0.00015826319577172399,0.0015823591966181993,0.0073672072030603886,-0.00014134676894173026,0.005347295198589563,-0.002447077538818121,-0.003141922876238823,0.0018212046707049012,-0.004732786677777767,0.0025553503073751926,0.01049108523875475,-0.001580705982632935,0.0014781428035348654,-0.003932908643037081,0.001500503858551383,-0.004555484279990196,0.005779340397566557,-0.006024616304785013,-0.0007220659172162414,0.006572616286575794,0.00032421419746242464,-0.004975416697561741,0.0016336658736690879,0.007498827762901783,-0.0038792553823441267,0.003147981595247984,0.0023135808296501637,0.00402455497533083,0.002051287330687046,-0.005052757449448109,0.008007984608411789,-0.0003288484294898808,0.010255418717861176,-0.005267563741654158,0.0002517678658477962],[0.0003941866452805698,0.0030228944960981607,-0.0009325076825916767,-0.0011170137440785766,-0.00923036690801382,0.0025611671153455973,-0.003746290924027562,0.0067399307154119015,-0.0021113429684191942,0.0018537051510065794,0.002456980524584651,-0.006742998491972685,-0.002229550154879689,0.005678960587829351,-0.008879393339157104,0.008767525665462017,-0.0019680382683873177,0.002875481965020299,0.0029830385465174913,-0.008401931263506413,-0.004376180004328489,0.001833271118812263,0.0005480560357682407,0.002131603891029954,-0.0006971540278755128,0.0017305169021710753,-0.0004436648450791836,-0.0029588881880044937,0.005306525155901909,0.0015430058119818568,-0.004498440306633711,-0.005951691418886185,0.000739803712349385,0.0019086436368525028,-0.007929741404950619,-0.003698610235005617,0.0014602475566789508,-0.005386365111917257,0.00042012467747554183,0.004030277021229267,0.00398662406951189,-0.008154496550559998,0.007092608604580164,-0.0038037311751395464,0.00146341638173908,-0.007062542252242565,0.002484992379322648,-0.007003502454608679,0.0009035157854668796,-0.0027510239742696285,-0.007172432262450457,-0.0008878359221853316,-0.0022899366449564695,0.005997136235237122,0.00482030538842082,-0.004306902643293142,0.0003115343861281872,3.022261444129981e-05,-0.0024449615739285946,-0.0024839683901518583,-0.0028656162321567535,0.0056491391733288765,-0.0037742448039352894,-0.004267004784196615,-0.007071482017636299,-0.005786185152828693,-0.003305013757199049,0.006156548857688904,0.008617354556918144,0.0062993112951517105,-0.011392921209335327,0.0035738693550229073,-0.001969345146790147,0.0023537487722933292,-0.006573863327503204,0.003040845040231943,-0.004737443290650845,0.007238517981022596,0.0026664803735911846,0.0033461039420217276,-0.002194368513301015,-0.0008155712275765836,0.002632872434332967,0.0014289779355749488,-0.0008671281975694001,-0.005045556463301182,0.004383360035717487,-0.0033597650472074747,-0.00031724097789265215,-0.0006266568088904023,0.0036338558420538902,-0.004038830287754536,-0.006861395202577114,0.006085030268877745,-0.0025208706501871347,0.008874999359250069,-0.005966168362647295,0.008015024475753307,-0.005269218701869249,-0.007930212654173374,-0.00177698431070894,-0.0005522929131984711,-0.0016890577971935272,0.008250496350228786,0.00427068630233407,-0.007551904767751694,-0.0016984081594273448,-0.0010365480557084084,-0.015248975716531277,-0.003521373961120844,-0.002272412646561861,-0.0026536532677710056,-0.0008787291590124369,-0.0018305587582290173,0.0005904497229494154,0.0004660694976337254,-0.0015005532186478376,0.0026331720873713493,0.0029766790103167295,0.0034244621638208628,0.004436186980456114,-0.010787729173898697,0.0003300645621493459,0.00441014114767313,-0.005016288720071316,0.010629831813275814,0.0011627236381173134,0.008337005972862244],[-0.0023141219280660152,0.0018761797109618783,0.0024186433292925358,0.003273578593507409,0.005387460812926292,-0.005144390277564526,-0.0020978294778615236,-0.000675804098136723,0.0014557013055309653,0.0016535016475245357,0.005153828300535679,0.0028659722302109003,-0.00047068126150406897,0.008842086419463158,-0.002270858036354184,0.0039514158852398396,-0.007503990549594164,-0.0014302596682682633,0.00023187744955066592,0.0027217837050557137,1.3890492482460104e-05,-0.0020364676602184772,-0.0003802287101279944,-0.0028965093661099672,0.001777239958755672,0.000657150405459106,-0.00017836787446867675,-0.0011247702641412616,0.004706957843154669,0.005522321909666061,-0.0006913060788065195,0.0022528981789946556,0.0017136359820142388,0.016850575804710388,-0.0005124345771037042,-0.008607861585915089,0.002428380073979497,0.004681273363530636,-0.0005458393134176731,0.010021582245826721,-0.0018557218136265874,-0.007196968421339989,-0.0006738663651049137,-0.0027814533095806837,0.00017861966625787318,0.00588781014084816,0.009002474136650562,-0.003602840704843402,-0.0005164333269931376,-0.002550272736698389,-0.006099641788750887,-0.001864760648459196,0.005060024093836546,0.004973960109055042,0.0027128374204039574,0.004793691448867321,0.0035279439762234688,-0.0008756050956435502,-0.0014176134718582034,-0.0028747094329446554,-0.003957533277571201,0.00512434309348464,0.0004039939376525581,0.005586428567767143,-0.006280214991420507,0.0014449040172621608,-0.0027238293550908566,0.006573997903615236,0.0023613490629941225,-0.0015575493453070521,-0.0016192174516618252,-0.0021121124736964703,-0.00550893833860755,-0.008800862357020378,0.010703629814088345,-0.004836295731365681,0.004137777257710695,-0.009876023046672344,-0.006350989453494549,0.0018727462738752365,-0.00030483733280561864,-0.0021685282699763775,-0.0005805972614325583,0.000672224850859493,-0.0012517436407506466,0.000993023277260363,-0.0029044148977845907,0.006089441478252411,-0.0032587172463536263,0.002211068058386445,0.0037927404046058655,-0.005855403374880552,0.0030253231525421143,0.0026444210670888424,0.0031357535626739264,-0.0038619867991656065,-0.00014127402391750365,0.004605521913617849,0.0031567178666591644,-0.004258687607944012,