{"meta":{"in_dim":3,"hidden_dim":128,"hidden_layers":8,"out_dim":55,"skip_in":[4],"w0":30.0,"w0_hidden":30.0},"layers":[{"weight":[[-0.05504707992076874,0.07966230809688568,-0.2261248677968979],[-0.10786379128694534,0.30643749237060547,0.07287172228097916],[-0.15283632278442383,0.06498712301254272,0.02969103492796421],[-0.10873180627822876,-0.23296605050563812,-0.22444778680801392],[-0.09705296903848648,-0.10999367386102676,-0.24620938301086426],[0.16393418610095978,0.014069814234972,-0.0041083381511271],[0.27788984775543213,0.19980904459953308,0.17303861677646637],[0.1291900873184204,0.18237340450286865,-0.28728654980659485],[0.23236961662769318,0.047961726784706116,-0.22340235114097595],[-0.11460059881210327,-0.08124622702598572,-0.04659854620695114],[-0.1118176057934761,0.12402985990047455,0.04113023728132248],[-0.24368426203727722,0.06146031990647316,0.26289382576942444],[-0.16471248865127563,0.29714086651802063,0.3167252242565155],[-0.04979393631219864,0.2657262086868286,-0.19456855952739716],[0.2874850630760193,0.05937938392162323,-0.20119719207286835],[0.254060298204422,0.0783771350979805,-0.19442887604236603],[0.25256213545799255,-0.017571302130818367,0.3116651773452759],[0.23778419196605682,-0.021122314035892487,-0.19677527248859406],[-0.2409207969903946,0.1596747189760208,0.2654162645339966],[-0.15737229585647583,-0.04709535837173462,-0.19310669600963593],[0.19690755009651184,0.17261290550231934,-0.29489314556121826],[-0.05853428319096565,-0.2572023868560791,0.2707088589668274],[0.23612932860851288,-0.24217085540294647,-0.11191654950380325],[0.020798442885279655,-0.14660410583019257,0.20000864565372467],[0.06570363789796829,0.039640508592128754,0.2109685093164444],[0.15835833549499512,0.13007250428199768,-0.03913151100277901],[0.10299750417470932,0.04852447658777237,-0.09041504561901093],[-0.2629321217536926,-0.10505355894565582,0.08960240334272385],[0.07893912494182587,0.1986604630947113,-0.2550451159477234],[-0.018284911289811134,0.12285172939300537,0.10294579714536667],[0.0895109623670578,-0.2110554724931717,-0.09210772812366486],[-0.03701253980398178,-0.10110947489738464,-0.18867725133895874],[-0.11982977390289307,-0.27535954117774963,-0.15524634718894958],[-0.15167547762393951,0.21221640706062317,0.032925523817539215],[-0.18893621861934662,0.1150592640042305,0.05954473093152046],[-0.2416982501745224,-0.3058525025844574,-0.3072192072868347],[0.14510004222393036,0.2679189443588257,0.07081334292888641],[0.16982872784137726,0.2942027747631073,-0.04403158649802208],[-0.27207234501838684,-0.12051848322153091,-0.03666693717241287],[0.015134850516915321,0.1949344426393509,0.061191245913505554],[0.26570847630500793,-0.2618529796600342,0.08161700516939163],[0.020927375182509422,-0.20324388146400452,-0.29846298694610596],[-0.04612324386835098,-0.024752158671617508,-0.16025684773921967],[0.04962071776390076,0.12632936239242554,0.28216949105262756],[-0.21383728086948395,-0.2597232758998871,-0.24186569452285767],[0.1137818843126297,-0.2999422252178192,0.04842863231897354],[0.062205467373132706,-0.10947734862565994,0.1854173094034195],[0.10212347656488419,0.021253488957881927,0.04065602272748947],[-0.1377953290939331,-0.22826619446277618,0.004621197935193777],[-0.16305655241012573,-0.25775545835494995,0.09599475562572479],[0.28618761897087097,-0.13798275589942932,0.10034895688295364],[-0.2983376681804657,-0.27682241797447205,0.09663249552249908],[0.2484969049692154,-0.04922087863087654,-0.2647211253643036],[0.09052462875843048,0.15535709261894226,-0.05484358221292496],[0.21485991775989532,-0.17803366482257843,-0.2364458441734314],[0.29431411623954773,0.09659766405820847,-0.2129032015800476],[0.2656678855419159,0.2305251955986023,-0.0823134109377861],[-0.01582997851073742,0.19035233557224274,-0.013822232373058796],[-0.16049548983573914,0.23932380974292755,-0.17399942874908447],[0.15761180222034454,-0.03242117911577225,-0.06119836866855621],[0.27251240611076355,-0.07770470529794693,-0.09875139594078064],[0.19285652041435242,-0.30690106749534607,-0.21290767192840576],[0.05091560259461403,0.21011629700660706,0.12775954604148865],[-0.1550435572862625,0.15311415493488312,0.22947019338607788],[-0.26954492926597595,0.1823253482580185,0.03369172289967537],[0.20796045660972595,0.03330155834555626,-0.29971516132354736],[-0.12447140365839005,0.12625525891780853,-0.08051804453134537],[-0.0214471984654665,0.027636978775262833,-0.06612075120210648],[-0.10132059454917908,0.22247789800167084,-0.0970555990934372],[-0.046777378767728806,-0.13039076328277588,-0.16158892214298248],[-0.14548487961292267,-0.11524565517902374,-0.017956189811229706],[-0.2194427251815796,-0.025849122554063797,-0.1155170202255249],[0.10317785292863846,0.24703997373580933,0.10246064513921738],[0.1461968868970871,0.009708201512694359,-0.07614666223526001],[0.23938927054405212,0.23720093071460724,-0.04343829303979874],[-0.11063580960035324,-0.15633833408355713,-0.039779264479875565],[0.14494697749614716,0.16242003440856934,0.29212722182273865],[-0.2560228407382965,-0.03533453866839409,0.07372084259986877],[0.019306804984807968,0.2282756268978119,-0.18228112161159515],[-0.14162124693393707,0.2532513439655304,-0.24831870198249817],[0.022816186770796776,-0.2423551082611084,-0.2523750066757202],[-0.10885784029960632,-0.008359860628843307,-0.01676759123802185],[-0.17999255657196045,0.28755858540534973,-0.14606843888759613],[-0.2749937176704407,0.1816970407962799,-0.2466648370027542],[-0.020666031166911125,0.21226750314235687,-0.25037601590156555],[-0.29074928164482117,-0.29934823513031006,-0.1800125390291214],[-0.13994832336902618,-0.020953785628080368,-0.044562071561813354],[-0.13121159374713898,-0.15393204987049103,0.05383025482296944],[0.26616591215133667,-0.30806711316108704,-0.09010937809944153],[-0.10397575795650482,0.064812071621418,-0.24900290369987488],[0.07990913838148117,0.1885959804058075,0.12815360724925995],[0.10117549449205399,-0.02136380970478058,-0.030444074422121048],[-0.1337897926568985,-0.15596027672290802,0.15275359153747559],[-0.18717899918556213,0.251386433839798,0.2465844750404358],[0.08557014167308807,-0.07336612790822983,0.11552669107913971],[0.13458313047885895,0.06958473473787308,0.05829843133687973],[-0.019962215796113014,-0.2398614138364792,0.06571690738201141],[-0.14448189735412598,0.06849707663059235,0.037211377173662186],[-0.27289021015167236,-0.2564999461174011,-0.058572880923748016],[-0.12736815214157104,-0.15246015787124634,-0.13721729815006256],[-0.19170193374156952,-0.163116455078125,-0.20992511510849],[-0.13720953464508057,0.294064998626709,-0.16714134812355042],[-0.2749871015548706,0.027179552242159843,-0.21899265050888062],[-0.1454656720161438,0.1605759859085083,0.22832335531711578],[0.22934412956237793,-0.2995802164077759,-0.16995033621788025],[0.24191725254058838,-0.058283720165491104,0.22647778689861298],[-0.10113997012376785,0.2712588310241699,0.19867843389511108],[0.12173912674188614,-0.2208002656698227,-0.21022339165210724],[-0.03917240351438522,0.18796981871128082,0.15855152904987335],[0.15880222618579865,0.023594330996274948,-0.14414657652378082],[-0.1565837562084198,-0.18593546748161316,-0.06447513401508331],[0.24153278768062592,-0.30854082107543945,-0.2877351641654968],[0.2665490210056305,0.22223861515522003,-0.17596547305583954],[-0.05565575510263443,-0.007220038678497076,-0.3062098026275635],[-0.260588139295578,0.1572897732257843,0.13124561309814453],[-0.09816354513168335,-0.27513086795806885,-0.12632687389850616],[0.006778012495487928,-0.15969353914260864,0.08651502430438995],[-0.1506718546152115,-0.19882632791996002,-0.1365889012813568],[-0.13163498044013977,-0.3044399917125702,0.010778933763504028],[0.22974029183387756,0.19237405061721802,-0.20101918280124664],[0.11984392255544662,0.010377148166298866,-0.04196548089385033],[0.11304588615894318,-0.2701300084590912,-0.31610867381095886],[0.21038475632667542,0.3120535910129547,-0.13905861973762512],[-0.2412480264902115,0.2063780575990677,0.2857969105243683],[0.29687827825546265,0.077911876142025,0.2264530509710312],[0.23918849229812622,-0.20063897967338562,0.2402801811695099],[-0.21077275276184082,-0.0011455758940428495,-0.180631622672081],[-0.17787779867649078,-0.043667424470186234,0.2000848352909088]],"bias":[0.5224194526672363,0.4082264304161072,0.20325446128845215,0.18095673620700836,-0.18355081975460052,0.2999499440193176,0.3476588726043701,-0.3995194435119629,-0.4236592650413513,-0.2548460066318512,0.2972683012485504,-0.34462714195251465,0.5755000114440918,0.08400841802358627,0.5548406839370728,0.4936739206314087,-0.3342554569244385,-0.14060042798519135,0.33942529559135437,0.08997155725955963,-0.5603960752487183,0.43357053399086,-0.5326109528541565,0.0066305105574429035,-0.42360666394233704,-0.11111412197351456,0.10842663049697876,-0.4993056356906891,0.07357309013605118,-0.40221554040908813,0.53758305311203,0.42773863673210144,0.3158038556575775,0.05836992338299751,0.22702208161354065,-0.17101168632507324,-0.3875182867050171,-0.30634841322898865,0.03669298440217972,-0.1964692920446396,-0.40442419052124023,-0.5225021243095398,0.23326417803764343,-0.06547816097736359,-0.43437498807907104,-0.3894801139831543,0.20329797267913818,-0.30545008182525635,-0.25735917687416077,-0.5742337107658386,0.2000519037246704,-0.3640859127044678,-0.21849393844604492,-0.3266046941280365,-0.19333350658416748,-0.21805933117866516,-0.038478534668684006,-0.01788034476339817,-0.5665522813796997,0.10694600641727448,0.12114305794239044,0.13247330486774445,0.5693598389625549,0.3030804395675659,0.12165650725364685,0.5763683319091797,0.49087607860565186,-0.5563373565673828,0.058021221309900284,0.581427276134491,0.5430869460105896,-0.39670529961586,-0.03827652707695961,0.4840240776538849,0.24332912266254425,0.005450330674648285,0.07287679612636566,0.48777633905410767,0.26870155334472656,0.5455567836761475,0.2669832408428192,0.5407990217208862,-0.4130654036998749,0.4466257095336914,-0.21520890295505524,-0.020867839455604553,-0.3652331233024597,-0.09623125195503235,-0.06711690872907639,0.45145630836486816,0.5261073708534241,0.15613211691379547,0.15373875200748444,0.12689407169818878,0.1668667048215866,0.12160836160182953,-0.28399547934532166,0.5600519776344299,0.2856820225715637,0.19927358627319336,-0.4008781313896179,0.3926737308502197,0.4801639914512634,0.11963453888893127,-0.044707898050546646,-0.19966480135917664,0.15935161709785461,-0.20948010683059692,-0.06992291659116745,0.009976955130696297,-0.5278255939483643,0.3489900231361389,0.3485831022262573,-0.5041177868843079,-0.3751499056816101,0.270600289106369,0.13730455935001373,0.2608470618724823,-0.3646230399608612,0.0852552130818367,0.4452816843986511,-0.254810094833374,0.15083016455173492,0.3919987678527832,-0.015601280145347118,-0.3059321343898773,0.007941599003970623,0.188252255320549],"w0":30.0},{"weight":[[-0.006435651332139969,-0.0008170134969986975,-0.0029758105520159006,-0.00385964079760015,2.1481720978044905e-05,-0.0016340247821062803,0.0004952813615091145,-0.0019754075910896063,0.006158610340207815,0.00372668937779963,-0.004106935113668442,0.0005843685357831419,-0.00014081576955504715,-0.0027236416935920715,0.001069733058102429,-0.0021101762540638447,-0.00039693363942205906,0.0038987647276371717,0.000985461170785129,0.00417269766330719,-0.0038952853064984083,0.00019431771943345666,-0.0027481645811349154,-0.012517230585217476,-0.0006721583195030689,-0.012155760079622269,-0.007007298059761524,0.007125542499125004,-0.005888515152037144,-0.002700165146961808,-0.0084434375166893,0.005065945442765951,0.0012509854277595878,-0.003013215260580182,0.00025499993353150785,0.0008077722159214318,-2.61290497292066e-05,-0.0001693064405117184,-0.00618394510820508,0.0038392208516597748,0.0021294234320521355,-0.002642337465658784,0.0071570174768567085,-0.00010283797746524215,0.0001643143768887967,0.002054662210866809,0.0005090273916721344,0.011367157101631165,-0.0028961659409105778,-0.005136944353580475,-0.006177088245749474,0.0007010023691691458,0.0012108057271689177,-0.002330274088308215,0.0010413185227662325,0.002789857564494014,0.004828478675335646,-0.004936994519084692,-0.0017129305051639676,-0.003873489797115326,0.002904552035033703,-0.00329330051317811,0.0012887503253296018,-0.0011407401179894805,-0.0016184585401788354,0.0033187437802553177,0.0019517613109201193,-0.007247634697705507,0.00042188132647424936,0.00010753064998425543,0.004910433664917946,-0.004176241811364889,-0.0012520361924543977,-0.007935798726975918,0.0009802801068872213,-0.0056386785581707954,-0.002582375193014741,-0.005643966142088175,-0.0029977234080433846,-2.619438964757137e-05,0.005181208252906799,0.005611210595816374,-0.00125027762260288,0.0020202649757266045,-0.005696642212569714,-0.0014849355211481452,-0.004929856397211552,0.006511523853987455,-0.0019055947195738554,-0.0052231112495064735,0.007125766947865486,0.0033734135795384645,0.00618438096717,0.001788018154911697,-0.0017443269025534391,0.006250770762562752,0.006869555450975895,0.002336271107196808,-0.0006947952788323164,-0.007975734770298004,0.0025233605410903692,0.0017028312431648374,-0.0026518257800489664,0.002899262122809887,-0.00044821263873018324,-0.00504557229578495,0.0003489689843263477,0.0009209454874508083,0.004361237399280071,-0.007509788032621145,-0.001976335421204567,-0.001138507854193449,-0.00032359594479203224,-0.004581835120916367,-0.0008356696926057339,0.004570650868117809,-0.01229243353009224,-0.002803957089781761,0.004662833176553249,-0.006331208162009716,-0.003151503624394536,-0.0020953896455466747,-0.0022573855239897966,-0.003158995183184743,-0.00034614832838997245,0.0010075486497953534,-0.004424239508807659,0.002095357049256563],[0.002565245609730482,-0.0018930303631350398,0.004564614966511726,-0.004886336158961058,0.0005358775961212814,0.0021028919145464897,0.003559401258826256,0.004034873563796282,0.003749258117750287,-0.003006907179951668,0.010458064265549183,0.0016230124747380614,-0.0016041925409808755,-0.003775419667363167,-0.002681424841284752,-0.003400766523554921,0.0022458513267338276,-0.0004806413489859551,0.0002786352706607431,-0.00030879807309247553,-0.0027450050693005323,-0.0024304480757564306,0.00725195650011301,-0.0076770419254899025,-0.001295791589654982,-0.0006281847017817199,0.0031078942120075226,-0.0036570930387824774,0.00550233805552125,0.013097928836941719,0.004144552629441023,-0.005137247499078512,0.0005430663004517555,-0.0014178879791870713,-0.005446429364383221,0.00254201702773571,-0.004147444851696491,-0.0006984816864132881,0.0026747549418359995,0.0007282809820026159,-0.0007697559194639325,0.0052482970058918,0.007623747456818819,-0.001595081645064056,0.001215340569615364,-0.0031717901583760977,0.001652651815675199,-0.0015253560850396752,0.0011903694830834866,-0.0021371475886553526,-0.006005519535392523,-0.00524867931380868,-0.0003005010075867176,-0.00033873465145006776,-0.006250754464417696,-0.002610597060993314,-0.0057938238605856895,0.009691540151834488,-0.0024359002709388733,0.005571845453232527,0.0016084995586425066,0.0025418971199542284,0.0026390429120510817,-0.002831576159223914,-0.005393594969063997,0.004911536816507578,-0.013685573823750019,0.006168690975755453,0.007021088618785143,0.0024296860210597515,-0.006279596593230963,0.004267719574272633,0.0011092498898506165,0.011426934972405434,-0.0035718900617212057,0.001937652239575982,0.004264356102794409,0.0029525337740778923,-0.0018964289920404553,-0.0025644407141953707,0.0009128289530053735,0.0025940528139472008,0.003390607191249728,0.0040883831679821014,-0.0005965320160612464,0.00023494170454796404,-0.0015000035054981709,-0.0019041296327486634,-0.003384930081665516,-0.006292342208325863,0.005415427032858133,-0.004293929319828749,0.0029039771761745214,-0.00114668149035424,-0.0019379612058401108,-0.0036908769980072975,0.004587850067764521,-0.0016032621497288346,-0.00650027533993125,-0.0027237911708652973,0.0035922734532505274,0.0025468331295996904,0.004358897916972637,-0.0005809066933579743,-0.0031804884783923626,-0.0007217855309136212,-0.0013098153285682201,-0.0014534327201545238,0.006176915485411882,-0.0011418582871556282,-0.000637525285128504,0.0010384463239461184,0.0019826609641313553,-0.0018703914247453213,0.0014879244845360518,-0.001038146554492414,-0.006258038803935051,0.0014224299229681492,-0.002599105704575777,-0.0011321394704282284,-0.003610784187912941,0.0005759879131801426,0.0029333708807826042,-0.0035873535089194775,-0.002970581641420722,-0.0037995504681020975,-0.0024585267528891563,-0.00938472431153059],[0.0005465187132358551,-0.002362789586186409,-0.004984192084521055,-0.006758024450391531,0.00831668172031641,-0.00031246672733686864,-0.007538728415966034,0.0031398176215589046,-0.0007017464959062636,-0.00020952678460162133,0.0019991938024759293,-0.0042654420249164104,0.002678083023056388,0.004636730998754501,-0.0043975054286420345,-0.004287450108677149,0.004078957252204418,0.0028609856963157654,0.0014643173199146986,-0.00476005207747221,0.002502141986042261,0.0017430017469450831,-0.005490793380886316,0.0030908307526260614,0.003022280754521489,-0.007067050319164991,-0.0011441274546086788,-0.0057932655327022076,0.003939178306609392,-0.00882031675428152,0.0019139789510518312,0.0018779659876599908,0.0006130373803898692,-0.007712068501859903,-0.002371356589719653,-4.2906354792648926e-05,-0.003244068007916212,-0.00441413838416338,0.005524168256670237,-0.00607570493593812,0.003602265613153577,-0.0004814784333575517,-0.002678356831893325,0.004082914441823959,-0.002425841521471739,0.002106364583596587,-0.0031572117004543543,-0.00959706213325262,0.0021343526896089315,0.003040023846551776,-0.004448865540325642,0.001022779499180615,0.0034137186594307423,-0.002899792743846774,0.0061218333430588245,0.00042214361019432545,-0.003366385819390416,-0.0036404759157449007,0.0007724335882812738,-0.004612203221768141,0.002799435518682003,-0.0040177167393267155,0.0006986345397308469,-0.0009943278273567557,-0.0009982599876821041,0.002079126425087452,0.002583454828709364,0.0017335034208372235,-0.003702735062688589,-0.0034031704999506474,0.011639939621090889,-0.0033009988255798817,0.002290638629347086,0.00020363250223454088,0.004592975601553917,-0.007731049787253141,-0.0031569362618029118,-0.0005190032534301281,0.0014347421238198876,0.0005720629706047475,0.0016908877296373248,-0.009001607075333595,-0.00019464305660221726,0.0034115228336304426,-0.0009303184924647212,-0.002990695647895336,0.006480766460299492,0.00704766483977437,0.0013374417321756482,0.003962033893913031,0.003124754875898361,-0.003106112126260996,-0.005248609464615583,0.00013799211592413485,0.005317206960171461,-0.0007591359317302704,-0.00040363293373957276,-0.001519436831586063,0.005616392940282822,-0.008786166086792946,0.004041635897010565,0.0031205082777887583,0.002784269629046321,0.0031648133881390095,0.004439412150532007,-0.004179897252470255,0.004410510417073965,0.004311288706958294,0.005202905740588903,0.009366471320390701,0.006191367749124765,0.0035982895642518997,-0.002513160929083824,-0.004827200435101986,0.0021879321429878473,0.0021541528403759003,-0.0013393490808084607,0.0021658840123564005,-0.0007936596521176398,0.002261740854009986,0.00902040395885706,-0.0002599095751065761,0.003237092401832342,2.6855810574488714e-05,0.002552421297878027,-0.0001386301009915769,0.003663262352347374,0.0033180748578161],[0.003729246323928237,0.0019302982836961746,-0.008545970544219017,0.0010508077684789896,0.0024798831436783075,0.0030802383553236723,-0.001984757138416171,0.0037606609985232353,0.002999648917466402,-0.0022225696593523026,0.002613765187561512,-0.0014097685925662518,-0.000324032997014001,-0.0021276730112731457,-0.00153943314217031,-0.0035602557472884655,-0.001965369563549757,-0.0025734975934028625,0.0003814995288848877,0.003239906160160899,0.00013427452358882874,0.002869776915758848,0.00479695200920105,0.004840114153921604,-0.006036259233951569,0.006006359122693539,9.077525464817882e-05,-0.00166670186445117,-0.001229387940838933,-0.0026118315290659666,-0.0004086604749318212,-0.010964914225041866,0.0010240845149382949,0.00794659461826086,0.0013584422413259745,-0.0014319465262815356,-0.00029714760603383183,0.001518816570751369,-0.001438765786588192,0.0028425012715160847,0.00016756553668528795,0.00014444334374275059,-0.0081265177577734,-0.0028092830907553434,-0.0010932416189461946,0.002610212890431285,0.008951516821980476,-0.011395632289350033,-0.010695721954107285,0.0008904249407351017,-0.0040268381126224995,0.002737079979851842,0.0008061234839260578,0.006848716177046299,-0.0029928325675427914,0.0031703361310064793,0.0007825387292541564,-0.012699916958808899,0.0044439141638576984,-0.003954004496335983,0.002424738835543394,-0.000439595925854519,-0.0068353875540196896,-0.002982628997415304,-0.0035348543897271156,-0.0006745149730704725,2.4949540602392517e-05,-0.008190145716071129,-0.00017379422206431627,-0.006888698786497116,0.0035272520035505295,0.0050825439393520355,0.000534530496224761,-0.0010367609793320298,0.0002936406235676259,-7.18666851753369e-05,-0.0013575556222349405,0.000992023036815226,0.0010815419955179095,-0.002553472761064768,-0.002309465780854225,0.009064975194633007,0.005904126446694136,0.0022930020932108164,0.0014327637618407607,-0.00010233788634650409,0.0054780361242592335,-0.002318331506103277,0.0006942388718016446,-0.0014868431026116014,-0.0027375747449696064,0.014794173650443554,-0.003329323139041662,0.0014071359764784575,-0.005168644245713949,-0.004029976669698954,0.0008853937615640461,-0.0015623992076143622,0.002125185215845704,0.0011241747997701168,-0.0035816493909806013,-0.00023492402397096157,0.004042660817503929,0.0024577125441282988,-6.886048504384235e-05,-0.000707383849658072,-0.000551048491615802,-0.0011035881470888853,-0.007067810744047165,0.0019701593555510044,0.004476272035390139,0.0016728098271414638,0.002270529977977276,0.0024711894802749157,-0.0016587048303335905,0.003163442946970463,0.001936209388077259,0.005096100736409426,0.0013902400387451053,-0.0016522667137905955,-0.00857750978320837,0.0003648954734671861,-0.00035030892468057573,-0.0026529189199209213,-0.0005594469839707017,9.260452316084411e-06,-0.00570776266977191,0.005197396967560053],[-0.006908270996063948,0.0029732617549598217,0.0035172179341316223,-0.0032271607778966427,0.0012102389009669423,-0.0012837706599384546,0.0037199154030531645,0.0020779173355549574,0.002605783985927701,0.004876651801168919,0.007793623488396406,0.0028818657156080008,0.0006448068888857961,0.0025374777615070343,0.0011683484772220254,0.0009903933387249708,0.001971500227227807,0.005102158989757299,0.000141010110382922,-0.0031735843513160944,-0.0013886704109609127,0.0005169739597477019,-0.0031409093644469976,0.0015127481892704964,-0.009225999005138874,0.00621614046394825,0.014876758679747581,-0.0038518751971423626,0.0046995412558317184,-0.009038764052093029,-0.010735539719462395,0.009344802238047123,-0.0006051230011507869,0.0033093001693487167,0.002560470486059785,0.0004101201775483787,-0.002038919134065509,-0.0005047713639214635,-0.0011090519838035107,0.007115555461496115,0.004807568155229092,0.0016298798145726323,-0.009378651157021523,0.006241255905479193,-0.001706367707811296,0.0018396819941699505,0.006309437565505505,0.0034906333312392235,0.0007017182651907206,-0.0003976690932177007,-0.004263727460056543,-0.003081967355683446,-0.0013921005884185433,-0.005501450039446354,0.0014917266089469194,0.001301828888244927,0.002162315882742405,0.00878476444631815,0.0035801019985228777,0.008279594592750072,-0.007741108536720276,0.0006131245754659176,-0.0026421500369906425,-0.001941913622431457,-0.0044590686447918415,-0.0015691648004576564,-0.002992684952914715,0.009337948635220528,-0.003611835651099682,0.00030106474878266454,-0.0003302530094515532,0.011977060697972775,0.0040132938884198666,-0.00900320615619421,0.0013297735713422298,-0.0006424119346775115,-0.001009247382171452,0.004638174083083868,-0.006650146096944809,0.00022707194148097187,0.001870755455456674,-0.004635727033019066,-0.0011502158595249057,0.001708857249468565,0.0018374169012531638,0.000706917024217546,-0.007333617191761732,0.0035210889764130116,-0.0017271556425839663,0.005277279298752546,0.0012205728562548757,-0.009810935705900192,0.0022535030730068684,-0.001978090964257717,0.004867235664278269,0.0004005835799034685,-0.002390040783211589,0.0049095782451331615,-0.002467392012476921,0.0028258035890758038,0.0009693211177363992,-0.003410894190892577,-0.002272404730319977,0.0038961791433393955,-0.0014617048436775804,-2.578711610112805e-05,-0.0025553919840604067,0.0016102396184578538,0.0013450332917273045,0.008610084652900696,0.0010436753509566188,-0.00023329835676122457,0.0024460959248244762,-0.003951386548578739,0.005904055200517178,0.004534468054771423,0.008175523020327091,0.0010019730543717742,0.000967766041867435,-0.003373931162059307,-0.008837608620524406,-0.002156043890863657,-0.0016461708582937717,-0.000611538183875382,-0.002166473539546132,-0.0037237461656332016,0.005894068628549576,0.001993021462112665],[-0.008521954528987408,-0.0038307311479002237,0.00018383166752755642,-0.001225601532496512,-0.0009594662114977837,-0.004116050899028778,-0.0016084497328847647,-0.004095232579857111,0.0023644124157726765,0.004012024961411953,0.0099728312343359,-0.002631725510582328,-0.0004965255502611399,0.0038517918437719345,0.0008555861422792077,-0.0022510841954499483,0.00014091881166677922,0.0013940727803856134,-0.00026636061375029385,0.0006698972429148853,-0.0012956677237525582,-7.540435763075948e-05,-0.002284382004290819,0.004366559907793999,-0.005623155739158392,0.0026203636080026627,0.005570461042225361,0.0002221425238531083,-0.004712387919425964,-0.011867271736264229,0.0027060459833592176,-0.004379374906420708,-0.0017937597585842013,0.00410811509937048,-0.005679117515683174,0.001202767831273377,0.007560431025922298,-0.0006065659690648317,0.005236867815256119,0.017552465200424194,0.005551660433411598,-0.0010163314873352647,-0.008573777973651886,0.0004034845915157348,0.0014913678169250488,0.004625348374247551,0.0038564966525882483,0.008520604111254215,0.003095980966463685,-0.005074352957308292,-0.000984642654657364,-0.002135214628651738,-0.0010216975351795554,0.001367128104902804,-0.0043875123374164104,-0.001602612086571753,-0.0024424956645816565,0.0064429170452058315,-0.0025257922243326902,-0.00032381489290855825,-0.000957925571128726,0.0013691220665350556,-0.003315163776278496,-0.00014782640209887177,0.003950228914618492,0.000996254850178957,0.010794831439852715,-0.0016461521154269576,0.0009215036407113075,-0.009098270907998085,0.0011343819787725806,0.005450219847261906,0.0015605187509208918,-0.003169822273775935,-0.0005425442359410226,-0.005625857040286064,-3.552528141881339e-05,-9.895305265672505e-05,0.0015435087261721492,0.0021242047660052776,0.004218629095703363,-0.00042861353722400963,-0.001528291730210185,-0.0009637392940931022,0.0013069205451756716,0.0010309756034985185,-0.009820932522416115,-0.006600635126233101,0.0011806698748841882,-0.002716242102906108,0.0023012941237539053,0.0004959055222570896,0.0007952896994538605,0.007522607687860727,-0.00391339510679245,-0.002728054067119956,-0.005362078547477722,0.00029842875665053725,0.0012068200157955289,-0.0019456970039755106,-0.005925507750362158,-0.0023697030264884233,-0.00017070183821488172,-0.0058958204463124275,0.0021410644985735416,0.0017227845964953303,0.003568509127944708,8.311629790114239e-05,-0.006975656840950251,-0.008394786156713963,-0.0022181482054293156,-0.0018884968012571335,0.0013196708168834448,-0.0057335407473146915,-0.002743368037045002,-0.003818086814135313,0.0022815519478172064,0.0027715046890079975,-0.0010094805620610714,0.0015059838769957423,-0.004086875822395086,0.002205770229920745,0.0008620752487331629,-0.0008938621613197029,0.0020893521141260862,-0.0006306210998445749,0.0005320343771018088,-0.00033867903403006494],[0.002625961322337389,-0.0012007574550807476,-0.001828725915402174,-0.0014103733701631427,-0.006389182060956955,0.00030301971128210425,-0.0060723209753632545,0.002440015086904168,0.0014249741798266768,-0.0021754384506493807,0.013045545667409897,0.002365502994507551,0.004245256073772907,0.00739233149215579,-0.0046042571775615215,-0.00663485424593091,0.0007007207022979856,0.000467246281914413,0.0024774461053311825,0.0029012549202889204,0.006903091445565224,0.0016613852931186557,0.00206029717810452,0.009310529567301273,0.007507930509746075,-0.007679401431232691,0.0019334868993610144,0.005001460202038288,0.0033704282250255346,-0.0016282236902043223,0.0002796668850351125,-0.008674857206642628,-0.003976888954639435,0.0050115459598600864,-0.008414879441261292,0.0014469058951362967,0.0010594261111691594,-0.0002404156548436731,-0.00639286870136857,0.0022862220648676157,0.003787429304793477,0.006969126872718334,-0.004972313530743122,0.0007834394345991313,-0.002917360747233033,0.005807092413306236,-0.003469073213636875,0.021603384986519814,0.0001627898309379816,0.004235061816871166,0.0005711780395358801,0.001591525156982243,0.000982853933237493,0.002919337712228298,0.00030741290538571775,0.0031777597032487392,-0.003777042031288147,0.003461413085460663,0.0034013621043413877,0.0042967414483428,0.0024595651775598526,0.003555410308763385,-0.006952560972422361,-0.0008186344057321548,-0.007857398129999638,-0.0011037919903174043,0.004507256671786308,0.0020143219735473394,-0.002344796434044838,-0.006033903919160366,0.0011155027896165848,0.002145554171875119,0.00289816758595407,0.007562927436083555,0.002537208842113614,-0.0041154795326292515,0.001297174021601677,0.003800388891249895,0.002466031350195408,0.0011022452963516116,-0.0008978971745818853,-0.009340936318039894,-0.0036499309353530407,-0.0009003941668197513,-0.000666283187456429,0.00041531756869517267,0.0001186194785987027,-0.006349469535052776,-0.0026103253476321697,-0.003689245553687215,6.369681796059012e-05,-0.005008106119930744,-0.009988535195589066,-0.002255166880786419,-0.00712302140891552,0.0028093995060771704,-0.0028949002735316753,-0.0018630338599905372,0.000972813053522259,-0.004951991606503725,-3.330704885229352e-06,-0.001682018511928618,0.005706520285457373,-0.004800410941243172,0.0004072464653290808,0.0005465155700221658,-0.003488790011033416,-0.006695894058793783,-0.004118866287171841,0.009653979912400246,-0.005282517056912184,-0.0009626516839489341,-0.005227962508797646,0.003137994557619095,0.00398282939568162,0.0032921398524194956,0.0004064803943037987,0.0038351721595972776,-0.0032613740768283606,0.0016718989936634898,0.003916760440915823,-0.00608966825529933,0.0009106792858801782,-0.004702295176684856,0.004173499532043934,0.0007540489314123988,0.0017424713587388396,-0.0003059068403672427],[0.0031160912476480007,0.003059078473597765,0.0024124050978571177,-0.004079093690961599,0.005858807358890772,0.002872999757528305,-0.0016186187276616693,-0.0014032927574589849,-0.001696993364021182,0.009526841342449188,0.00132734642829746,0.004193095490336418,-0.0009494939586147666,0.002509184181690216,-0.003511118469759822,0.005100633483380079,0.004426013212651014,-0.001515726326033473,-0.0002593787794467062,-0.0009582992061041296,0.0008720065816305578,-0.0026022661477327347,-0.0013035043375566602,0.007578901015222073,-0.003730467986315489,0.001569952117279172,0.003247525542974472,0.0024222845677286386,0.009834782220423222,-0.004939861595630646,0.0029817833565175533,-0.0073377955704927444,0.003500227816402912,0.0016281632706522942,0.0016583021497353911,-0.0003232313320040703,0.007180988322943449,-0.003704925999045372,-0.002256444888189435,-0.0020389589481055737,-0.000575982965528965,0.004072599112987518,-0.008456289768218994,0.003962123766541481,-0.00024497738922946155,0.0016186235006898642,0.0022866325452923775,-0.007923063822090626,-0.00106819870416075,0.0030693798325955868,0.00013206350558903068,0.005712601356208324,-0.0033442939165979624,-0.003952201455831528,-0.005639761220663786,-0.0018248908454552293,0.0050760963931679726,0.004076741170138121,0.006130452733486891,-0.0008071340271271765,0.0007018482428975403,0.0012458772398531437,0.0066561512649059296,0.0023656871635466814,-0.005316760390996933,-0.0018156887963414192,0.009741459041833878,-0.00783606618642807,0.008104602806270123,-0.0035069321747869253,0.0024506349582225084,0.004633930511772633,-0.0038881844375282526,-0.003437501611188054,0.00236878776922822,-0.0007509547867812216,-0.0009803425054997206,-0.0021826347801834345,0.003446793183684349,-0.002948733977973461,0.004140200559049845,-0.0028258750680834055,0.00034567544935271144,0.004904258530586958,-0.0005691536352969706,-0.0009361252887174487,0.003912121988832951,0.0015174138825386763,0.004876289516687393,0.010804382152855396,-0.010404198430478573,-0.0072570182383060455,0.0001732796081341803,0.004030153155326843,-0.007554346229881048,0.0008441084064543247,0.002098090248182416,-0.01000437792390585,0.0016372473910450935,-0.004028097726404667,-0.00010707661567721516,-0.0017368412809446454,0.006328229326754808,-0.0036089736968278885,0.0005731937126256526,0.004599126987159252,-0.0017669653752818704,-0.0019312802469357848,-0.0044267140328884125,-0.00618960615247488,0.006094080861657858,-3.0869974580127746e-05,0.0019489837577566504,-0.005390308331698179,0.006456733215600252,-0.001943655894137919,-0.004452572204172611,-0.005781608168035746,-0.0010189872700721025,0.001884935307316482,0.010399109683930874,0.0002526559110265225,-0.00034457037691026926,-0.0035145783331245184,-0.0006262167007662356,-0.002416948089376092,0.0020462702959775925,-0.004840591456741095],[-0.0025865284260362387,0.004878092557191849,-0.009452395141124725,-0.0033701539505273104,0.0036443020217120647,-0.0010893263388425112,-0.00025452865520492196,-4.447361789061688e-05,0.0035994774661958218,0.005616805981844664,0.01008836179971695,0.003267129184678197,0.0007463276269845665,-0.002727858256548643,-0.004605784546583891,0.0015985372010618448,0.0003744863497558981,-0.007612905465066433,0.0030243785586208105,-0.004571506753563881,-0.00352564943023026,-0.002640089485794306,-0.004015460144728422,0.0032720582094043493,-0.01383190043270588,0.002729525091126561,-0.0008107632747851312,0.00592077849432826,-0.004239590372890234,-0.01704302616417408,0.0015788101591169834,0.0013645585859194398,-0.0021860965061932802,0.0013109822757542133,0.0026507750153541565,-0.0013605538988485932,0.003995066042989492,-0.0019965767860412598,0.0003051736857742071,-0.0009056513081304729,-0.0036500534042716026,0.0008628605282865465,0.0018616464221850038,0.0004948165151290596,-0.0050035398453474045,-0.003790148301050067,-0.007423287723213434,-0.00998025294393301,-0.004065272398293018,0.005369395948946476,0.002590885851532221,0.0021193544380366802,0.00271976669318974,0.0019095768220722675,0.005392588209360838,5.475057605508482e-06,0.0049013723619282246,-0.0025526138488203287,-0.001956285908818245,-0.00370196090079844,-0.0035296946298331022,0.002219238318502903,0.0008120189886540174,0.0022407379001379013,-0.00310245668515563,-0.0014685383066534996,0.001667688018642366,-0.0047841500490903854,-0.0011831537121906877,0.0030330324079841375,0.009460732340812683,0.003897501388564706,-0.0055224038660526276,0.004235845524817705,0.0022405630443245173,-0.0010941957589238882,-0.0021533984690904617,0.00018236733740195632,-0.003867556806653738,0.0027297090273350477,-0.0038776048459112644,0.004231249913573265,0.0027400844264775515,-0.002375540789216757,-0.004645432345569134,2.434515863569686e-06,0.0025442021433264017,-0.0064462898299098015,-0.0014172510709613562,0.0007638995302841067,0.002943936502560973,-0.0013027325039729476,0.0006058186409063637,0.0016885357908904552,-0.003965790383517742,-0.004031157586723566,0.002997142495587468,0.0024448130279779434,0.0003903329197783023,-0.0036500426940619946,-0.0001987479190574959,0.0008799475617706776,0.000863608147483319,-0.0007701095310039818,0.0027142150793224573,-0.002563695190474391,0.004087872803211212,-0.0014784662052989006,0.003246510634198785,-0.009267524816095829,-0.0009084919583983719,0.0016461797058582306,-0.0024324795231223106,0.0006699656369164586,-0.0015723645919933915,-0.005607013590633869,-0.00015973632980603725,0.0026818732731044292,-0.0019854754209518433,-0.0027377656660974026,0.004670058377087116,0.0006438400014303625,0.0032038255594670773,0.004121890291571617,0.0027109901420772076,0.0033478597179055214,0.006635136902332306,-0.006472159177064896],[-0.0001437923638150096,0.007300625089555979,0.012828337959945202,0.003835041308775544,-0.004333899822086096,0.00917538907378912,0.001939120120368898,-0.0008508720784448087,-0.0034381195437163115,-0.007103088311851025,-0.00542211951687932,-0.0018477648263797164,0.0005666824872605503,-0.0019547773990780115,0.008138097822666168,0.0037589091807603836,5.652571053360589e-05,0.0050971657037734985,0.0003038576396647841,-0.0007314060349017382,0.002066131215542555,-0.0012282717507332563,0.0031700851395726204,0.0075712548568844795,-0.00726029509678483,0.0039717890322208405,0.005453150253742933,0.0032566331792622805,0.0022713898215442896,-0.0031113058794289827,0.006869073025882244,-0.0009737953660078347,0.000562647299375385,0.002221887931227684,0.0005488332826644182,-0.002065523760393262,0.0004248269251547754,-0.006323389708995819,-0.002680798526853323,0.004200260154902935,0.001745017827488482,0.000493534782435745,-0.004815768450498581,-0.001684793853200972,0.001086253090761602,-0.006390583701431751,-0.00586057361215353,0.012457992881536484,0.004774832632392645,-0.003605785546824336,-0.0013152608880773187,-0.0006236900808289647,-0.004553011618554592,-0.0021043329034000635,0.0024480882566422224,0.001515457988716662,0.0006478175637312233,-0.008823742158710957,-0.0009846362518146634,0.00458249868825078,0.0031377598643302917,0.0011325920931994915,-0.004200465977191925,-0.001736571779474616,-0.002955457428470254,-0.0008304617367684841,0.0027885790914297104,-0.008478169329464436,-0.004730110988020897,-0.003353700740262866,-0.0013389857485890388,0.003569731954485178,0.002692371141165495,0.002381480298936367,-0.0006485971389338374,0.004560613539069891,0.004236216656863689,-0.0049721249379217625,-0.003383329138159752,0.004348441027104855,0.003425020957365632,-0.008302930742502213,-0.002026727655902505,-0.0009270755690522492,-0.005154862534254789,0.0005623667384497821,-0.007721267640590668,0.005575207993388176,0.001085276948288083,0.008809669874608517,0.002237648470327258,0.002957808319479227,-0.0030736790504306555,-0.001295170746743679,-0.006511516869068146,-0.0025188655126839876,0.002079480793327093,-5.343401880963938e-06,0.00023964856518432498,0.010775499045848846,-0.0027798826340585947,-0.0006763373385183513,0.00020411440345924348,-0.003799533937126398,0.0008342001819983125,-0.0049750711768865585,-0.001029238454066217,-0.0011720542097464204,-0.003687204560264945,-0.001334787579253316,-0.004056038334965706,0.00011841185187222436,0.0012505698250606656,0.00024565463536418974,0.0036608001682907343,0.003526281798258424,-0.006541402079164982,0.006822014227509499,-0.0034496954176574945,-0.0017596539109945297,-0.008017327636480331,0.0006781392730772495,-0.0008975166128948331,0.0025611647870391607,0.002504693577066064,0.0007182708359323442,-0.0008921438711695373,-0.0029680526349693537],[-0.0032084945123642683,-0.00233460939489305,-0.0059370119124650955,0.0037241254467517138,0.004028908908367157,-0.002254761755466461,0.004689519293606281,0.001613879227079451,0.004413552116602659,-0.00442994199693203,-0.002186998724937439,-0.0038451706059277058,0.002082474296912551,-0.0009973545093089342,-0.0009562908089719713,-0.0013348879292607307,-0.0017665509367361665,-0.0030107074417173862,0.0059727635234594345,-0.0032891524024307728,-0.001052001491189003,-0.0027831008192151785,-0.00020531832706183195,0.0008944112341850996,0.005465148948132992,0.011679504066705704,0.0018993847770616412,0.003864541882649064,-0.003997378051280975,0.005032949149608612,0.004604306537657976,0.005885015707463026,-0.0007721318979747593,0.002409936860203743,0.004988266155123711,-0.00029778885073028505,-0.00016056571621447802,-0.0012066953349858522,-0.002213340252637863,-0.00047756702406331897,-0.0006056802812963724,-0.0034167172852903605,0.004760925658047199,-0.00048198032891377807,0.0021267211996018887,-0.004822265822440386,0.0022773926611989737,-0.008909489028155804,0.000303567765513435,-0.0060172355733811855,-0.0023107537999749184,-0.004410031251609325,0.00029784269281663,-0.004407886881381273,-0.0053671784698963165,0.0014966762391850352,-0.0005627564387395978,0.010721832513809204,-0.005389103665947914,0.0029639960266649723,-0.003392909886315465,-0.0008879735833033919,-0.005756196100264788,0.001883715740405023,-0.0033203933853656054,-4.029541014460847e-05,-0.00479585025459528,0.0034949181135743856,0.005395473912358284,-0.0007702974253334105,-0.004755266010761261,-0.0004125222039874643,-0.006034470163285732,-0.0040381914004683495,0.0003544134378898889,0.003862371202558279,-0.00027214991860091686,0.005156757775694132,-0.0025454326532781124,-0.000331777089741081,0.002606520429253578,0.0002938806137535721,-0.00237224786542356,0.0014914434868842363,0.0015288809081539512,0.0016642485279589891,-0.00036812131293118,-0.001628495054319501,0.00077344651799649,0.0033291748259216547,-0.0014508586609736085,-0.004620266612619162,0.0009183333604596555,0.0011512601049616933,0.00384128512814641,-0.0020078092347830534,0.004541616886854172,0.004338466562330723,-0.00088395772036165,0.007072058971971273,0.0021776529029011726,0.0037832893431186676,-0.004293656442314386,0.004118810873478651,-0.0007102791569195688,-0.004514266736805439,0.001238499884493649,-0.0010268324986100197,0.004059812985360622,0.006984646897763014,-0.0035527392756193876,0.0007620684336870909,0.0003610661078710109,-0.005609482992440462,-0.008478403091430664,-0.0007136908825486898,0.006358028389513493,0.000605800305493176,-0.006147256586700678,-0.002599024446681142,-0.003669518046081066,0.0009376858361065388,-0.0010804294142872095,0.00038341409526765347,-0.002439351286739111,-0.001036685542203486,0.0044812606647610664,0.004488653503358364],[0.0021830443292856216,-0.002910030074417591,-0.003822147846221924,-0.004997972398996353,-0.000405734870582819,0.0019026265945285559,0.0014129371847957373,0.0022376172710210085,-0.0003230238799005747,0.006672884337604046,0.009029189124703407,0.0036595177371054888,0.0017335566226392984,-0.004049199167639017,-0.0007195160142146051,0.0009069247753359377,0.0007175530190579593,0.007774206344038248,-0.0027571115642786026,0.002587266732007265,0.003394540399312973,-0.0012755288043990731,-0.0015577611047774553,0.0002670574758667499,-0.00400150753557682,-0.008914085105061531,0.0018893115920946002,-0.004511026665568352,-0.001602991484105587,0.008829008787870407,-0.004823039285838604,-0.0018118234584107995,-0.0022130035795271397,0.004300171509385109,-0.0009214242454618216,-0.0006876924890093505,-0.003455887082964182,0.0010201551485806704,0.0016917012399062514,0.004397997632622719,-0.00015321864339057356,0.002803310053423047,0.0007756337290629745,-0.003313705325126648,-0.0014243139885365963,0.0012031669029965997,-0.009325584396719933,-0.005467658396810293,-0.0034119142219424248,2.206369026680477e-05,0.0033832199405878782,0.0017903854604810476,-0.0023871054872870445,-0.008227357640862465,0.006591579876840115,-0.006347831338644028,0.0014397549675777555,0.00550233107060194,0.00015132976113818586,-0.00938111450523138,-0.004920558538287878,0.0006014227983541787,-0.001775425742380321,-0.0026428187265992165,-0.0010840408504009247,-0.006578902248293161,-0.005176318809390068,0.013284675776958466,-0.0040479255840182304,-0.0013811384560540318,0.009304630570113659,-0.003847934538498521,0.0010585011914372444,-0.004350418224930763,0.001271172659471631,0.0018141674809157848,-0.0006851322832517326,-0.0019298777915537357,-0.0032568839378654957,-0.005300616379827261,0.000361478712875396,0.002473639789968729,0.003978827502578497,0.004340030252933502,0.0026037779171019793,0.00021540196030400693,0.002997567178681493,1.3527382179745473e-05,0.0012103571789339185,-0.0003071929677389562,0.00954162422567606,-0.006366959773004055,-0.003099666675552726,-0.006354430224746466,0.0012182175414636731,-0.007283295039087534,-0.003119424218311906,-0.0115482984110713,-0.0018437599064782262,-0.0028324134182184935,-0.00440221605822444,0.002829967299476266,0.0031967726536095142,-0.0014394390163943172,-0.0016242694109678268,0.006514889188110828,0.0013992874883115292,0.0006620532949455082,0.004192356951534748,-0.0011944256257265806,0.007258486934006214,-0.0004884990048594773,-0.0005243152263574302,0.003134028287604451,-0.0034754029475152493,-0.00011556531535461545,-0.0029365806840360165,-0.0032837381586432457,0.0054485690779984,0.00026181849534623325,0.010291284881532192,0.000625146902166307,0.001277039642445743,0.0027326957788318396,0.005197191145271063,0.0019023374188691378,-0.007958236150443554,0.006524552591145039],[-0.004319130443036556,0.007784680929034948,-0.0062359971925616264,-0.002319583436474204,-0.008715124800801277,-0.010663415305316448,0.001277127885259688,0.0009633545996621251,0.003741276217624545,0.007134118117392063,-0.004866229370236397,0.0006381595158018172,-0.0014530093176290393,-0.003388631157577038,-0.0025295547675341368,0.0015166159719228745,-0.0018546729115769267,-0.001695040031336248,-0.006510340608656406,-0.00045031955232843757,-0.00361380772665143,-0.0010811397805809975,-0.0028165315743535757,-0.005722707603126764,-0.008794721215963364,0.0029532075859606266,-0.007255614269524813,0.0026949180755764246,0.00030999910086393356,0.001869818428531289,-0.008827283047139645,0.008664537221193314,-0.0014488317538052797,0.004648326896131039,0.004540721420198679,-0.0034931544214487076,0.004291478078812361,-0.0037425176706165075,-0.008208243176341057,0.004231385421007872,-0.0008530645864084363,-0.004113531671464443,-0.009307719767093658,-0.003683594288304448,-0.000755554938223213,-1.0334921171306632e-05,0.0035787022206932306,-0.006198069080710411,0.004914260935038328,0.0019838723819702864,-0.0011732561979442835,0.001560208504088223,0.001603305572643876,-0.0036908381152898073,0.002457707654684782,0.0006421090802177787,0.0024512659292668104,-0.007685370277613401,0.0023185135796666145,-0.008449187502264977,-0.0018978611333295703,0.007012483198195696,0.0003924765333067626,0.008413762785494328,-0.0016439346363767982,-0.003985431045293808,0.0025104598607867956,-0.0005447002477012575,-0.005235133692622185,0.0018361686961725354,0.0024119920562952757,0.0006118232267908752,-0.010192700661718845,0.0033354051411151886,-0.0023934501223266125,-0.0079204635694623,0.004829006735235453,0.0071593355387449265,0.004364984575659037,-0.004159982316195965,0.0038592687342315912,-0.0014024514239281416,0.00662491749972105,-0.0012970146490260959,0.0028830452356487513,0.004371529445052147,-0.0029815530870109797,0.0011263384949415922,0.00046750696492381394,0.0025615256745368242,-0.002546264324337244,-0.008509477600455284,-0.00030599746969528496,9.406010940438136e-05,0.003152296179905534,0.0009784015128389,-0.0025600565131753683,0.007225749548524618,-0.0006014986429363489,0.008160769008100033,-0.004257887601852417,-0.00016846079961396754,0.00017637418932281435,-0.005418750923126936,-0.004167361184954643,-0.0015407165046781301,-0.003725958289578557,0.001638774061575532,0.0034940054174512625,-0.00669671967625618,0.0019159858347848058,-0.003354403655976057,0.002083044731989503,0.0020177962724119425,0.0060996077954769135,0.0032949543092399836,0.008293692022562027,-0.007966099306941032,0.004451191518455744,-0.0028813043609261513,0.0015671562869101763,-0.0012464044848456979,0.0008285439107567072,0.001138536143116653,0.0034528349060565233,-0.0016071842983365059,-0.006205953191965818,-0.0030610293615609407],[-0.006621923763304949,0.00502375653013587,-0.0021026746835559607,0.0024625123478472233,0.0023195778485387564,-0.003945707343518734,0.001993931131437421,-0.0010862330673262477,0.004238043446093798,-0.00045797237544320524,0.0017553067300468683,0.0019478487083688378,0.0016824021004140377,-0.005546018481254578,-0.0012540098978206515,-0.004958697594702244,-0.0003330619656480849,-2.377611235715449e-05,-0.0004628726455848664,-0.00011871240712935105,-0.0033436156809329987,0.0013412358239293098,-0.0006320173852145672,-0.004465910606086254,-0.0011815676698461175,0.0076439399272203445,0.011204369366168976,0.002944051520898938,-0.001014272915199399,0.0028633270412683487,0.00030834818608127534,2.975628558488097e-05,-0.0016782712191343307,-2.4318387659150176e-05,0.0012010156642645597,-0.0004254138038959354,-0.004431874956935644,0.004093356896191835,-0.006213122978806496,0.0006274438928812742,-0.0009250175789929926,-0.0037653411272913218,-0.00037517427699640393,0.007202186621725559,0.001173619064502418,-0.00538927735760808,-0.0033876928500831127,0.019819941371679306,-0.0009123175987042487,-0.0020577621180564165,-0.0017189800273627043,0.0022430934477597475,9.70230539678596e-05,0.005998449400067329,0.001591119566000998,-0.0030701642390340567,-0.002846325282007456,0.0024246731773018837,-0.00732094282284379,0.008803775534033775,-0.0003836261457763612,-0.0017436459893360734,0.00432300241664052,0.0008314879960380495,-0.0010162772377952933,0.00010815943096531555,0.004289194941520691,-0.010574139654636383,0.002388913882896304,-0.001885868958197534,-0.005760205909609795,-0.003380445297807455,0.0004849530814681202,-0.0038771387189626694,0.0021654299926012754,0.004337915685027838,0.0024539430160075426,0.00019634577620308846,-0.008370200172066689,0.0034894593991339207,-0.0023886302951723337,-0.0006574542494490743,-0.0004814615531358868,-0.0019747698679566383,-0.0025442943442612886,0.003329950850456953,-0.008464719168841839,-0.006298109423369169,-0.0015908904606476426,-0.004532207734882832,0.004776002839207649,0.0007645940058864653,-0.002135711722075939,-0.0026756112929433584,0.005889121908694506,-0.0021245256066322327,0.010034646838903427,0.006521311588585377,-0.00044172932393848896,-0.004200413823127747,0.00031178948120214045,0.0015223894733935595,-0.0008927771123126149,-0.0010322538437321782,-0.0013290331698954105,-0.001550668734125793,-0.0011123867006972432,0.0026727186050266027,0.0008732704445719719,0.0020706995856016874,0.0017789663979783654,-0.0006924059125594795,-0.0029706161003559828,0.006275723688304424,0.00131040473934263,0.0008449195884168148,0.011302254162728786,0.006651592906564474,0.0032505386043339968,-0.004025512840598822,-0.010599064640700817,-0.0006761477561667562,0.0016738938866183162,-0.0014464145060628653,-0.0008705853251740336,0.0022102852817624807,-0.0034343842417001724,-0.0005173690733499825],[0.0013014244614169002,0.004360228311270475,-0.0001164278801297769,0.004599052015691996,0.0037651073653250933,-0.0015347882872447371,0.0016269589541479945,-0.000147471742820926,0.00045679413597099483,0.007729159202426672,-0.013135557062923908,-0.0018851710483431816,0.0004447713145054877,-0.0006689808797091246,0.000994460191577673,0.0014423743123188615,0.0019342649029567838,-0.002261912915855646,0.0011599806603044271,0.004595531616359949,0.001214287942275405,0.0025109208654612303,0.0020619966089725494,-0.00854430627077818,-0.004525923635810614,-0.0002524035517126322,-0.007999814115464687,0.001228679670020938,0.0017558844992890954,0.002816571621224284,-0.005252785515040159,-5.475545913213864e-05,0.0008621228625997901,-0.005814426112920046,0.004287350457161665,0.0007843227358534932,0.0009567345259711146,-4.52649146609474e-05,0.0027434907387942076,0.0020008436404168606,-0.0003472256939858198,-0.0014024409465491772,0.0016903544310480356,-0.0016282073920592666,0.0018623406067490578,0.0012483187019824982,-0.009940752759575844,-0.0012433086521923542,-0.0019794092513620853,0.0003178725310135633,-0.0034195450134575367,-0.0019566297996789217,-0.0016309157945215702,0.0033278195187449455,-0.0072064753621816635,0.002971559064462781,-0.0016688971081748605,-0.0020771129056811333,-0.00034331082133576274,0.0030605432111769915,0.001810212153941393,0.0010015681618824601,-0.0033073783852159977,0.0026627539191395044,-0.0030159412417560816,0.0017277748556807637,-0.008062525652348995,0.0012629465200006962,0.003967210650444031,0.0047511751763522625,0.004683034028857946,0.0041115605272352695,-0.005163101013749838,0.0011422720272094011,-0.0008263794588856399,-0.0021005168091505766,-0.0013385985512286425,0.0059765237383544445,0.001154273166321218,-0.004924042150378227,-0.0008133748196996748,-0.001630643499083817,0.0027649032417684793,0.0044887554831802845,-0.0038078802172094584,-0.0008014938794076443,-0.005272971466183662,-0.0035418772604316473,0.001003315206617117,0.0020212577655911446,-0.0033116957638412714,0.0008471645996905863,-0.0022528646513819695,0.0006237389170564711,-0.011386662721633911,-0.006959116086363792,0.0010334779508411884,-0.0009587142849341035,0.001076769782230258,-0.007477212697267532,0.0035194780211895704,-0.0029036037158221006,0.002337375655770302,0.00380609929561615,0.00028442914481274784,-0.003677811473608017,0.004597931168973446,-0.0005597977433353662,0.00639864057302475,-0.011772389523684978,0.003061749506741762,-0.0009404646116308868,0.0013871656265109777,-0.0006013117963448167,0.0018943282775580883,-0.0059237414970994,0.0044214073568582535,0.0033741705119609833,-0.0015592369018122554,0.0014363965019583702,-0.0011190194636583328,0.00019630538008641452,-0.0006782708805985749,-0.003098484594374895,0.0002991457877214998,0.0015714379260316491,0.0031529113184660673,-0.00283621228300035],[-0.004210060462355614,0.00454367371276021,-0.0065877423621714115,0.00017562523134984076,0.0010211184853687882,-0.0039473604410886765,0.0005546254105865955,0.00031669638701714575,0.004521325696259737,0.006438186392188072,-0.008576233871281147,-0.0018926162738353014,-0.0014293873682618141,-0.006715507712215185,-0.0002406941493973136,-0.00455001275986433,-0.00022246170556172729,-0.007061067968606949,0.0016526167746633291,-0.0015749464510008693,-0.0002795295149553567,-0.002296553459018469,0.0010160519741475582,-0.00038265917100943625,-0.008817742578685284,-0.002812175313010812,-0.003141056513413787,0.008012684993445873,-0.002037560800090432,0.00707543408498168,-0.0019131817389279604,0.0019463472999632359,0.0019590002484619617,0.003139486303552985,0.0023735295981168747,0.001720960484817624,0.004867445211857557,-0.0031344271264970303,-0.006607511546462774,-0.001145987887866795,-0.004014850128442049,0.001355654327198863,0.0025035629514604807,-0.0016375613631680608,0.0014072194462642074,-0.00457435566931963,-0.003975970670580864,-0.0002625745255500078,-0.0009777722880244255,0.0006007019546814263,-0.005719502456486225,-0.00035029329592362046,-0.0009882398881018162,0.005602289456874132,-0.005004428792744875,-0.004000034648925066,0.0008937472011893988,0.0025949550326913595,-0.003231748938560486,0.01013893261551857,0.008163617923855782,0.003836281830444932,-0.006707584951072931,-0.0028351163491606712,0.0024356069043278694,0.003036083886399865,-0.010477659292519093,0.004898932762444019,-0.0003055590495932847,0.002800094662234187,0.00039646567893214524,-0.005152930039912462,0.0033592975232750177,-0.011021118611097336,-0.0016501627396792173,-0.002711282344534993,-0.0025846969801932573,0.002110751112923026,0.007353183347731829,-0.0017777974717319012,0.0037443400360643864,0.011637981981039047,0.0031672278419137,-0.0005141615401953459,0.0005418774671852589,-0.0005215703276917338,-0.015921929851174355,-0.0009159573819488287,0.001606547273695469,-0.0008232173277065158,0.0007493060547858477,0.007745712995529175,-0.00439399154856801,0.0018306643469259143,0.005596195813268423,0.0027062841691076756,0.0038846724200993776,0.005343570373952389,-0.0015905743930488825,-0.005847468972206116,-0.0027872396167367697,0.0026377111207693815,0.0014285133220255375,-0.00029025980620644987,2.7408248570282012e-05,-0.003820000449195504,0.0015768714947625995,-0.003680149093270302,0.003908058162778616,0.006088877562433481,-6.218783528311178e-05,0.001755713950842619,0.003790562506765127,-0.0001667958713369444,0.00020073974155820906,-0.001027102000080049,0.008794361725449562,-0.0016271155327558517,-0.00047594556235708296,-0.0033075865358114243,-0.005507672671228647,0.002469604602083564,0.004759783856570721,0.002871744567528367,-3.376780659891665e-05,0.005406641401350498,0.0026689714286476374,-0.002894888399168849],[0.002873905235901475,-0.0010184041457250714,0.00033890537451952696,0.006079592742025852,-0.003992580808699131,0.003956092521548271,-0.00022378108405973762,0.0005893369088880718,0.0004279929562471807,0.0006709516746923327,-0.0055764056742191315,-0.0013457635650411248,0.0004517067864071578,0.0023549164179712534,-0.0023160644341260195,0.0019137507770210505,0.003499964950606227,0.004211859777569771,-0.002503358293324709,-0.0033096694387495518,0.004431568086147308,-0.0008033579797483981,0.004528006073087454,0.005999720189720392,-0.007334772497415543,0.0015093545662239194,0.010368270799517632,-0.00042013981146737933,0.00021132179244887084,-0.004169044550508261,0.003834600793197751,0.006126866210252047,0.0028876648284494877,-0.0014717779122292995,-0.0003872376983053982,-0.0012010851642116904,-0.00297277863137424,-0.002146068960428238,-0.001623920165002346,-0.003705172101035714,-0.003829378169029951,-0.0005442407564260066,-0.0006039600702933967,0.005578744225203991,0.0023370045237243176,0.0008785108220763505,0.0066224029287695885,0.0019464076030999422,-0.0007506169495172799,-0.0026135987136512995,-0.005677652079612017,0.002962570171803236,0.0018944700714200735,0.005173672456294298,-0.0019453807035461068,-0.00419101445004344,-0.0012477728305384517,-0.007623383775353432,0.006228748708963394,-0.0019543305970728397,-0.005254877265542746,0.0012331621255725622,-0.0012160316109657288,0.004036230500787497,-0.004479526076465845,-0.003208866808563471,0.003386464901268482,0.009373398497700691,0.00899475533515215,0.008339480496942997,-0.00501990457996726,0.00047277743578888476,-0.0045885308645665646,0.007134789600968361,-0.0016355779953300953,-0.003487295238301158,-0.0038631614297628403,0.00900703202933073,0.0033366938587278128,-0.005534918047487736,-0.003470645286142826,-0.0036967643536627293,0.001004850841127336,0.0033480043057352304,0.003177305916324258,-0.0018175290897488594,-0.003755149431526661,0.005579552613198757,-0.0008509829640388489,0.0044082156382501125,0.0034221659880131483,-0.004112237598747015,-0.009256756864488125,0.0009028633940033615,0.006672354880720377,-0.002050823764875531,-0.0010388587834313512,-0.005393529776483774,0.0021741585806012154,-0.004846089519560337,-0.0021810382604599,6.845169264124706e-05,0.006081463303416967,-0.0025364754255861044,-0.001169455936178565,-0.0040406775660812855,0.0008047140436246991,-0.0022440068423748016,0.003597909351810813,0.0031382523011416197,0.004117003176361322,-0.003105869283899665,-0.0013663922436535358,0.0029134841170161963,0.005781031679362059,-0.0039760940708220005,0.0006414057570509613,-0.0033815130591392517,-0.004250138532370329,0.0019904791843146086,-0.0022624933626502752,0.002471602289006114,0.0010810474632307887,0.0022888886742293835,-0.002864542882889509,0.0024960788432508707,-0.001894413842819631,-0.00692956754937768],[-0.0017588819609954953,0.004468182101845741,0.004791168496012688,8.361547224922106e-05,0.004310906399041414,-0.0024900264106690884,0.0005816841730847955,0.0014109776820987463,-0.0020953977946192026,0.005668343044817448,-0.008479184471070766,-0.0018474904354661703,0.0015145228244364262,0.00389194767922163,0.001350681995972991,-0.0003864006430376321,0.002803059294819832,0.0040558404289186,0.0029257757123559713,-0.004930701106786728,-0.005483611021190882,-0.0011042203987017274,-0.004537257831543684,0.0028081845957785845,0.002103683538734913,-0.0030016484670341015,0.01940929889678955,-0.004076297860592604,0.000477055786177516,-0.000590213225223124,0.001459465711377561,-0.0039991713128983974,-0.00016104840324260294,-0.01051175408065319,-0.0071163419634103775,-7.491039286833256e-05,0.001833054469898343,0.0008882801630534232,0.0026486339047551155,0.008178742602467537,0.005342347547411919,0.00104782753624022,0.00900324247777462,-0.0018212695140391588,0.0018970497185364366,0.005401440430432558,-0.005646627862006426,0.018488997593522072,0.001175269833765924,-0.005702813621610403,0.0018929773941636086,0.0005537288379855454,0.0017076442018151283,0.0035422558430582285,0.002224797150120139,-0.0007950794533826411,-0.0007100137299858034,-0.0009416239336133003,0.004254774656146765,0.0006433082744479179,-0.003121254500001669,-0.0003978558233939111,0.0030084371101111174,-0.006756181363016367,0.0003643901436589658,0.002016303362324834,-0.012606414966285229,0.010341046378016472,-0.007747554685920477,0.00753013975918293,-0.004519249312579632,0.007768989074975252,0.0022732673678547144,-0.0030688245315104723,-0.002315081423148513,-0.0019466930534690619,0.0037473984993994236,0.0017350829439237714,-0.004286440089344978,-0.0002639044832903892,0.0007839194731786847,-0.012319652363657951,-0.001839038566686213,0.00024871103232726455,0.001962863840162754,0.00018434241064824164,0.006243530195206404,-0.005409206263720989,0.0014643801841884851,0.0018320990493521094,-2.036986916209571e-05,-0.007972653023898602,0.001622401992790401,0.0016445918008685112,-0.009880694560706615,0.0006003329763188958,0.002744262106716633,0.002094094641506672,-2.509724197352625e-07,0.0027619614265859127,0.001489392016083002,-0.0041316961869597435,0.0007786659989506006,0.00651504285633564,0.004607800859957933,-0.0013082927325740457,0.005697500891983509,-0.00322809093631804,-0.004739425145089626,-0.0010569461155682802,-0.004833636339753866,0.0005640850868076086,0.0009936002315953374,0.0002638496516738087,-0.004891632124781609,0.0054594120010733604,0.006000591441988945,0.0007482262444682419,-0.0020872897002846003,-0.0019211500184610486,-0.00045975029934197664,0.0013293963856995106,-0.0016420891042798758,0.0016515657771378756,-0.004834976978600025,-0.0020203099120408297,0.006281552370637655,0.003969894722104073],[0.0013096083421260118,-0.0021643966902047396,-0.012332791462540627,-0.003049834631383419,-0.001201762119308114,-0.0076279710046947,-0.003939680755138397,-0.0008419224177487195,-0.005036150570958853,0.009887364692986012,0.007066307123750448,0.00600458774715662,-0.0033235889859497547,0.0047373417764902115,-0.0008662717300467193,0.007319122552871704,0.001979160588234663,0.0033999711740761995,6.418467819457874e-05,-0.0028611093293875456,0.0019744159653782845,0.0009636872564442456,-0.0019338025012984872,0.008254761807620525,-0.0010705230524763465,-0.00044082142994739115,0.006839714013040066,-0.008910318836569786,0.0003369504411239177,-0.004119655583053827,-0.004296088591217995,-0.001981505425646901,0.005667398683726788,0.0032346786465495825,-0.004115013405680656,0.0025944688823074102,0.0008256080909632146,0.0012626185780391097,0.0018462734296917915,-0.00029024077230133116,-0.0009090467356145382,-0.0035477406345307827,-0.0025375448167324066,-0.0013183002592995763,-0.0011729530524462461,0.009215672500431538,0.0067527457140386105,0.0018507444765418768,0.0005970820202492177,0.00642654811963439,-0.00203682784922421,0.000779022288043052,0.0010652769124135375,0.011452067643404007,-0.002038830192759633,0.0036273186560720205,-0.0015534695703536272,0.0007350720115937293,0.0027268221601843834,0.00037555902963504195,-0.01032393891364336,0.004576095379889011,-0.0026232311502099037,0.005406663287431002,0.0029976891819387674,-0.003799519268795848,0.011597834527492523,-0.010615530423820019,0.002996431663632393,-0.003053065622225404,-0.00012214052549097687,0.005523297470062971,-0.001305287703871727,0.0012116219149902463,0.003406596602872014,0.009052947163581848,0.0035411734133958817,0.00813230313360691,-0.0017828982090577483,-2.9205430109868757e-05,-0.001156380632892251,-0.0036201514303684235,0.004528020974248648,0.0021400980185717344,-0.0006004011374898255,-0.004663040395826101,-0.002395325805991888,-0.006202207878232002,0.002043355256319046,-0.0004965897533111274,0.00421053497120738,-0.0029981988482177258,-0.002605902962386608,0.004208743572235107,0.0010868242243304849,-6.304406997514889e-05,-0.0012243652017787099,-0.004142912104725838,0.00470757344737649,-0.0020135524682700634,0.0033910772763192654,0.0007985956617631018,0.0028940837364643812,0.0021058053243905306,0.002112454501911998,0.000820394023321569,0.0038224069867283106,0.0027076236438006163,0.0009155418374575675,-0.0021686763502657413,-9.39441379159689e-05,-0.000296594575047493,-0.004013254772871733,0.0006762109696865082,0.0015089918160811067,-0.008962705731391907,-0.0023051949683576822,0.006128145381808281,-0.00099333212710917,0.0033142215106636286,-0.0015736933564767241,0.00393257662653923,-0.0021210939157754183,1.3340489203983452e-05,0.0014492899645119905,-0.0014348698314279318,0.004595046862959862,-0.003565938677638769],[-0.005500195547938347,-0.000403051933972165,0.00122243189252913,-0.0036039140541106462,0.008315058425068855,-0.0004945231485180557,-0.003792347153648734,0.003396163461729884,0.003934492357075214,0.0022186627611517906,-0.0024100327864289284,-0.003446002956479788,0.0014684639172628522,-0.00012187191168777645,-0.002155359834432602,0.0028509157709777355,0.006260598544031382,-0.004972325637936592,-0.0002647934015840292,-0.0053626494482159615,0.003149172756820917,0.0002304465015185997,-0.0003209279093425721,-0.00412332359701395,-0.008103660307824612,-0.003771696938201785,0.005403060000389814,0.000184849021025002,-0.0066538057290017605,0.009016658179461956,-0.005903561133891344,-0.0019174999324604869,0.00537846889346838,-0.004054602235555649,-0.004913968034088612,0.0001312955719185993,0.0036145171616226435,-0.0022311159409582615,0.004918745718896389,0.00032115232897922397,-0.006841765251010656,-0.0005963154253549874,0.009366771206259727,0.0005217695725150406,0.00020789471454918385,0.00069519376847893,0.010662668384611607,-0.012341087684035301,0.0005177828134037554,-0.0010151208844035864,-0.007002033293247223,0.0006542869377881289,0.0034792476799339056,0.007041777018457651,-0.010027407668530941,0.005404907278716564,0.0007285618921741843,-0.00923934206366539,0.003255790565162897,0.0024960245937108994,-0.004747998435050249,0.0023734932765364647,0.0013593535404652357,0.004589467775076628,-0.0016305611934512854,0.0023865678813308477,-0.0001598614180693403,-0.011586488224565983,-0.003271081717684865,-0.010354947298765182,-0.011471469886600971,0.006062360946089029,-0.0021428826730698347,-0.00866375770419836,0.0009849341586232185,0.003939752466976643,0.002091675065457821,0.0025288439355790615,-0.002917656907811761,-6.545859650941566e-05,0.0051365261897444725,0.012897813692688942,0.0006823689909651875,0.0006280162488110363,0.00036186951911076903,-0.0005754224839620292,0.0069898259826004505,-0.004227789118885994,0.00495941424742341,0.00018598789756651968,0.0004915441968478262,0.0028832494281232357,0.0008839116198942065,0.006061766296625137,-0.000920204387512058,-0.0006555791478604078,0.0025434449780732393,-0.007089286111295223,0.0006666483823210001,0.002265994204208255,0.004105761181563139,0.00350368395447731,0.0007343938923440874,0.0006027412018738687,0.0023385854437947273,-0.00029476129566319287,0.0009482676396146417,-0.00010958725761156529,-0.0007034641457721591,0.005162378773093224,-0.00022219681704882532,0.0004412908456288278,-0.0051087490282952785,-0.0010427938541397452,-0.001537719159387052,0.005758981220424175,-0.001800993923097849,0.004303188528865576,-0.0052476562559604645,-0.004199018701910973,0.004028339870274067,0.0018908249912783504,-0.004569627810269594,-0.0018814646173268557,-0.007099171169102192,0.008146220818161964,0.007876208983361721,-0.002092238049954176],[-0.0040633720345795155,0.005046015605330467,0.012122739106416702,0.005023664329200983,0.005005029495805502,-0.003340058960020542,0.002542319241911173,0.0006426518666557968,-0.0007026410894468427,0.0039430721662938595,0.009440962225198746,0.0005374551401473582,0.0006690198206342757,-0.0028245633002370596,-0.0032166617456823587,0.006009602453559637,-0.000525283336173743,-0.00030165843782015145,0.0003709451120812446,0.0001791892573237419,0.005197453778237104,0.0003240405349060893,-0.002899574115872383,-0.005538865923881531,0.00017436650523450226,0.0019372482784092426,-0.016746889799833298,-0.004707618150860071,0.00199779961258173,-0.002995144808664918,0.0038663854356855154,0.0037038391456007957,-0.0006881891749799252,0.003655318170785904,-6.968944217078388e-05,-0.0006789701292291284,0.004695707466453314,-0.0008448531734757125,0.0030008864123374224,0.0008256323635578156,-8.648980292491615e-05,0.002182581229135394,-0.004552846308797598,0.0015939868753775954,0.0010932839941233397,-0.0006507238722406328,-0.0007496002945117652,0.012630118057131767,-0.0017228411743417382,0.0026133027859032154,0.0004814858839381486,-6.061858221073635e-05,-0.0010268662590533495,0.009747236967086792,-0.00389267154969275,-0.0025852129328995943,-0.00040611455915495753,-0.0037683092523366213,-0.004686589818447828,-0.00011891789472429082,-0.005544942803680897,0.004089429043233395,0.002984086750075221,0.0031204146798700094,-0.0009534091223031282,-0.004761517513543367,-0.0035083831753581762,-0.005876145325601101,-0.0002361430088058114,0.008064670488238335,0.006009174510836601,0.0042995852418243885,0.0036979946307837963,-5.317113391356543e-05,-0.0031735815573483706,-0.0024842408020049334,-0.004168452695012093,-0.0015078244032338262,0.0009079226874746382,-0.0029503866098821163,0.0011608201311901212,-0.011378045193850994,0.0011006442364305258,-4.117698335903697e-05,0.008606133051216602,-0.005205885507166386,-0.0002531968639232218,-0.00819515809416771,0.0011660050367936492,0.0061719538643956184,-0.0064498442225158215,0.0019298042170703411,0.0043298411183059216,0.002606224035844207,0.0010477054165676236,0.00199365452863276,0.006241729017347097,-0.003819057485088706,-0.004693526774644852,0.001223566709086299,-0.004374647047370672,-0.0009306305437348783,-0.003442776156589389,0.0012911956291645765,0.0017106308368965983,0.0009756789077073336,0.002118398668244481,1.650070225878153e-05,0.007277818862348795,-0.0006736738723702729,-0.006234562024474144,0.0009487906936556101,-0.0019384627230465412,-0.005573994014412165,-0.008544405922293663,-0.004232540261000395,-0.01226765476167202,0.0017380372155457735,0.0015489010838791728,-0.0022637906949967146,0.0028420251328498125,-5.445102578960359e-05,0.0001311635714955628,-0.00034703846904449165,0.003049587132409215,-0.00013448488607537001,-0.00045573775423690677,-0.0025173178873956203],[0.004839581437408924,0.0015124018536880612,-0.006979508325457573,-0.0031907514203339815,0.0015244315145537257,0.005625410005450249,0.002085271058604121,0.003389177145436406,0.0022129497956484556,0.011501055210828781,-0.0003290960448794067,0.0021215956658124924,9.582383427186869e-06,-0.001598995877429843,-0.001089905621483922,0.0030159372836351395,-0.0015131697291508317,0.005702533293515444,0.0005209145601838827,0.002332311123609543,0.0028334057424217463,0.0011292234994471073,0.0037575720343738794,0.004100312944501638,-0.0011485596187412739,0.006982982158660889,-0.005590107291936874,0.0008847839199006557,0.003051469335332513,-0.007622108794748783,0.004286147654056549,-0.0010005112271755934,0.002078976482152939,0.00029234247631393373,0.001023677410557866,0.00028886974905617535,0.001609102007932961,0.002645880915224552,-0.0054837679490447044,0.0036849279422312975,-0.0031790677458047867,0.004774078261107206,0.003252483904361725,-0.0015624479856342077,0.0018966974457725883,-0.002411258639767766,-0.001784716034308076,-1.779700869519729e-05,0.003170527284964919,-0.0018711643060669303,0.002952814567834139,-0.0017548404866829515,0.0074058230966329575,-0.004769929684698582,0.00247565028257668,0.0016145376721397042,-0.0022959825582802296,0.005359046161174774,-0.0043632215820252895,-0.013189073652029037,0.003311495529487729,-0.0019197012297809124,-0.0013269648188725114,-0.005087521858513355,0.003585224272683263,0.0007950988365337253,0.0031452481634914875,0.0056535894982516766,0.0029491784516721964,0.0013324907049536705,0.0030354249756783247,-0.00608435645699501,8.363867527805269e-05,-0.0023089938331395388,-0.002782737137749791,0.0006089096423238516,0.001079788664355874,0.00341237080283463,0.0007548770518042147,-0.0006848881021142006,-0.000569757423363626,0.012451935559511185,-0.0005194269469939172,-0.0012173590948805213,0.00060421007219702,0.0016906308010220528,-4.201947376714088e-05,-0.006105676293373108,5.954888547421433e-05,0.0015286902198567986,0.00027798194787465036,0.005590875633060932,-0.004166550934314728,-0.0010024268412962556,-0.0006909571238793433,0.004778693430125713,-0.002671202179044485,0.011870930902659893,-0.000635013566352427,0.004166648723185062,-0.000649554596748203,0.0005956503446213901,-0.0025113318115472794,0.006582757458090782,0.0018783246632665396,0.0018414080841466784,0.0003203739761374891,-0.0007959469803608954,-0.0023002857342362404,0.005240724887698889,0.0012397852260619402,-0.0007465427624993026,0.001296812784858048,-0.0018631446873769164,-0.0007969458238221705,-0.000556628336198628,-0.007869887165725231,-0.0002493057691026479,-0.00306917866691947,-0.00012456973490770906,0.0018852880457416177,-0.0007302954909391701,0.0020549048203974962,0.0006350456387735903,5.559418423217721e-05,-0.0010163940023630857,-2.7506219339556992e-05,0.0018554474227130413],[-0.0017213643295690417,0.0011304497020319104,-0.004151215311139822,-0.0027091270312666893,-0.005574777256697416,-0.0023743791971355677,0.0009563326020725071,-0.00016008048260118812,-0.0006611603894270957,0.006472042761743069,-0.0054697743616998196,-0.004098025616258383,0.0017117714742198586,-0.00031373693491332233,0.00855763629078865,0.0036452733911573887,0.0019915516022592783,0.0006831381469964981,0.0012524324702098966,-0.009232603013515472,-0.001192549243569374,-0.0018954925471916795,0.004536055959761143,-0.0012059258297085762,-0.007484120316803455,0.003121656831353903,-0.005659956019371748,-0.0050865765661001205,0.0006348964525386691,0.0024698644410818815,-0.0027127633802592754,0.00035107615985907614,0.0024771925527602434,0.003811913775280118,0.004521456081420183,-0.0007742890156805515,0.003980520647019148,-0.0002848374133463949,-0.00242973817512393,-0.00016321183647960424,-0.0018055681139230728,0.0014374295715242624,-0.0012736594071611762,0.003655855543911457,-0.000659362762235105,0.0018558554584160447,-0.0006132503040134907,0.009348493069410324,-0.006363704334944487,0.003320232965052128,-0.0033173521514981985,-0.0012303778203204274,-0.00023779748880770057,0.0062108212150633335,0.002260570414364338,0.0014241239987313747,-0.004326091147959232,-0.00597314303740859,0.004026639740914106,0.008536539040505886,0.008334025740623474,0.004399372264742851,-0.0012297595385462046,0.004256324376910925,-0.00050913798622787,0.0008591242367401719,-0.008701358921825886,0.0024032474029809237,0.003020808333531022,0.005498621147125959,0.0040353452786803246,0.0017607052577659488,-0.0018192279385402799,0.008203817531466484,-0.00039662932977080345,0.005405188538134098,-0.006065406836569309,-0.005684714298695326,0.0006793183274567127,0.0008171407389454544,-0.0015279706567525864,-0.006740792188793421,0.000783566094469279,0.004461145028471947,-0.0004508348647505045,0.001762400264851749,-0.005517780315130949,0.007339645642787218,0.0016868243692442775,0.008147463202476501,-0.0002552074147388339,-0.003262697020545602,-0.007329658605158329,-0.0016058486653491855,0.004291297402232885,0.0035773981362581253,-0.010191913694143295,-0.0002955521340481937,0.002704957267269492,0.0019625735003501177,-0.007999492809176445,0.005710882600396872,-0.0010626756120473146,-0.003685044590383768,4.074298340128735e-05,-0.008848575875163078,-5.635356137645431e-05,0.0011001204838976264,0.004195100627839565,-0.0031256976071745157,-0.0027560172602534294,0.001954825362190604,0.0017716451548039913,0.0014894529012963176,-0.00336508359760046,0.0030146678909659386,-0.0013327633496373892,-0.005728510674089193,-7.989130244823173e-05,0.0005231787799857557,0.0023440925870090723,0.002662808168679476,0.00162987329531461,0.007274277042597532,0.002561567584052682,0.002859951928257942,0.006172137334942818,-0.004167873412370682],[0.005348787643015385,0.006829590070992708,-0.0006246443372219801,0.0030601767357438803,-0.005960173439234495,-0.0078916996717453,-0.0018116305582225323,0.0008671127143315971,0.0004900760250166059,-0.0044377390295267105,0.00977683812379837,-0.0007261597202159464,-0.00111990119330585,-0.0034857008140534163,0.00044555062777362764,0.002348795533180237,-0.0020487525034695864,0.002845463575795293,-0.0002959798730444163,0.0011812291340902448,-0.003354347310960293,-0.003190847812220454,0.0009255710174329579,-0.00030600896570831537,0.009048104286193848,-0.001005959464237094,-0.004832351114600897,-0.002469486091285944,-0.0016678975662216544,0.010964222252368927,0.0024696814361959696,-0.008875696919858456,0.0004571363388095051,0.0026854246389120817,-0.00026042378158308566,0.0004728762723971158,-0.002423731843009591,0.0034380480647087097,-0.0018617896130308509,0.0023969924077391624,0.004038678947836161,0.006568233948200941,-0.002391388639807701,-0.0009572094422765076,3.992665369878523e-06,-0.000367452681530267,0.00010175847273785621,0.008656967431306839,-2.0151077478658408e-05,-0.005354908760637045,0.0059545012190938,-0.0015713043976575136,-0.0041415211744606495,0.004246408119797707,-0.001747466274537146,-0.0022047110833227634,-0.0021491185761988163,0.004100858699530363,-0.003270196495577693,0.0016133644385263324,0.004505481105297804,0.0010616346262395382,0.005584315862506628,0.0010145717533305287,-0.0006342074484564364,0.001990480814129114,0.010310733690857887,-0.0056971474550664425,0.007855468429625034,0.005145028233528137,0.0007581216050311923,-0.0025163295213133097,-0.002725855680182576,-0.002261954825371504,-0.004480730276554823,0.0009809354087337852,-0.006266588810831308,-0.006151402369141579,0.007602415978908539,-0.0006294038612395525,-0.0008797496557235718,0.003430224722251296,-0.0013458536705002189,-0.004114973358809948,-0.00036675817682407796,0.005911788437515497,-0.009832827374339104,0.0032966139260679483,0.0019459087634459138,-0.004545669071376324,0.0034081158228218555,0.002583565190434456,0.00578795513138175,0.0009244667016901076,0.007660087663680315,-0.00119727139826864,-0.006397499702870846,0.0035103431437164545,-0.0032557433005422354,0.00399303063750267,-0.004324155859649181,0.0008839876390993595,-0.0046205781400203705,0.0047119660302996635,0.0032908122520893812,-0.0022188141010701656,0.0034864454064518213,-0.0010112796444445848,-0.001773247728124261,-0.010654645040631294,-0.0035573190543800592,0.002692969748750329,0.0032013857271522284,-0.0020472717005759478,0.0014827675186097622,-0.005491957534104586,-0.004085603170096874,-0.004655894357711077,0.0001816909498302266,0.0039292448200285435,-0.012336988002061844,0.004924993962049484,0.001140287145972252,0.0007080379291437566,0.0002973732480313629,0.004252070561051369,-0.002446054480969906,0.002887685550376773],[-0.005968945566564798,-0.0017412415472790599,0.011049333028495312,0.004377166740596294,0.00267852284014225,0.0052145253866910934,0.0012642918154597282,-0.0011848455760627985,-0.002857119543477893,0.009507378563284874,-0.00036159640876576304,-0.004476780537515879,0.00022815268312115222,-0.0020728737581521273,-0.0010825282661244273,-0.005806052125990391,0.002073136391118169,-0.003111189231276512,0.0038696289993822575,-0.002503553871065378,-0.003813936375081539,-0.0014385114191100001,-0.002641028491780162,-0.00832898635417223,-0.00789455883204937,-0.0008573599043302238,-0.0021448826882988214,-0.003825038904324174,-0.005876902025192976,-0.008397890254855156,0.0038230763748288155,0.0056929392740130424,0.0002683199418243021,0.005154749844223261,0.0048043630085885525,-0.00014828545681666583,-0.004941380117088556,0.001599344308488071,-0.005225540604442358,0.0003042664611712098,-0.002140248427167535,-0.0012561175972223282,-0.0045292191207408905,0.004421554505825043,0.002959413919597864,-0.0025997250340878963,0.0021857726387679577,-6.410572677850723e-05,-0.0010387338697910309,-0.0017064216081053019,-0.0013128232676535845,0.0036099266726523638,0.001958352280780673,-0.0002918571117334068,0.003162435721606016,-0.003199806669726968,-0.00017952716734725982,0.009412856772542,-0.0002803673269227147,-0.0030392701737582684,0.0024654981680214405,-0.00020098658569622785,-0.0001068267083610408,-0.0003034912224393338,-0.0005338277551345527,0.002441543387249112,-0.0008198326686397195,-0.0008889021119102836,-0.0034072354901582003,-0.0003158653271384537,0.004188149701803923,0.007198826875537634,0.004358508624136448,-0.009511293843388557,-0.002717701019719243,-0.0012603085488080978,0.001589164836332202,-0.008256218396127224,0.002967644250020385,-0.004260740242898464,-0.004718360025435686,-0.012711938470602036,-0.00035273312823846936,-0.0013144075637683272,0.001124422182328999,0.0017517145024612546,-0.00040386946056969464,0.005993407219648361,0.0028685552533715963,0.0042886678129434586,0.007059080526232719,-0.0012851390056312084,-0.00307715917006135,0.0039282687939703465,0.0018335601780563593,0.003911220468580723,0.002989406231790781,0.003476566169410944,-0.0010900713969022036,-0.004466392565518618,0.0014357685577124357,-0.0007553784525953233,0.003357479115948081,0.0011274912394583225,0.001896063331514597,-0.008978609926998615,-0.0031603979878127575,-0.0008211757522076368,-0.0006466658087447286,-0.004507372155785561,-1.4525919141306076e-05,-0.0006352573400363326,0.0017950829351320863,-0.0033790406305342913,-0.004860425367951393,-0.004754251800477505,0.00581306591629982,0.0009410220081917942,-0.0022038710303604603,0.0017541488632559776,-0.0032550429459661245,-0.0006922858883626759,-0.004362503997981548,0.0004931939765810966,0.0023981279227882624,0.0028535134624689817,-0.003990113735198975,0.005146485287696123],[0.00013545696856454015,-0.0028228142764419317,0.003991607576608658,-0.0031631547026336193,-0.005996922962367535,-0.0010404105996713042,0.0005488978931680322,-0.0004970221198163927,0.003452356904745102,0.00033799128141254187,-0.0008675686549395323,-0.006412485148757696,0.004207260441035032,0.0010951185831800103,0.005613566841930151,-0.00228477967903018,0.0007384186610579491,-0.005921028554439545,-0.001464587403461337,-0.0019578239880502224,-0.004320844076573849,0.001324461423791945,0.003031509928405285,0.0008770409622229636,0.0011002484243363142,-0.0003354242944624275,-0.001933499239385128,0.007509843911975622,-0.004217087756842375,0.006740244571119547,-0.0035594450309872627,-0.010124360211193562,0.002236076397821307,0.0004941278020851314,-0.0037910700775682926,0.002974774455651641,0.0007803927874192595,-0.0012785703875124454,-0.0030939150601625443,0.013171227648854256,0.0016242116689682007,-0.00016513789887540042,-0.0006310112657956779,-0.006450733635574579,0.0016991787124425173,0.0022251082118600607,-0.002362879691645503,-0.007844794541597366,0.0027463289443403482,0.0009475736878812313,-0.0032132253982126713,0.0021658625919371843,-0.002911061979830265,-0.008965518325567245,-0.004161396063864231,0.0022069865372031927,0.0027290608268231153,0.00118138431571424,0.0030269124545156956,-0.008405547589063644,0.00023988200700841844,0.0018346055876463652,-0.006016665603965521,0.003056570654734969,-0.0037721125409007072,0.004837255924940109,0.0019682839047163725,-0.0018760078819468617,0.0012192100984975696,-0.00283959973603487,-0.0012711858144029975,0.003065844066441059,-0.0024096230044960976,-0.007237360812723637,-0.006456374656409025,-0.006976114585995674,0.0009963668417185545,-0.002586027607321739,-0.008697601966559887,0.0005826430860906839,0.002929836977273226,0.007276003248989582,-0.00120400614105165,0.0035432595759630203,-0.003643417963758111,0.0008400857332162559,-0.0037029609084129333,0.005083355121314526,0.0006460912991315126,0.004499499220401049,-0.0007926829857751727,0.0033152238465845585,0.005451040342450142,0.0005628056824207306,-0.008794226683676243,-0.0003502106119412929,0.006608285941183567,-0.004152276553213596,0.0009694623877294362,0.002386809792369604,-0.004726800601929426,0.0004913414013572037,-0.0030935420654714108,-0.0014608902856707573,0.0015618057223036885,-0.004851029720157385,-0.0005776609177701175,0.0007598084630444646,-0.008605669252574444,-0.0005481429398059845,0.0030319145880639553,0.00015015412645880133,0.002160165924578905,-0.002044966211542487,-0.0014464266132563353,0.0016308506019413471,0.0074994382448494434,0.005057247821241617,-0.0024553362745791674,-0.0017251899698749185,0.00949863437563181,-0.0015796776860952377,-0.0008935435907915235,-0.0026219510473310947,0.0014777259202674031,-0.0012370820622891188,0.0014729590620845556,0.002194198314100504],[0.0036331540904939175,0.0026463198009878397,-0.0108226602897048,0.0029932933393865824,-0.0028322553262114525,0.01084514893591404,0.0004581626853905618,-0.003376943990588188,-0.0007828365778550506,-0.01237773522734642,0.00331063917838037,-0.0003376054228283465,-0.001040526432916522,-0.00023582283756695688,-0.001946671400219202,0.008204256184399128,0.0023503133561462164,0.005630651023238897,-0.002156342612579465,0.0011969632469117641,0.004930977243930101,-0.0008218585862778127,0.0014934669015929103,-0.003741435706615448,0.0010180848184973001,0.007585432846099138,0.0009281962411478162,0.00037121688365004957,0.0007426991942338645,-0.007328914478421211,0.0039345091208815575,0.005691071972250938,0.0069235567934811115,0.0023609402123838663,0.009909209795296192,0.002391174901276827,0.004865104332566261,-0.0017955376533791423,0.0065662795677781105,-0.001322120544500649,-0.002941830549389124,-0.002160202944651246,0.004361391067504883,-0.007144678384065628,-0.0009490931406617165,-0.0010449850233271718,-0.001295897294767201,0.004000296350568533,-0.0020769552793353796,0.0006889477954246104,-0.00013886389206163585,0.0028724041767418385,-0.00010288944031344727,-0.0019381463062018156,0.003480675630271435,0.0003388859040569514,-0.00013801149907521904,0.002259237691760063,0.002978478791192174,-0.013377506285905838,-0.005414358805865049,0.0003661703667603433,-0.0019278922118246555,-0.00023793542641215026,-0.005687240976840258,-0.0005631588282994926,0.0009571005939505994,-0.01945808343589306,-0.0005321562057361007,0.004049113020300865,0.006899533327668905,-0.006580153480172157,-0.0070174080319702625,-0.0026955432258546352,-0.0016167033463716507,-0.00926633458584547,0.004316310863941908,0.004769914783537388,0.0011334529845044017,-0.00122256379108876,-0.0013102719094604254,0.0020624585449695587,-0.0018795273499563336,0.0014939730754122138,-0.0015256700571626425,0.00024205785302910954,0.004285888280719519,-0.005613663699477911,-0.0010236387606710196,0.003779406426474452,0.004784454125910997,0.007989084348082542,0.0019009532406926155,-0.0005231685354374349,0.003667947370558977,-0.008499547839164734,0.005196142941713333,-0.004190482664853334,-0.0009041493176482618,0.006118101999163628,0.0022280423436313868,-0.0027650645934045315,0.0010467921383678913,0.004546301439404488,-0.0002941918501164764,0.0029952572658658028,0.0016805381746962667,-0.0023090150207281113,-0.004186045378446579,0.003160099033266306,-0.009371662512421608,0.00021357984223868698,0.001994938123971224,-0.0030627762898802757,-0.0025058966130018234,-0.006818924564868212,-0.00636074086651206,0.0007600616663694382,-0.0007442048517987132,0.00040205937693826854,-0.006368920207023621,-0.0009340443648397923,-0.0010413184063509107,0.002012614393606782,0.001418108120560646,-0.001102393725886941,0.007880045101046562,0.0037555983290076256],[0.005118341650813818,0.004814846906810999,-0.005474413279443979,0.00585137028247118,0.0023122387938201427,0.01029739249497652,0.0029819230549037457,0.0005779361235909164,-0.006515407934784889,-0.0012445113388821483,-0.0002898489183280617,0.0019022964406758547,-0.0016475034644827247,-0.005793080665171146,-0.0014836274785920978,0.0043022520840168,0.001198501675389707,0.0039159688167274,0.00011573316442081705,0.004784099292010069,0.0022187763825058937,-0.003280943026766181,-0.0010570308659225702,-0.00428296672180295,0.009946675039827824,0.0028443874325603247,0.0017169228522107005,-0.004125732462853193,0.0027453890070319176,5.897657501918729e-06,0.007206026464700699,-0.010342935100197792,-0.0004137483483646065,0.0006876255501993,-0.004443353042006493,-0.0027246668469160795,0.000326268607750535,0.0016464170766994357,-0.00259948312304914,-0.0014860947849228978,-0.004217442125082016,0.0013843121705576777,-0.00524084223434329,0.003093492239713669,0.0008392793242819607,-0.00501974718645215,0.004976929631084204,0.011056073009967804,0.0023833441082388163,-0.0019155829213559628,-0.001751344883814454,0.000945184554439038,-0.00019364409672562033,-0.0012101544998586178,0.0024559544399380684,-0.004980822093784809,-0.0007242273422889411,0.0003376334498170763,0.0013633446069434285,0.004504734184592962,-0.0022412817925214767,0.004793677479028702,-0.002166927559301257,-0.0008752605062909424,-1.785599920367531e-06,-0.003440598491579294,0.0019008438102900982,0.00705840764567256,0.004794924519956112,0.0020287209190428257,-0.004728710278868675,0.004913066979497671,0.002025076886638999,0.006145092658698559,-0.0025830441154539585,-0.003870101645588875,-0.004695171024650335,0.004033162724226713,0.006163946818560362,-0.0051696388982236385,-0.0014398933853954077,-0.0072729759849607944,0.0021236592438071966,0.006352415774017572,0.0005145003669895232,-0.00045576284173876047,0.012851981446146965,0.007102762348949909,-0.00031853493419475853,0.0006931940442882478,-0.003986167721450329,-0.0033510401844978333,0.004046613350510597,0.002831333316862583,-0.0006502383621409535,-0.0018892379011958838,-0.0030138955917209387,-0.0015194319421425462,0.00023431533190887421,-0.004927825182676315,0.005155034828931093,0.003790944814682007,0.004195624962449074,-0.00492860795930028,0.0015136485453695059,0.00022879132302477956,0.0037647585850208998,-0.002608882961794734,0.003459922969341278,-0.0010613263584673405,0.004114247392863035,-0.0004523897951003164,-0.0004485527751967311,-0.0042852722108364105,-0.001833166228607297,0.003125518560409546,-0.0033118531573563814,-0.004580656997859478,-0.0009194164304062724,0.002900694264099002,-0.008497476577758789,0.005871179513633251,-0.005459482781589031,0.0038643658626824617,-0.003118551801890135,0.0009364355937577784,0.003981754183769226,0.003068995662033558],[0.0020018743816763163,-0.0012172532733529806,0.008464093320071697,-0.007756139151751995,0.0027604917995631695,-0.011421913281083107,0.001577052753418684,-0.0022085364907979965,0.00022003139019943774,-0.0015101796016097069,-0.006011579185724258,0.00411608163267374,-0.002573470352217555,-0.0008966666646301746,0.0003927952202502638,0.002588969189673662,-0.00016178206715267152,-0.005178696941584349,-0.004072238691151142,-0.001993448007851839,0.0002626636123750359,0.00277842883951962,0.0027507643681019545,0.006345131900161505,0.0038525934796780348,-0.00364054087549448,-0.01155279390513897,-0.0017153727822005749,-0.0013753552921116352,-0.006970028858631849,-0.00930443312972784,-0.0077657438814640045,0.0019718967378139496,0.006053352728486061,-0.0037173861637711525,0.0005869290325790644,-0.002496949164196849,-0.0004934808821417391,0.0005684642237611115,0.001768832909874618,-0.004420241806656122,-0.0035430968273431063,-0.0007469469564966857,-0.0016848976956680417,-0.00015091439126990736,-0.002257467480376363,-0.0021437869872897863,-0.007565860636532307,0.008263293653726578,-0.003023007186129689,-0.0021448214538395405,0.0014185447944328189,-0.005452173762023449,0.0014503183774650097,0.0014588582562282681,0.0010884208604693413,0.0011437683133408427,0.005175985861569643,-0.00440986268222332,-0.0027871993370354176,-0.0013223630376160145,-0.002592787379398942,0.0008002317626960576,0.0035619395785033703,-0.0031871944665908813,-0.0005042871343903244,-0.006183477584272623,0.0054098800756037235,0.0074405791237950325,0.0024426071904599667,0.009856530465185642,0.0038969453889876604,-0.0038182088173925877,-0.005371410865336657,0.0017048700246959925,-0.006748453248292208,0.006821070797741413,-0.004820758476853371,0.0027353428304195404,-6.443626625696197e-05,0.004637287463992834,0.0004826005606446415,0.004795972723513842,0.0003117228043265641,0.0012673453893512487,0.0003192001604475081,0.0032903903629630804,0.004762740805745125,-0.0021930676884949207,-0.002410892164334655,-0.004665490239858627,0.0013446223456412554,-0.0013200343819335103,-0.0016298627015203238,0.00986582413315773,-0.0019231481710448861,-0.003088283119723201,0.00411154143512249,0.0006934349657967687,-0.008342740125954151,-0.00021019615815021098,-0.001011399901472032,0.001383771188557148,-0.004076818004250526,-0.0008047451847232878,0.005328553728759289,-0.002937865909188986,-0.0008446451392956078,-0.005947563331574202,-0.0026361870113760233,-0.0001798792218323797,-0.002102430211380124,-0.001586256199516356,-9.064102050615475e-05,0.002268836135044694,0.001237131073139608,-0.0025133653543889523,0.004052517004311085,-8.630441152490675e-05,-0.0017442652024328709,0.007858517579734325,-0.00031454660347662866,-0.0006289529264904559,-0.0022012232802808285,0.0021453711669892073,0.00038364899228326976,0.002065751701593399,0.0011154139647260308],[0.0014601420843973756,0.004350092727690935,-0.0070495386607944965,0.0011361348442733288,-0.002765858545899391,0.0070297555066645145,-0.004267119336873293,-0.0022675427608191967,-0.0023262028116732836,-0.005753688979893923,0.00043855077819898725,0.001833800575695932,0.0024182444903999567,0.000676178780850023,0.0012517612194642425,0.008891504257917404,-0.005293798632919788,-0.00166155060287565,-0.002555530285462737,0.00825681071728468,0.002796150976791978,-0.0010847561061382294,0.00285119260661304,0.00030059460550546646,0.0027158549055457115,0.002710859291255474,0.003319965209811926,-0.011384760960936546,-0.002257387153804302,-0.006177359260618687,-0.004321543499827385,0.0006691894377581775,-2.1971971364109777e-05,-0.0028561821673065424,0.003538391087204218,0.003991981502622366,0.0049013677053153515,0.0018220670754089952,0.004150680266320705,0.006200819276273251,-0.003159702755510807,-0.0062128701247274876,-0.004560386296361685,-0.005036701448261738,0.002443931298330426,-0.004469945561140776,-0.002607824048027396,0.011250489391386509,-0.005542259197682142,0.004353240132331848,-0.001668347860686481,-0.00016110765864141285,-0.0009555817814543843,-0.007812424097210169,-0.005274767521768808,0.00041828755638562143,-0.005361277610063553,-0.0019720359705388546,0.00239641685038805,-0.0053029656410217285,0.0018199309706687927,0.005371990147978067,-0.01061813160777092,0.0006306488066911697,0.0039774272590875626,-0.0032372912392020226,-0.005782093852758408,0.008033404126763344,-0.0007906330283731222,-0.003179921070113778,-0.008858422748744488,0.0032086391001939774,-0.0071273306384682655,-0.003160313470289111,0.003564505372196436,-0.0053398506715893745,0.004337068181484938,-0.0038961705286055803,-0.00013536903134081513,-0.002575149293988943,0.0010180053068324924,-0.000849706819280982,-0.001193484291434288,-0.006253767292946577,0.001787187298759818,-0.0011763382935896516,0.004871835466474295,-0.0014756913296878338,0.0002797961060423404,-0.007209854666143656,0.00636855186894536,0.008405689150094986,-0.002952608047053218,-0.0038616687525063753,-0.002624792978167534,0.009617459960281849,0.002833244390785694,-0.008206111378967762,0.007317491341382265,-0.0022777197882533073,0.002552173100411892,0.0024740530643612146,-0.0045244391076266766,-0.005344373639672995,0.0008587090414948761,0.003311262233182788,0.0003252218884881586,-0.0022139858920127153,-0.0030595511198043823,0.0019278390100225806,0.0018204061780124903,-0.001162968808785081,-0.004083957988768816,0.00599574064835906,0.00505539495497942,0.003629774320870638,0.006902880035340786,0.01126798614859581,0.005609903484582901,0.0023058948572725058,-0.0004013409197796136,0.002628609072417021,-0.001900321338325739,0.002512793056666851,0.0018766208086162806,0.005369884427636862,-0.0032148866448551416,0.001696244697086513],[0.0020903330296278,-0.00020455541380215436,-0.0027636082377284765,0.0006282718968577683,-0.007969433441758156,-0.004094035364687443,-0.001533232512883842,0.0019240223336964846,-0.004900043364614248,0.006633052136749029,0.005850679706782103,-0.0014905340503901243,0.0005235819262452424,-0.0023436732590198517,-0.0006016343832015991,-0.006563711911439896,1.909997627080884e-05,0.002113108057528734,0.0031760800629854202,-0.010179519653320312,-0.0010928609408438206,-0.002267455216497183,-0.003467616392299533,0.0040445150807499886,-0.004028999712318182,-0.001173641998320818,-0.005329820327460766,-0.0009262191015295684,0.0012847569305449724,-0.007674727123230696,-0.007304630242288113,-0.003783568274229765,0.009055240079760551,0.0009283676045015454,0.002860634820535779,-0.0013996937777847052,-0.007129668723791838,0.004406651481986046,-0.0031326906755566597,0.008444570004940033,0.005156925413757563,-0.0016972681041806936,-0.010024313814938068,0.0013670428888872266,-0.0006663009990006685,-0.002812651451677084,-0.002874327590689063,-0.01035206951200962,0.00045978251728229225,-0.005648379679769278,-0.0027380920946598053,-0.0003034383407793939,0.0008854022016748786,-0.011074923910200596,0.001887926016934216,-0.005619366653263569,0.0009200643398799002,-0.0013266573660075665,-0.0022705320734530687,0.004766407422721386,0.0020599174313247204,-0.0023036145139485598,0.004856566432863474,-0.009250068105757236,0.003063252428546548,0.003239769022911787,0.002863406902179122,0.004109768662601709,0.0023228933569043875,0.008863118477165699,0.010267872363328934,0.0023223129101097584,-0.0025685143191367388,-0.0005364128155633807,-0.004090437665581703,-0.008636352606117725,-0.0037088128738105297,-0.007241813465952873,-0.0005051710177212954,-0.00012527787475846708,-0.00145104865077883,0.0021223602816462517,-0.0009835890959948301,0.0020581453572958708,0.0042381444945931435,-0.003338142763823271,0.004475124180316925,-0.0026904400438070297,-0.00044147131848149,-0.00033464402076788247,0.001375222229398787,-0.0033132771495729685,-0.0032328658271580935,-7.438965258188546e-05,0.0037025504279881716,0.006490611471235752,0.0013976740883663297,0.0011494244681671262,0.0011843631509691477,0.001137066399678588,-0.00605782913044095,0.0024696774780750275,-0.0022106487303972244,0.004192391410470009,-0.001503019710071385,-7.67719484429108e-06,0.0058123404160141945,0.004214001353830099,-0.003533370327204466,-0.0016160097438842058,0.0013866445515304804,-4.212420026306063e-05,0.002363407053053379,-0.0026588335167616606,-0.006602192763239145,-0.007919101975858212,0.0045163012109696865,-0.005646083038300276,-0.0014149314956739545,-0.0030734757892787457,-0.0028371589723974466,-0.0036920702550560236,-0.0015918496064841747,-0.0026901988312602043,-0.0007592805195599794,-0.003379971021786332,0.00224781665019691,-0.0022819731384515762],[0.0017479456728324294,0.001624731463380158,-0.0015224494272843003,0.0011879830854013562,-0.0028863109182566404,-0.005797073245048523,-0.003410462522879243,0.004142703954130411,-0.0024188850075006485,-0.0034927118103951216,0.010949650779366493,-0.0012217264156788588,-0.0019530729623511434,-0.0001961279340321198,-0.005010188557207584,0.001625981880351901,0.006040134001523256,0.0017087149899452925,-0.0025395466946065426,-0.0016790106892585754,0.0017522459384053946,-0.00010600024688756093,0.0037590088322758675,-0.004685196094214916,-0.005649466998875141,-0.0056304484605789185,-0.000648532179184258,-0.005220700055360794,0.0034240575041621923,-0.006797157693654299,-0.002182986121624708,0.00380704109556973,0.007644636556506157,0.0038601604755967855,0.003002014709636569,-6.910984666319564e-05,0.0010674522491171956,-0.004486026242375374,0.008216566406190395,-0.001552458037622273,-0.00139938248321414,4.839001485379413e-05,0.007879603654146194,-0.0029791209381073713,-0.00713766785338521,0.0009421467548236251,-0.0007107497076503932,-0.004004483111202717,-0.008244732394814491,0.008076056838035583,0.003020564327016473,0.0015948950313031673,0.0008822717936709523,-0.004519091919064522,-0.0028295223601162434,3.418890628381632e-05,0.0024509034119546413,-0.0066024018451571465,-0.003751362208276987,-0.008443230763077736,-0.0022032656706869602,-0.001199404476210475,-0.0005970119964331388,-0.001522608450613916,0.002230449579656124,-0.0014614147366955876,0.005687877535820007,0.009024476632475853,0.0043228911235928535,0.0058915200643241405,0.0002515773812774569,0.0015534291742369533,0.0019520673668012023,-0.007580547593533993,0.0007987109129317105,-0.009346729144454002,-0.0001140769527410157,0.004297278821468353,0.0037186555564403534,0.003999324981123209,0.001087086508050561,-0.00613600155338645,-0.0007267844630405307,