{"meta":{"in_dim":3,"hidden_dim":128,"hidden_layers":8,"out_dim":2,"skip_in":[4],"w0":30.0,"w0_hidden":30.0},"layers":[{"weight":[[0.191398024559021,0.16497693955898285,-0.0780608281493187],[0.21054166555404663,-0.2661896049976349,0.31026679277420044],[-0.08880281448364258,-0.002980968914926052,-0.22035732865333557],[0.09160271286964417,-0.06575707346200943,0.10096929967403412],[0.182091623544693,0.08249526470899582,0.025303982198238373],[-0.08066990971565247,0.24050907790660858,-0.04615973308682442],[-0.02715075947344303,0.10844983160495758,-0.08894547075033188],[0.20034080743789673,-0.08521679788827896,0.14963911473751068],[0.03928092122077942,0.03335072472691536,0.30414891242980957],[0.1449524611234665,-0.24089208245277405,0.3116166293621063],[0.1756623536348343,-0.06621628999710083,0.3012000620365143],[-0.004638418089598417,-0.20557108521461487,-0.22490911185741425],[-0.0792427808046341,-0.17508433759212494,0.09056537598371506],[-0.28710082173347473,0.23366352915763855,-0.1480235606431961],[-0.28343796730041504,-0.07694730162620544,0.14232584834098816],[0.03429584950208664,-0.051847074180841446,0.30144909024238586],[-0.14024467766284943,-0.22544243931770325,0.20960281789302826],[0.2573568820953369,-0.05081562697887421,-0.23777295649051666],[0.22453342378139496,0.14034177362918854,-0.18619383871555328],[0.25351768732070923,0.14660125970840454,-0.09259369224309921],[-0.2327045500278473,-0.28690800070762634,-0.2458878457546234],[-0.24595768749713898,-0.28318095207214355,0.044248323887586594],[-0.2768160104751587,-0.08291730284690857,0.23493696749210358],[0.17411521077156067,0.18216711282730103,-0.2773413062095642],[-0.135553240776062,0.015914203599095345,-0.19025582075119019],[0.16834567487239838,0.045620474964380264,0.06999748945236206],[0.0361434631049633,-0.0865757018327713,0.25143203139305115],[0.2541739046573639,0.2494897097349167,0.1711730808019638],[-0.004013173747807741,-0.2965242862701416,-0.09268560260534286],[-0.17543740570545197,-0.2763614356517792,-0.16926513612270355],[0.16721591353416443,-0.16694623231887817,-0.09850957989692688],[-0.25020304322242737,0.13090823590755463,-0.16546526551246643],[-0.26800626516342163,0.2907189130783081,0.05635993555188179],[-0.07882130146026611,0.310488760471344,-0.11572466045618057],[0.20458467304706573,0.17991909384727478,-0.18676407635211945],[0.09368308633565903,-0.213541641831398,-0.25384941697120667],[0.009617244824767113,0.26337364315986633,-0.236596941947937],[0.11599677056074142,0.0125035485252738,-0.2070883959531784],[-0.30067178606987,0.2995152175426483,0.19873768091201782],[0.25713831186294556,0.27901172637939453,-0.15588797628879547],[-0.07433675229549408,0.00368753494694829,0.3062422573566437],[0.0326070599257946,-0.13340501487255096,0.1934567242860794],[0.2664194703102112,-0.22943119704723358,-0.29157352447509766],[-0.17353805899620056,0.2225828617811203,-0.17836403846740723],[-0.062027715146541595,0.12064561247825623,-0.10476494580507278],[-0.0770067498087883,-0.1462988257408142,0.1587103307247162],[0.23833709955215454,0.10472030192613602,0.31055721640586853],[-0.085342638194561,-0.2667038142681122,0.02177582122385502],[0.20824065804481506,-0.06354327499866486,0.018595654517412186],[-0.19217360019683838,-0.07776500284671783,0.2627968192100525],[-0.2722671926021576,0.08097059279680252,0.04998532682657242],[-0.051780495792627335,0.04161309078335762,-0.2909996807575226],[-0.29933658242225647,-0.011971174739301205,-0.2738648056983948],[0.20380163192749023,0.12446682155132294,-0.17404808104038239],[0.28158941864967346,0.17402735352516174,0.27216896414756775],[0.23482970893383026,-0.26921215653419495,0.0339319221675396],[-0.15080636739730835,0.1447211354970932,-0.24391493201255798],[0.006547818426042795,0.18202543258666992,0.08801137655973434],[-0.2972632348537445,0.16564495861530304,0.28051266074180603],[-0.08159489184617996,-0.11063269525766373,0.11865154653787613],[0.2785032093524933,0.11350640654563904,0.2454167604446411],[-0.18961861729621887,0.2221347987651825,0.15777182579040527],[0.09254638850688934,0.1725383996963501,0.17828720808029175],[0.1827729195356369,0.22443774342536926,-0.2860985994338989],[0.27847209572792053,-0.19739682972431183,0.280876100063324],[0.28007563948631287,0.2867342233657837,-0.13069096207618713],[0.07932858169078827,0.21220983564853668,0.11486272513866425],[0.215719535946846,0.23260436952114105,-0.2497987598180771],[0.11434247344732285,0.16858001053333282,0.07805930078029633],[-0.2838870584964752,0.09398619830608368,0.09849660098552704],[-0.09796059131622314,-0.09508111327886581,0.20558851957321167],[-0.29260769486427307,-0.2945803105831146,-0.13932223618030548],[0.1822327971458435,0.24904508888721466,-0.10131102055311203],[0.2726614475250244,0.23836882412433624,0.27487877011299133],[-0.1801712065935135,0.05387602746486664,0.10005497187376022],[-0.29156094789505005,-0.1773071438074112,-0.06581409275531769],[-0.26699158549308777,-0.30346745252609253,-0.2589159905910492],[-0.2651638090610504,0.30450311303138733,0.07398480921983719],[0.21653921902179718,0.10729924589395523,-0.05766895040869713],[-0.25569984316825867,0.27834177017211914,0.006271976977586746],[0.10930043458938599,0.23866122961044312,-0.15808072686195374],[0.08670369535684586,0.1513393223285675,0.22267349064350128],[-0.051986198872327805,0.08958838135004044,-0.22214317321777344],[0.28955039381980896,-0.09024347364902496,-0.28711724281311035],[0.25139766931533813,-0.29194578528404236,0.29347914457321167],[0.3059324026107788,-0.061777565628290176,0.1686280071735382],[0.26849690079689026,-0.08813216537237167,0.09897477179765701],[0.18247167766094208,0.09944362193346024,-0.07142815738916397],[-0.2483493536710739,-0.21882303059101105,-0.060768578201532364],[-0.0849103108048439,-0.09501973539590836,0.3003297448158264],[-0.11996173858642578,0.06446241587400436,-0.07992204278707504],[0.009735219180583954,-0.16571857035160065,0.04047001153230667],[-0.1436578333377838,-0.05955680459737778,0.09028902649879456],[0.11853403598070145,-0.2928479015827179,0.24689218401908875],[0.0008318191976286471,0.12991760671138763,-0.22879943251609802],[0.23162151873111725,-0.2885028123855591,0.22960568964481354],[0.04336340352892876,-0.1069846823811531,-0.17435601353645325],[-0.3127199411392212,0.2239929735660553,0.04797051474452019],[-0.2397788017988205,-0.06402265280485153,-0.13016895949840546],[0.29740235209465027,0.29446908831596375,-0.3069182336330414],[0.13839976489543915,0.1608695536851883,-0.022171800956130028],[-0.21073269844055176,0.18915468454360962,0.10623686760663986],[0.08165495842695236,0.00925456453114748,-0.03159018233418465],[0.23884810507297516,0.10666485875844955,-0.0051699490286409855],[0.15415582060813904,0.18646502494812012,0.11497913300991058],[0.293007493019104,-0.013196222484111786,0.27284926176071167],[0.29980021715164185,0.02297934889793396,0.030104883015155792],[0.07178620994091034,-0.21861226856708527,-0.03489483520388603],[-0.19910083711147308,-0.0040198503993451595,0.2981798052787781],[0.19455185532569885,0.08889278024435043,-0.14169761538505554],[-0.009245170280337334,-0.2510415315628052,0.1260848194360733],[0.021862700581550598,-0.06081682816147804,-0.008864925242960453],[-0.18107667565345764,-0.029203424230217934,-0.28205549716949463],[0.30116933584213257,-0.1567143052816391,-0.16246789693832397],[0.2186126857995987,0.2506203055381775,-0.09303999692201614],[0.07707518339157104,0.2291175276041031,-0.18036697804927826],[0.018678320571780205,-0.016173869371414185,0.10233846306800842],[0.2712287902832031,-0.2157915234565735,0.28549742698669434],[0.1535435914993286,-0.2514546513557434,-0.014046531170606613],[0.11177186667919159,0.048281479626894,-0.22562932968139648],[0.2193785160779953,-0.10293278098106384,0.2758200764656067],[0.1253410279750824,0.09190566092729568,-0.18759790062904358],[0.285938024520874,0.12275464832782745,-0.2920178472995758],[-0.27105411887168884,0.023987790569663048,0.30824053287506104],[0.13179124891757965,0.0050277807749807835,0.014632080681622028],[-0.29304230213165283,-0.13329747319221497,-0.2303234487771988],[-0.1593020111322403,-0.04945988580584526,0.10055352747440338],[0.2837229073047638,-0.08532219380140305,0.26107093691825867]],"bias":[-0.544171154499054,0.512319803237915,-0.2831590175628662,-0.5029074549674988,0.28518757224082947,-0.17602790892124176,0.07492974400520325,0.016606859862804413,0.00253151822835207,0.11377860605716705,0.25771379470825195,-0.22766661643981934,0.4387485682964325,0.5602502822875977,-0.5458198189735413,0.4010118246078491,-0.4414348304271698,0.5318824052810669,0.1043001264333725,-0.3333538770675659,-0.21737545728683472,-0.054145023226737976,0.001799311488866806,-0.18887898325920105,0.09375391900539398,0.20030973851680756,-0.23841404914855957,0.2441985011100769,0.4921037256717682,-0.42130517959594727,0.15785978734493256,-0.12122032791376114,-0.050651706755161285,0.2818618714809418,-0.5751864314079285,0.4446905851364136,-0.10145214200019836,-0.23789142072200775,-0.1921575367450714,-0.49977946281433105,-0.10660756379365921,-0.26572367548942566,-0.08118681609630585,0.33771732449531555,-0.2671961784362793,0.29079368710517883,0.41214337944984436,-0.5403711199760437,-0.46875178813934326,-0.33115023374557495,-0.07351043820381165,-0.13618534803390503,0.07713529467582703,0.4561828672885895,0.2721353769302368,0.18189992010593414,-0.5557606816291809,0.06216684728860855,-0.3739725947380066,-0.18674735724925995,0.27146944403648376,0.5431321263313293,0.5652385354042053,0.49709057807922363,0.2232005000114441,0.4984259009361267,0.22811634838581085,-0.5235125422477722,-0.5480968952178955,-0.43672966957092285,0.2194570153951645,-0.038344405591487885,-0.4451393485069275,0.5721116065979004,-0.45059049129486084,-0.4854312837123871,-0.27406570315361023,-0.18130764365196228,-0.1851818561553955,0.3687751591205597,0.171467125415802,0.11679454147815704,-0.5258752107620239,-0.4365818202495575,-0.2740025818347931,0.05555984750390053,0.16855010390281677,0.1103924885392189,-0.46301621198654175,-0.09567105025053024,0.5585718750953674,-0.37205591797828674,0.5251210927963257,0.46972671151161194,0.18810611963272095,-0.034904297441244125,0.139835923910141,-0.028752444311976433,0.43703776597976685,0.06319560110569,0.39920058846473694,0.4147648811340332,-0.08444598317146301,0.17248205840587616,0.2215491384267807,0.4896870255470276,-0.35427165031433105,-0.509222149848938,-0.5016490817070007,0.3801313638687134,0.07425794750452042,0.32634761929512024,0.39520037174224854,-0.2397535890340805,-0.3529661297798157,0.5288560390472412,0.2523510754108429,-0.5768378376960754,0.5162205100059509,-0.18555836379528046,-0.09722767025232315,0.32022127509117126,-0.2689487636089325,0.026184674352407455,0.2897809147834778,-0.5525141358375549,0.36021265387535095,-0.3617746829986572],"w0":30.0},{"weight":[[0.0063527245074510574,-0.001586354337632656,-0.0009461813024245203,0.000381849124096334,-0.0030218453612178564,-0.0041796499863266945,-0.00011763119982788339,-0.0015863991575315595,-0.004580006469041109,-0.003025476820766926,0.0007401980110444129,0.0028680867981165648,-0.0005635568522848189,0.002114054746925831,0.003237723372876644,-0.005079122260212898,-0.001584859099239111,-0.00155060610268265,-0.0063744219951331615,0.004963864106684923,0.0019725803285837173,-0.0045997039414942265,-0.00016248437168542296,-0.0022975963074713945,-0.0006128532695583999,0.005520883947610855,0.0047569251619279385,0.005753613077104092,0.004394348710775375,0.0026818313635885715,0.006331940647214651,0.0015663877129554749,-0.002876558341085911,-0.0014139384729787707,0.0031684653367847204,0.0008004361880011857,0.004979646764695644,-0.0028256792575120926,-0.0015731211751699448,-0.00501137925311923,-0.0020165361929684877,-0.0025887559168040752,-0.0002743082004599273,0.003802649676799774,-0.0009473591926507652,0.005462920293211937,0.0004917626501992345,0.0027733594179153442,0.005671218037605286,0.0010663534048944712,-0.006715961266309023,0.0044905017130076885,0.002500078408047557,-0.002291045617312193,0.0018672458827495575,0.0021416223607957363,-0.006613534409552813,-0.0010639820247888565,-0.0010758574353531003,0.009128686040639877,-0.0047876774333417416,0.0068594906479120255,-0.0025278632529079914,-0.0004711148503702134,-0.0011360240168869495,0.0057469927705824375,0.004012726712971926,-0.000978528754785657,0.002926468849182129,0.0032896993216127157,-0.007206220179796219,0.0012568621896207333,0.0006857177359052002,-0.002569175325334072,-0.003812535433098674,-0.0050593833439052105,-0.00044473580783233047,-0.0036184792406857014,0.0030046759638935328,0.002926463959738612,-0.008934590965509415,0.0016754824900999665,0.002664724597707391,0.001767551526427269,0.001921862829476595,0.00290929083712399,-0.003158099018037319,-0.00471884198486805,0.0017427876591682434,0.0019168556900694966,-0.009209691546857357,0.006341851782053709,-0.0006654198514297605,-0.00507385702803731,-0.003378699067980051,-0.0002124897000612691,-0.009664376266300678,0.0011372356675565243,0.011652098037302494,0.001133934361860156,-0.00014816226030234247,0.003220238955691457,0.0006664556567557156,0.0009455920662730932,0.007421073969453573,-0.00341923744417727,0.00798252783715725,0.007381750736385584,0.004513203632086515,0.007029945496469736,-0.01000441238284111,-0.009571941569447517,-0.0004788100777659565,0.001630869461223483,0.002041328465566039,-0.006103235762566328,0.01208868995308876,0.003936074674129486,-9.658892668085173e-05,-0.006146179046481848,-0.008202102966606617,0.0017267832299694419,-0.005706054158508778,0.002787234028801322,-0.0017449501901865005,0.003633196000009775,-0.008759227581322193,0.0010346825001761317],[0.010492546483874321,0.003076718421652913,-4.7637251554988325e-05,-0.00133359560277313,0.004799456335604191,-0.011078712530434132,-0.0055090985260903835,0.00042192390537820756,-0.003365812124684453,-0.0060240766033530235,-0.0034317069221287966,0.0026172534562647343,0.004931333940476179,0.0011562008876353502,0.004747550468891859,0.0109526626765728,-0.000902614847291261,-0.0019633490592241287,-0.00487855589017272,0.008665753528475761,-0.0026910516899079084,0.0015706568956375122,-0.0036425208672881126,0.0022093974985182285,0.005844848696142435,-0.001030442421324551,0.0006308575975708663,-0.003574805101379752,-0.003861623350530863,-0.0054095033556222916,0.00012150912516517565,-0.00611893879249692,0.0006427190965041518,-0.005382985807955265,0.004499917849898338,0.005895803216844797,0.0065542953088879585,-0.0044187274761497974,0.0007598534575663507,0.003979353234171867,-0.002940788632258773,-0.0009290080633945763,-0.0039078849367797375,-0.004188276827335358,0.01076086051762104,0.0025544818490743637,-0.003550156019628048,0.003811958245933056,-0.003354467684403062,0.006103144027292728,-0.0006691524176858366,0.0016964421374723315,-0.0037779402919113636,-0.006251644343137741,-0.0021713089663535357,0.0005088616744615138,-0.008284388110041618,-0.0010684789158403873,-0.003925930242985487,0.003256111405789852,-0.005687270779162645,6.169146945467219e-05,-0.006881849840283394,0.002598236780613661,0.0002715853916015476,-0.0019858640152961016,-0.0022566949483007193,-0.001514541800133884,0.001039477763697505,-0.0011828361311927438,0.0045741284266114235,0.0043578618206083775,-0.003461095504462719,0.002549177734181285,-0.0012052615638822317,0.002771687461063266,-0.00342503166757524,0.006211366504430771,-0.006192434579133987,-0.0007565118139609694,0.006391133647412062,-0.0021741632372140884,-0.004398326855152845,0.0013228009920567274,5.1965795137220994e-05,0.0033913184888660908,-0.0030954189132899046,0.0026264949701726437,-0.004972558934241533,0.0010741238947957754,-0.0011981313582509756,0.011918270029127598,0.006376331206411123,-0.004418041557073593,0.000937672215513885,0.0010629250900819898,0.005124168004840612,-0.00363386538811028,0.008294930681586266,-0.0007557826465927064,0.006667284294962883,0.0029361865017563105,0.003023959696292877,0.003386812750250101,-0.006764241494238377,-0.007352509535849094,-0.0049125137738883495,-0.00013742991723120213,0.0037174439057707787,0.008327034302055836,-0.009100805036723614,0.003628956153988838,0.001270356005989015,-0.003943808376789093,-0.0036649208050221205,-0.0006662539672106504,-0.0005304174846969545,-0.0008344640955328941,0.009301512502133846,0.000343386665917933,0.0019682860001921654,0.00697186216711998,-0.0014458604855462909,0.00489550456404686,0.009555702097713947,0.008120542392134666,-0.010787936858832836,0.00452298391610384],[-0.00983708631247282,-0.003956562373787165,-0.006425708066672087,0.0018395285587757826,-0.001346175093203783,-0.0035545346327126026,-0.0046651908196508884,0.0005956804379820824,-0.0010917863110080361,0.0020168086048215628,-0.006550644990056753,-0.0018063233001157641,-0.0076989177614450455,0.0069084567949175835,0.00433464627712965,0.002284204587340355,0.001811088528484106,-0.009457345120608807,0.008269970305263996,0.0027633379213511944,0.0024967221543192863,-0.007003536447882652,-0.0017154242377728224,0.003912648651748896,0.0031992096919566393,-0.013998664915561676,0.004868768621236086,-0.0031386567279696465,0.002800433896481991,0.004682624246925116,0.0030318633653223515,-0.004162960220128298,0.003103599650785327,0.002413099864497781,0.00918450579047203,0.0016433594282716513,0.00723096402361989,-0.018231414258480072,0.002105024876073003,0.0028568506240844727,0.007943669334053993,0.011344343423843384,0.002825014293193817,-0.0022253203205764294,-0.0012672384036704898,0.00905188824981451,-0.004585102200508118,-0.008384713903069496,-0.005229404661804438,0.0019015209982171655,-0.002368661342188716,-0.0031856594141572714,-0.0040185656398534775,0.010729149915277958,0.0052119228057563305,0.0001538917567813769,-0.0040789502672851086,-0.005861447658389807,0.0009662910597398877,0.00037561124190688133,-0.004907502327114344,0.008369294926524162,0.0025929261464625597,-0.0006529829115606844,0.005516814533621073,0.004878009669482708,2.3457194401999004e-05,0.0040690721943974495,-0.0018160719191655517,-0.012471710331737995,0.007168692070990801,0.006031244993209839,-0.0046594412997365,0.0027816426008939743,-0.0035516468342393637,-0.0036911368370056152,-0.0024824130814522505,0.004028693772852421,-0.006021726410835981,0.004901246167719364,-0.0038214814849197865,-5.71943492104765e-05,0.005164815112948418,0.0029725399799644947,0.00621153274551034,-0.002830331912264228,0.005422687157988548,-0.003261907957494259,0.004245254676789045,-0.0013870459515601397,-0.00041348638478666544,-0.00963639747351408,0.0017460769740864635,-0.00520738773047924,0.0032942327670753,0.004922397900372744,0.002990120556205511,-0.005299814976751804,0.0014741852646693587,0.0027662375941872597,0.007749199867248535,0.005136881023645401,-0.011108512990176678,0.0009577869204804301,-0.00262255035340786,0.0014038649387657642,0.003238928969949484,0.011636592447757721,0.010288220830261707,0.0027542910538613796,-0.004707454703748226,-0.006724550388753414,8.504183642799035e-05,0.0039028893224895,-0.000626591790933162,0.0034634291660040617,0.004063213709741831,-0.008342568762600422,0.0019007185474038124,0.0035276291891932487,-0.002590422984212637,0.002182908123359084,-0.005994669161736965,0.001383963623084128,-0.017186101526021957,-0.00030676726601086557,-0.0030849508475512266,0.0003865858889184892],[0.011499359272420406,0.002095454605296254,-0.004920762497931719,-0.0037190758157521486,-0.004155606962740421,-0.0010241168783977628,-0.0079003581777215,-0.010343599133193493,-0.0040732454508543015,-0.0009201433276757598,-0.0021692339796572924,0.005994569044560194,-0.008216628804802895,-0.0013432130217552185,-0.002360938349738717,0.0007343526231124997,-0.003543256549164653,0.005928026046603918,0.00632080901414156,-0.00525243254378438,0.002669933019205928,0.00035377187305130064,0.006191468797624111,-0.0006599842454306781,0.005005494225770235,0.0028593651950359344,0.004101453348994255,-0.004024391528218985,-0.0036884495057165623,0.0020368630066514015,-0.00893830880522728,-0.00958858523517847,0.0021906669717282057,0.007405643817037344,0.000510954880155623,0.010032333433628082,-0.0014112548669800162,-0.003750404343008995,-0.002894474659115076,0.003945863340049982,0.0005925518344156444,0.0027057172264903784,-0.0019811091478914022,-0.005484446883201599,-0.0037433558609336615,0.0005167673225514591,-0.0004942066734656692,0.00020168739138171077,0.0026532153133302927,-0.0010227665770798922,-0.006061297841370106,-0.0023711570538580418,-0.004168329294770956,-0.00706393551081419,-0.0011628223583102226,-0.0020084816496819258,-0.0048711467534303665,0.0004193576460238546,-0.002512992126867175,-0.0011999630369246006,-0.0035886031109839678,0.0007728775381110609,-0.0076649850234389305,0.0020499590318650007,-0.0009656929760240018,0.006462173070758581,0.0017124293372035027,0.005886528640985489,0.007722515147179365,0.004456997383385897,-0.0033892423380166292,0.0037756548263132572,-0.006153817754238844,-0.004289139062166214,0.006449654698371887,0.003088741796091199,0.00025351138901896775,0.0017445292323827744,-0.006342378444969654,0.003851342247799039,0.00023097748635336757,0.0003963980416301638,-0.000994682777673006,-0.003474990138784051,-0.0016935077728703618,-0.008395034819841385,-0.003950378857553005,-0.0008627142524346709,0.0001098458087653853,-0.0016968694981187582,0.0012343708658590913,0.00939207710325718,0.003678329288959503,0.0015480461297556758,0.010618571192026138,-0.0038633551448583603,0.0037233661860227585,-0.0026043839752674103,0.0036999480798840523,-0.0016032876446843147,-0.007152802310883999,0.0015602572821080685,0.0008106410969048738,-0.013878293335437775,-0.0032086658757179976,-0.0008368027629330754,0.0067531513050198555,-0.008197944611310959,-0.00257566524669528,-0.004585565533488989,0.004818837158381939,-0.0037881990429013968,0.0033558071590960026,-0.005998164415359497,-0.008280591107904911,0.005547098349779844,0.006870012730360031,-0.00018014277156908065,-0.0027410886250436306,-0.010955705307424068,0.004247130360454321,0.010862543247640133,-0.00180890504270792,-0.00571080856025219,-0.01034618727862835,-0.00836193934082985,-0.0006974434363655746,-0.0005644185002893209],[-0.006266249343752861,-0.0033221228513866663,-0.0023404022213071585,-0.004352796822786331,-0.002711385255679488,0.0027262079529464245,-0.0066650244407355785,-0.00016729148046579212,-0.004243503324687481,0.0009189452393911779,0.0055600423365831375,-0.003854567650705576,-0.011857889592647552,0.005755869206041098,-0.005528940353542566,-0.001619579503312707,-0.001967189833521843,0.0032651068177074194,-0.005077482666820288,-0.0033455220982432365,-0.002569751115515828,0.004406202118843794,-0.0036697620525956154,-0.003683562856167555,-0.0016418233281001449,0.0017120190896093845,-0.009066137485206127,-0.004262033384293318,-0.0030891112983226776,-0.011005334556102753,-0.006254279520362616,-0.0020781527273356915,0.0008982890867628157,-0.006031101569533348,-0.0007046132232062519,0.0011839896906167269,-0.008202620781958103,-0.008620635606348515,0.0036740570794790983,0.003759722923859954,0.007166133262217045,0.0014965871814638376,-0.001307190745137632,-0.0009369573090225458,-0.003814002266153693,0.006713885348290205,0.0008527677273377776,0.0037278556264936924,-0.010685227811336517,0.0032820317428559065,-0.007274326402693987,0.006171682383865118,0.0010604538256302476,-0.009098920039832592,-0.0015044165775179863,-0.002649666042998433,0.0042714932933449745,-0.0034361800644546747,0.007986784912645817,-0.0003532093542162329,-0.003985922783613205,-0.0007208393071778119,-0.006883400026708841,-0.004509551916271448,0.0025817162822932005,-0.002262961817905307,-0.005523383151739836,0.0045601315796375275,-0.0041582826524972916,-0.003557787509635091,0.005751746706664562,0.002041278872638941,0.0048119607381522655,0.004659517668187618,-0.0049224370159208775,0.006504048127681017,0.003821484511718154,1.1969433444392052e-06,-0.006818474270403385,0.0008294843137264252,0.007259209640324116,-0.0055833798833191395,0.002511238446459174,-0.003739289240911603,0.004446204286068678,-0.002562374109402299,0.00043546099914237857,-0.0005457779625430703,0.007643938530236483,0.0061815823428332806,0.0024627570528537035,-0.009524531662464142,0.0037259396631270647,-0.004133032169193029,0.0016757986741140485,0.0002563917951192707,-0.0006882070447318256,0.0021012062206864357,0.002164036501199007,0.0019300213316455483,-0.0037463572807610035,-0.0015811048215255141,-0.001255336101166904,-0.002981639001518488,-0.0002748500555753708,-0.005910163279622793,0.004353521391749382,-0.004540302325040102,0.0022228267043828964,-0.005265458486974239,-0.0021322001703083515,-0.013878709636628628,-0.00035044082324020565,-0.009421705268323421,-0.0069391317665576935,-0.0015060087898746133,-0.0016292978543788195,-0.007651044055819511,-0.001918824389576912,0.0007020473130978644,-0.0018172796117141843,-0.011236886493861675,0.001739625004120171,0.0075650871731340885,-0.0003009075007867068,0.0006227947305887938,-0.0003346340381540358,0.00037508553941734135],[0.006341192405670881,-0.0015149478567764163,-0.007014857139438391,-0.012087742798030376,-0.012119855731725693,-7.53712811274454e-05,-0.015509461052715778,-0.006981734652072191,0.012596264481544495,-0.0017151959473267198,0.006541808135807514,0.005383709911257029,-0.00041275526746176183,-0.0026416222099214792,0.0038450665306299925,0.0007475295569747686,-0.006092308554798365,-0.007349197752773762,-0.004593909718096256,-0.004023393150418997,-0.0024711310397833586,-0.0038555043283849955,0.002451118314638734,-0.002696822164580226,0.00706617534160614,-0.010535342618823051,0.0037289520259946585,-0.003680516965687275,9.480462176725268e-05,-0.0034773722290992737,-0.006126393564045429,0.0004377264704089612,0.005794896744191647,0.0039039598777890205,-0.0025254348292946815,-0.004442681558430195,0.003222511615604162,0.0005125104798935354,0.004670828115195036,-0.00624993909150362,0.004326946102082729,-0.008197395130991936,0.001934361644089222,-0.0006442283047363162,0.0075275409035384655,0.0037692843470722437,0.004384733736515045,0.001496625947766006,0.008558335714042187,0.003970752470195293,-0.0021635047160089016,-0.005794872064143419,-0.00221082242205739,0.004183563403785229,0.0014706947840750217,-0.0019077028846368194,-0.007412395440042019,-0.009094304405152798,0.004324337933212519,-0.001638462534174323,-0.007514759432524443,-0.012853722088038921,-0.0029529884923249483,-0.0011405755067244172,-0.0012051244266331196,0.0015822381246834993,-0.00226461049169302,0.0008695842116139829,0.015012294054031372,-0.00856029987335205,0.0014869814040139318,-0.002549584722146392,0.004264699295163155,0.004387177061289549,-0.004063589032739401,-0.0015140831237658858,0.0013459979090839624,0.002641689497977495,-0.00753487553447485,-0.002048374619334936,-0.003355527063831687,-0.0015338516095653176,0.00505119189620018,-0.0029408694244921207,0.002041311003267765,-0.007372321095317602,-8.780186180956662e-05,0.004283769987523556,0.0038334026467055082,-0.0015401761047542095,0.0022360386792570353,0.009536941535770893,0.0028063454665243626,0.002344978740438819,-0.0033288022968918085,-0.004730524029582739,-0.011605560779571533,-0.003880569711327553,-0.004713089670985937,0.0013629551976919174,0.005693558603525162,0.000562809407711029,-0.00801344309002161,-0.006060802843421698,0.007281068246811628,-0.002442810917273164,-0.0058443290181458,-0.010700611397624016,0.0006583331269212067,-0.0024897700641304255,0.0018996172584593296,-0.013948764652013779,0.003941171336919069,-0.0016107875853776932,-0.006381574086844921,0.002112190704792738,0.0054925414733588696,0.0022692892234772444,0.0006682284292764962,0.0037966666277498007,-0.003566459519788623,0.004251854959875345,0.0013711954234167933,0.00043825811007991433,0.005787467118352652,0.002784089418128133,0.0013990222942084074,0.0026178574189543724],[-0.0007711772923357785,0.0008332274737767875,-0.00949847511947155,-0.0042463745921850204,0.009678964503109455,0.0006438574637286365,-0.0005140148568898439,0.004324910696595907,8.023987902561203e-05,0.0016282598953694105,0.00019711875938810408,0.004715298768132925,-0.004771968815475702,0.003347672987729311,0.002133688423782587,-0.0009089276427403092,0.002210951177403331,0.0077018882147967815,-0.0022823272738605738,0.0024453296791762114,0.0042804935947060585,0.007657474372535944,0.0021035962272435427,0.003816749434918165,0.015465394593775272,0.006866224575787783,-0.004762052558362484,0.002502677496522665,-0.001855272683314979,-0.0015998722519725561,0.013238988816738129,-0.011353176087141037,-0.00038076104829087853,0.0005114297964610159,-0.0032600159756839275,0.0032965734135359526,0.0008928346796892583,0.0015912250382825732,-0.0036030516494065523,0.0048353904858231544,-0.007391869556158781,-0.00018876633839681745,-0.0034957127645611763,-0.0015363858547061682,0.006257954984903336,-0.0003216829209122807,-0.008105281740427017,-0.005143510643392801,-0.007909287698566914,0.0015545847127214074,-0.003814609022811055,0.004604863002896309,-0.002665705746039748,-0.002221259055659175,0.007448428776115179,-0.000574866367969662,-0.004305092617869377,0.001138758147135377,-0.00278559816069901,0.002156065311282873,0.007279427256435156,0.006389006040990353,-0.011269712820649147,6.596134426217759e-06,-0.00018970332166645676,0.00213230075314641,0.0033984717447310686,-0.0027557285502552986,0.0029060966335237026,0.010048015974462032,-0.0034619926009327173,0.0013025834923610091,0.0033619829919189215,-0.0028124586679041386,-0.011632850393652916,-0.0026118168607354164,-0.006031465716660023,-0.0024588615633547306,0.0025302416179329157,0.001340516610071063,0.0013011750997975469,-0.00914725475013256,0.006778338458389044,0.0026664973702281713,-0.0008158551063388586,-0.0034974950831383467,-0.0015050877118483186,-0.004855568986386061,0.0035459911450743675,-0.005006567109376192,-0.0009317139047197998,0.0002346918627154082,-0.0019474548753350973,0.000362407328793779,-0.0017744111828505993,0.0029722806066274643,-0.0011751094134524465,0.008570878766477108,-0.0003982830385211855,-0.0016938725020736456,0.0010230573825538158,0.0021162668708711863,0.010176632553339005,0.00632867868989706,-0.0012433064403012395,0.007572627160698175,-0.00023140377015806735,0.0005666922661475837,-0.007232079282402992,-0.0014891450991854072,0.003423799993470311,0.003639355069026351,0.004064114764332771,0.012571657076478004,0.003409493947401643,0.007137327920645475,-0.008606307208538055,-0.0053868601098656654,-0.0006179813062772155,-0.001669474528171122,0.002610181225463748,0.010166328400373459,-0.0013527465052902699,0.004195891320705414,0.0018552797846496105,0.004089883528649807,0.002710165688768029,-0.002719351788982749],[0.011192443780601025,-8.771829743636772e-05,0.004762250930070877,-0.0034439500886946917,-0.003160947235301137,-0.0022630509920418262,0.004217766225337982,0.005108678247779608,0.0007848201203159988,0.003992389887571335,-0.001792021095752716,0.007992921397089958,-0.005857843905687332,0.006996574811637402,0.0011436725035309792,0.002564835362136364,0.00412767194211483,-0.0032362262718379498,0.0018396495142951608,-0.0046658944338560104,-0.005599606782197952,-0.001387119060382247,-0.00022732371871825308,0.003295403905212879,0.00391392083838582,0.015150325372815132,0.00413928460329771,0.00230684457346797,-0.00428388174623251,-0.001298209186643362,-0.004344935063272715,0.0033702391665428877,-0.0008665488567203283,0.003835859475657344,0.0004038429178763181,0.005288105458021164,-0.004507547710090876,-0.0011505938600748777,-0.0021331708412617445,-0.0007845557411201298,-0.004623921122401953,0.0026094592176377773,-0.002116615418344736,0.008726848289370537,-0.004682063590735197,0.0009944734629243612,-0.006591965910047293,-0.005145505536347628,0.0008473393390886486,-0.0062713464722037315,-0.0008515951922163367,-0.005666008684784174,0.003956131171435118,-0.006152907852083445,0.005699376109987497,0.0031548775732517242,0.0014031908940523863,-0.008061865344643593,0.002034223871305585,-0.0015715768095105886,-0.0003216833283659071,0.0006412211805582047,0.005963079631328583,3.629277489380911e-05,-0.0022562246304005384,-0.004146887455135584,-0.00018217366596218199,-0.00539842015132308,0.0018274978501722217,-0.0049124667420983315,0.004955033306032419,-0.0016899810871109366,0.005031988024711609,0.00675621535629034,-0.00428722333163023,-0.0014055349165573716,0.000718369206879288,-0.004391293972730637,0.004690586123615503,0.00118642405141145,0.006829297635704279,0.003210968803614378,-0.0070257787592709064,-0.00464684097096324,0.003271844470873475,-0.0020452961325645447,-0.005399900954216719,-0.005595248658210039,0.001916895736940205,0.005969650112092495,0.0018819795222952962,0.00818511750549078,-0.005399265326559544,-0.0002548891643527895,0.0015028623165562749,-0.002972662914544344,-0.0026388163678348064,-0.002341056475415826,0.008346736431121826,-0.003728333627805114,0.001211058464832604,0.005257917568087578,-0.022834165021777153,-0.0024493401870131493,0.0034727624151855707,-0.0021999271120876074,0.0016656829975545406,-0.008792332373559475,0.005182281602174044,-0.00393658084794879,-0.0009803902357816696,0.00020819254859816283,-0.005578998941928148,-0.005169582087546587,-0.0059309182688593864,0.006537905894219875,-0.01770460046827793,0.004036978352814913,-0.0015434384113177657,-0.002525259042158723,-0.004052829463034868,-0.005973397754132748,-0.001642155461013317,0.004156049806624651,0.006136792246252298,0.000528886157553643,0.012496943585574627,0.003541541052982211],[-0.010068871080875397,-0.0035442879889160395,0.0006909334915690124,-0.009418326430022717,-0.007870812900364399,0.004999943543225527,0.004980108700692654,0.0024325442500412464,0.001598221599124372,0.0027120234444737434,-0.004696250893175602,-0.00025366179761476815,-0.005313368048518896,0.0007215983932837844,0.002625111024826765,-0.0028499551117420197,-0.0017446515848860145,0.004032732918858528,-0.003303087782114744,-0.005013352259993553,-0.0048115672543644905,0.0014296270674094558,0.0009944986086338758,-0.004144054837524891,-0.0031494074501097202,0.010045228525996208,-0.010001233778893948,-0.0029829845298081636,-0.0009530337993055582,-0.004506413359194994,0.001677029300481081,0.0009295715135522187,-0.0005992884980514646,-0.0029365033842623234,-0.0017839702777564526,0.0001436289312550798,-0.0011328526306897402,-0.002818654291331768,0.0019272032659500837,0.0022577031049877405,0.0070255515165627,-0.006111396010965109,0.0010506141697987914,-0.0004405051004141569,-0.007145847659558058,0.0014753618743270636,0.002286490285769105,-0.005511429626494646,0.005238571669906378,0.0052847424522042274,-0.0007707398035563529,0.0001688197662588209,-0.002768982667475939,0.007286721840500832,-7.418721361318603e-05,0.0005909955943934619,-0.004042417276650667,-0.005720364395529032,-0.00507876044139266,-0.0033893221989274025,-0.0008279132307507098,-0.001724144327454269,-0.0035232172813266516,-0.004670340567827225,-0.0011580763384699821,0.0011266748188063502,0.005817791447043419,0.005677936132997274,-0.006040877662599087,0.00041649173363111913,-0.0013967232080176473,-0.0011814271565526724,0.005149728152900934,-0.0011335869785398245,0.007915513589978218,0.004357404075562954,0.0015085762133821845,0.000556944462005049,0.004152406472712755,-0.00034551566932350397,0.004583274479955435,-0.0028448025695979595,0.0008174433023668826,0.0020926224533468485,-0.002305107656866312,-0.00546238524839282,0.005489266477525234,-0.009294474497437477,0.0025985275860875845,0.008644916117191315,-0.01625092327594757,-0.006933275610208511,-0.0007151358877308667,0.0007489746203646064,-0.0033401809632778168,0.0037084296345710754,-6.762198609067127e-05,-0.0011814739555120468,-0.004673636052757502,0.0012952083488926291,0.013636847957968712,-0.006083461456000805,0.007060767151415348,0.009680422022938728,0.005474783014506102,-0.0024764121044427156,-0.005992291495203972,-0.0008685779175721109,0.002089232672005892,0.005883169360458851,-0.0061239018104970455,0.002878132974728942,0.007814472541213036,0.000314442120725289,0.0018192550633102655,0.004721803590655327,0.008878744207322598,-0.003249067347496748,0.0045967260375618935,-0.00153390655759722,0.005251004360616207,-0.00847494974732399,-0.0019884102512151003,-0.0013753368984907866,0.007480015512555838,-0.0036104461178183556,0.0051886653527617455,-0.005683800671249628],[-8.465749124297872e-05,-0.001015370711684227,-0.008403917774558067,-0.005159889813512564,-0.0029664747416973114,0.008925841189920902,0.00896823313087225,-0.003863201243802905,0.01277213916182518,0.0020385701209306717,-0.0068426127545535564,-0.0015262289671227336,0.009247311390936375,0.0037477617152035236,0.009067759849131107,0.004551295656710863,0.0009695666376501322,-0.007096511777490377,-0.0030475496314466,-0.006147362757474184,-0.0034001185558736324,0.00421106768772006,-0.00763861695304513,-0.0014555455418303609,-0.0027614792343229055,0.0048115914687514305,-0.007599125150591135,0.004620858933776617,-0.0016953586600720882,-0.0021612385753542185,0.005102830473333597,0.0010937507031485438,-0.001699509215541184,-0.0025770999491214752,-0.0009968905942514539,-0.006714193150401115,-0.0018679501954466105,-0.0008548037731088698,0.002784044947475195,0.004074980039149523,-0.011409441009163857,-0.0035916261840611696,0.0017247623763978481,0.002576821018010378,0.00288767134770751,-0.004759514704346657,0.001971529796719551,-0.004498617257922888,0.010807710699737072,0.00644548237323761,0.01017338503152132,0.0020856407936662436,0.0012750292662531137,0.0022832772228866816,1.5641817299183458e-05,0.00036334284231998026,-0.0072240340523421764,-0.01187674980610609,0.0028523493092507124,0.008813465014100075,-0.0038974869530647993,-0.001207860535942018,0.00826167780905962,0.001012655207887292,-0.001548144151456654,-0.0015321529936045408,-0.0026403379160910845,0.0024911300279200077,-0.005409381818026304,-0.005886528640985489,0.014549600891768932,0.002897888422012329,0.003719738218933344,0.0028636252973228693,-0.003863035701215267,0.0012974488781765103,0.004818271845579147,-0.0020613495726138353,-0.005560442805290222,0.0035186035092920065,0.0031198677606880665,-0.0016141687519848347,0.002261921064928174,-0.005532467737793922,-4.2466766899451613e-05,-0.004505172371864319,0.00035358252353034914,-0.0056397877633571625,-0.0047813537530601025,0.00032161176204681396,0.008019835688173771,0.003075686516240239,-0.006774195935577154,-0.004350877366960049,-0.006044608075171709,0.00014501555415336043,0.009077825583517551,0.005226032342761755,-0.004014294594526291,-0.0007793224649503827,-0.008451594039797783,-0.0017289434326812625,-0.007367744576185942,0.0017138158436864614,-0.004273862577974796,-0.011380527168512344,-0.006118226330727339,0.007264023181051016,0.0018731412710621953,-0.0007513517630286515,0.002404673956334591,-0.002073663752526045,-0.002012125449255109,-0.0017494341591373086,0.002875695703551173,0.0009003333398140967,-0.0005465713911689818,-0.001959801884368062,0.0016981186345219612,0.0031381845474243164,-0.004552651196718216,-0.005131511017680168,-0.0013355585979297757,-0.005097235552966595,-0.0017861451487988234,-0.0015934089897200465,-0.003337571397423744,-0.0049784742295742035],[0.004630361683666706,-0.0012972584227100015,0.009168845601379871,0.0073468927294015884,-0.0013806185452267528,0.007479699328541756,-0.009888753294944763,-0.010574527084827423,-0.004310014192014933,-0.0009674460743553936,0.0012171425623819232,-0.007014420349150896,0.00655624084174633,0.0026318777818232775,0.0005723761860281229,0.0043593212030828,-0.004667526111006737,0.001958284294232726,-0.0038283844478428364,0.00034912824048660696,-0.004697530996054411,-0.0030312559101730585,-0.002202013973146677,-5.429158773040399e-05,-0.01045291032642126,-0.00144764909055084,-0.009966010227799416,0.00023597379913553596,-0.0032394290901720524,0.0015892308438196778,-0.004104292020201683,0.00862782821059227,0.0017865374684333801,-0.0022738587576895952,0.005653252359479666,-0.002952611306682229,0.0013431599363684654,-0.003963998518884182,-0.004444235935807228,-0.004924057517200708,-0.003261398756876588,-0.001107999007217586,-0.001759365783073008,0.0054819476790726185,-0.00712037505581975,0.013473915867507458,0.0006170367123559117,0.007080052979290485,0.0027597323060035706,0.004537536296993494,-0.0008504063007421792,-0.00012015151150990278,0.008553975261747837,-0.0013939231866970658,0.0002839944208972156,-0.0021912623196840286,0.0007213465869426727,-0.007909543812274933,-0.006759510841220617,-0.006277159787714481,-0.002157902345061302,0.003931095823645592,-0.006193730980157852,-0.0034840733278542757,0.005890506785362959,-0.004120433237403631,0.004393690265715122,0.0027604280039668083,0.002852062461897731,0.004127013962715864,0.002410504035651684,-0.00011209540389245376,0.008611727505922318,0.003769398434087634,-0.017772933468222618,0.0035732088144868612,0.0008707683300599456,0.0010024688672274351,0.006195755209773779,-0.00023082092229742557,-0.007036665454506874,-0.005508820991963148,-0.004488791339099407,0.004218566697090864,0.0030478688422590494,0.011995392851531506,0.012699633836746216,-0.006975854746997356,-0.006351240910589695,0.0003318195231258869,-0.004505306016653776,-0.01475721038877964,0.008717499673366547,-0.0035307854413986206,0.0038213145453482866,-0.001046200399287045,-0.007977070286870003,-0.005011843051761389,0.0018568200757727027,0.0003265279810875654,-0.008524106815457344,0.0003156813036184758,0.0023639840073883533,0.0031229809392243624,0.0022638612426817417,-0.0040063560009002686,-0.00484069949015975,0.007120038382709026,-0.003172829281538725,-0.005789921153336763,0.009418530389666557,0.006903350818902254,0.0009664495009928942,0.0058508375659585,0.0032856345642358065,-0.004810166545212269,-0.013254079967737198,-0.0031975724268704653,0.001815921743400395,0.004302650224417448,-0.002278245287016034,-0.007821229286491871,-0.0013277241960167885,-0.00723158847540617,0.01197428535670042,0.0018036200199276209,-0.005412766244262457,-0.005278185475617647],[-0.005302803590893745,-0.0007290507201105356,-0.0016687941970303655,-0.002219132613390684,-0.004975990392267704,-0.005316473543643951,0.00681937113404274,-0.0009771637851372361,0.005550056230276823,-0.0023431999143213034,0.005753404460847378,0.0005818803329020739,-0.002964422572404146,0.006995941046625376,0.0006442498997785151,0.0037862895987927914,0.002362945582717657,0.002151062712073326,-0.0007648520986549556,0.0013210867764428258,-0.00585315003991127,0.0022671250626444817,0.004955438431352377,-0.00203935569152236,0.0070414780639112,0.0014196493430063128,-0.0014878769870847464,0.0010189102031290531,-0.001876013819128275,-0.0064721922390162945,0.005197005346417427,0.003956000320613384,0.005292963702231646,-0.0033007082529366016,0.004687563981860876,-0.005997986067086458,0.0031042995397001505,-0.006008272059261799,-0.0046304743736982346,0.00019456824520602822,-0.0020820333156734705,-0.0026547168381512165,0.0017474666237831116,0.008493791334331036,-0.0014125838642939925,0.0024006511084735394,-0.0006094254786148667,-0.0035359670873731375,-0.00494007533416152,0.0011319149052724242,0.005859005264937878,0.0032135574147105217,-0.0028439101297408342,-0.0031056117732077837,-0.005411046091467142,0.002233498264104128,0.0009248272981494665,0.002877030288800597,-0.002632980700582266,0.008395879529416561,-0.003736071987077594,-0.0007620677351951599,0.0016100421780720353,-0.002010704716667533,0.0013439294416457415,-0.0013901346828788519,0.0010253434302285314,-0.0017663175240159035,-0.010394623503088951,-0.005011195782572031,0.0027592794504016638,-0.0020238154102116823,0.0037285112775862217,0.0004933458985760808,0.00689435051754117,0.004573884420096874,0.004114372655749321,-0.000588129973039031,-0.005303882993757725,0.0024262587539851665,-0.004815706517547369,-0.007437501102685928,-0.0015900180442258716,0.0005600431468337774,0.0030730124562978745,-0.0012099749874323606,0.004359956830739975,-0.0014028290752321482,-0.002839206950739026,-0.0019219956593587995,0.006365243345499039,0.00180526461917907,-0.005081387236714363,-0.002402998972684145,0.0010617842199280858,0.0008087923051789403,0.010345634073019028,0.005148968659341335,-0.0031919600442051888,-0.0019507771357893944,0.005909464787691832,-0.0025698503013700247,-0.010093532502651215,0.0032423152588307858,0.006873668637126684,0.000984214711934328,-0.0008594241226091981,0.0051664249040186405,0.002986620180308819,0.009402082301676273,7.452779391314834e-05,0.0003213456948287785,0.003883128985762596,0.00288754771463573,-0.0020566124003380537,0.005381123162806034,0.0047228578478097916,-0.001230535446666181,-0.002067416440695524,-0.007094809785485268,-0.005300835706293583,0.0003161329950671643,0.0005513252690434456,-0.0025681396946310997,0.010265467688441277,-0.0054493253119289875,0.007448478601872921,0.004409325774759054],[-0.0012010135687887669,0.0012582439230754972,0.0037098939064890146,-0.0016040342161431909,0.005900818854570389,-0.0005447965813800693,0.005375020205974579,-0.004392604343593121,0.000601749459747225,-0.0019619802478700876,0.004229139536619186,0.005249226465821266,-0.005458676256239414,-0.005506782326847315,-0.003681265516206622,-0.0021589668467640877,0.006929469294846058,0.001431857468560338,-0.0034244044218212366,-0.005860826000571251,0.000934345240239054,-0.00029700581217184663,-0.0033655022270977497,0.00015329629241023213,0.0013372666435316205,-0.003660226473584771,-0.008799213916063309,-0.003235873533412814,-0.006146076135337353,-0.007376710418611765,0.0011254068231210113,-0.0030733738094568253,-0.001837870106101036,0.0008503722492605448,0.0007319608121179044,0.0013892303686589003,0.0013936690520495176,0.009293713606894016,0.003262354526668787,-0.0011687612859532237,0.0019849378149956465,-0.0008185983751900494,0.0017510218312963843,0.001924491603858769,0.012261748313903809,0.0033798629883676767,0.0013199953828006983,0.001680057612247765,0.005384483840316534,-0.0037736946251243353,0.006113747134804726,0.006151460111141205,-4.280042776372284e-05,-0.00913503672927618,0.0015087025240063667,-0.0013375268317759037,0.0017715980065986514,-0.005812746938318014,0.000566581729799509,-0.011071745306253433,-0.004575897008180618,0.0012371739139780402,0.002851606346666813,0.0066293105483055115,-0.0009569830144755542,-0.00151850248221308,0.006586718838661909,-0.003844459541141987,-0.004528408404439688,0.0026389174163341522,-0.008525379002094269,0.00013573552132584155,0.00042822613613680005,0.002068644855171442,0.017542336136102676,0.00033915313542820513,-0.0019943846855312586,-0.000709384330548346,-0.009354754351079464,-0.003454706398770213,0.0034606182016432285,-0.008122379891574383,-0.0017771542770788074,-0.00013373594265431166,-0.0026412499137222767,0.0005931082996539772,0.0022471498232334852,-0.0050870319828391075,-0.0015262177912518382,-0.001848933519795537,-0.0006005845498293638,-0.0022230285685509443,0.010205898433923721,5.969601261313073e-05,0.001317033194936812,0.002066632965579629,0.006195207126438618,-0.0009173572761937976,0.008497148752212524,-0.001006233156658709,0.01458963192999363,0.008020730689167976,-0.008563736453652382,0.0020760365296155214,0.004445337690412998,-0.001249589491635561,0.0021869889460504055,0.006399667356163263,-0.0050688995979726315,0.0067063188180327415,0.001073049963451922,-0.0036889847833663225,-0.009596038609743118,-0.0020812940783798695,-0.0030230791307985783,0.0031941337510943413,0.009696790017187595,0.00589621439576149,0.0019466234371066093,0.004727519117295742,0.001914006075821817,-0.0069743311032652855,-0.0021325352136045694,-0.004566137678921223,0.0059544919058680534,-0.004987189080566168,0.005287616979330778,-0.0003621729847509414],[-0.0017867296701297164,-0.0034421791788190603,0.002096867887303233,-0.0012208576081320643,-0.009450733661651611,-0.0005936260567978024,-0.004180618096143007,0.0031578727066516876,0.005259084049612284,-0.0009124521166086197,-0.0043604108504951,-0.0008769453270360827,-0.0074871983379125595,-0.00047699452261440456,0.0017601248109713197,0.007987764663994312,-0.0016563937533646822,-0.005868721287697554,-0.003955555614084005,0.0019269265467301011,-0.0017226150957867503,-0.0008642624597996473,0.0033422422129660845,-0.003275781637057662,0.0077994465827941895,0.013000783510506153,0.00020141749700997025,0.0023876898922026157,-0.009691910818219185,0.008360039442777634,-0.003499447600916028,-0.003268524771556258,-0.0009384985314682126,-0.004857427440583706,-0.001125682843849063,0.0012073670513927937,0.0005307996179908514,0.007984123192727566,-0.0022002740297466516,-0.0016417684964835644,-0.00012388920004013926,0.0021873030345886946,-0.001674768514931202,0.0007811213727109134,-0.0015976090217009187,0.00549116637557745,-0.0015853289514780045,-0.004445298109203577,-0.0028145681135356426,0.0017425782280042768,-0.0016034384025260806,-0.004854986444115639,0.004194759298115969,0.009958143346011639,0.001656964304856956,0.0001259621058125049,-0.000861626525875181,0.01140823308378458,0.0027025057934224606,-0.008529547601938248,-0.0004640129045583308,-0.0013425658689811826,-0.002621349412947893,-0.0029265787452459335,-0.0001750513183651492,0.001095160492695868,-0.0066458736546337605,-0.0037223270628601313,0.012114810757339,0.002323175547644496,0.0007022931822575629,-0.00010666048910934478,0.0007148224976845086,0.0003161482745781541,-0.003859361167997122,-2.957355263788486e-06,-0.004700568038970232,-0.0008102154242806137,-0.006428821012377739,0.0008111090864986181,-0.00022712982899975032,-0.0016290200874209404,0.001648154342547059,-0.001198163372464478,0.0010775242699310184,-0.007609881926327944,0.003835237817838788,-0.0028683911077678204,-0.005364381708204746,-0.00217732903547585,0.00527139101177454,-0.005008711013942957,0.011114247143268585,-0.0029683054890483618,-0.004170929081737995,-0.0016943049849942327,-0.014626661315560341,0.0025334821548312902,0.005961940158158541,-0.00334218074567616,-0.0031998988706618547,-0.0029514303896576166,-0.00237369816750288,-0.004414254333823919,0.007794485427439213,-0.004279842134565115,-0.001481556799262762,-0.013942447490990162,-0.0004622867563739419,0.008889379911124706,-0.003475856501609087,0.007150635588914156,-0.0076523725874722,-0.001671740785241127,-0.0026930805761367083,0.0033706098329275846,-0.010776206851005554,0.001699907472357154,0.0012845435412600636,0.004066283814609051,-0.0009488150826655328,-0.011088003404438496,-0.0007164403796195984,0.003279003081843257,-0.0006240925285965204,0.0004775086999870837,-0.003167687216773629,-0.00021372613264247775],[0.001997621264308691,0.002409141045063734,0.0021327186841517687,0.011680887080729008,-0.007710088975727558,-0.003012379165738821,-0.002851065481081605,0.005864239297807217,-0.00195404514670372,0.0035700867883861065,-0.009283415973186493,0.011305611580610275,0.0066030812449753284,-0.004360063932836056,-0.00011238225852139294,0.0017851064912974834,-0.006717366632074118,-0.004383384715765715,-0.0049325842410326,-0.0040846820920705795,-0.0019752264488488436,0.0012745619751513004,0.001585446996614337,0.0036557898856699467,0.00801344309002161,-0.0013009189860895276,0.0036829570308327675,-0.002098745433613658,-0.0036922621075063944,-0.001927983365021646,0.0034132865257561207,-0.00814511813223362,-0.002579836407676339,-0.00860046036541462,0.0020184332970529795,-0.007855518721044064,-0.0077224355190992355,0.0037445444613695145,-0.007686345838010311,-0.0009017856209538877,-0.004112089518457651,-0.005151408724486828,-0.0035896291956305504,-0.0009874694515019655,-0.006108854431658983,-0.0020702085457742214,-0.0031110725831240416,-0.0030303646344691515,-0.0018762275576591492,-0.0028568455018103123,-0.0010240852134302258,0.010311154648661613,-0.00019916746532544494,-0.004924346227198839,0.0005168516072444618,0.008656683377921581,-0.008509893901646137,-0.0074264854192733765,-0.005186115391552448,0.0016661710105836391,0.0007605818100273609,0.006579236127436161,-0.0021626162342727184,0.0012333040358498693,3.804960215347819e-05,0.0030994911212474108,-0.0004013307625427842,0.007193140219897032,-0.012041366659104824,0.0008774688467383385,-0.001063272007741034,0.004703831393271685,0.00810021162033081,0.0017680649179965258,0.005262323189526796,-0.006055016536265612,0.0044602504931390285,-0.00543779693543911,0.0007867104723118246,-0.0060748388059437275,0.0015957317082211375,-0.0004936712794005871,-0.006969756912440062,0.0024681193754076958,-0.003471826435998082,-0.0037904020864516497,-0.00551403034478426,-0.003489537863060832,-0.004404007922858,-0.001733890501782298,0.0012516936985775828,-0.0036067222245037556,-0.0072333598509430885,0.006469374056905508,1.8515651163397706e-06,-0.00106419762596488,0.002105056308209896,-0.007237088866531849,-0.003949873149394989,0.003912569023668766,0.0016694610239937901,-0.0029685799963772297,-0.004985889885574579,0.0005531635833904147,-0.005753029137849808,-0.007625469006597996,-0.007135853171348572,0.0027804155834019184,-5.42047455382999e-05,0.004507917910814285,-0.0032817665487527847,-0.009351348504424095,0.004415262024849653,0.002478966722264886,-0.002702338621020317,0.003701090347021818,0.004678584169596434,0.0036251263227313757,-0.0045156460255384445,0.003327531274408102,0.006669260561466217,0.001156262937001884,-0.005695404950529337,-0.0028688153252005577,0.00138285628054291,0.0010438105091452599,0.005260225385427475,-0.009023808874189854],[-0.004979979246854782,0.002749684266746044,0.004990192595869303,0.003049059771001339,-0.0023441810626536608,0.0055671073496341705,0.004284559283405542,-0.0053773308172822,-0.005093797110021114,-0.00529059674590826,-0.0009913949761539698,-0.008452434092760086,0.007999440655112267,0.0029424128588289022,0.006333332974463701,0.005408023484051228,-0.00045040101394988596,0.0052715628407895565,-0.003670736448839307,-0.004873174708336592,-0.002381369937211275,-0.002968111541122198,0.0069875638000667095,-0.0067672994919121265,-0.015589291229844093,-0.0011341447243466973,-0.004863434936851263,-0.0019268023315817118,-0.0005833146278746426,-0.0004157654766459018,0.002259714063256979,-0.007130517158657312,0.0016165066044777632,0.002128810388967395,0.0008531973580829799,-0.00231528514996171,-0.0012874231906607747,-0.007107428275048733,0.003129128133878112,1.1430789754740545e-06,0.00860683899372816,-0.005297955125570297,-0.0025873971171677113,0.007673530839383602,-0.0015724916011095047,0.011199339292943478,0.00316394935362041,0.00761083560064435,0.005303946789354086,0.006710600107908249,-0.0003509628295432776,-0.0006504794582724571,0.0004807617806363851,0.005104194860905409,0.0003367236931808293,0.0032736605498939753,-0.0008213481632992625,0.00411738408729434,0.0005031234468333423,-0.004458462819457054,0.0007443452486768365,0.0022990722209215164,-0.006118482444435358,0.006273309234529734,-0.002366281347349286,-0.002457033609971404,0.0008606704068370163,0.00020529812900349498,-0.0001906078978208825,0.0084592429921031,0.006329996045678854,-0.0021715168841183186,0.0016668126918375492,0.0019536844920367002,0.0027253148145973682,-0.003958313725888729,-0.001302469172514975,0.0039262790232896805,-0.0021990910172462463,-0.0012735550990328193,0.002373441820964217,-0.009952984750270844,-0.008389118127524853,1.0872750863200054e-05,0.0036535109393298626,-0.00038449029671028256,0.0015814017970114946,0.004655457101762295,-0.007849586196243763,0.00952143594622612,-0.0092769181355834,-0.009569628164172173,-0.007397250737994909,-0.0014575582463294268,0.0025093380827456713,-0.004777973052114248,0.0040947673842310905,-0.0005148908821865916,0.013607515953481197,0.00020247924840077758,0.004597732797265053,0.0013703906442970037,0.0027694718446582556,-0.005964985582977533,-0.0006284356350079179,-0.008262919262051582,-0.004882573150098324,0.0060585420578718185,-0.0006280044908635318,-0.0013682082062587142,0.002405348001047969,0.01494296733289957,-0.0003567167732398957,-0.0016862265765666962,0.017192542552947998,-0.006402832921594381,0.0013231016928330064,-0.002474950859323144,-0.00345962168648839,-0.006511514075100422,0.0018593404674902558,-0.0009514519479125738,-0.0006398017867468297,-0.007092805579304695,-0.008603988215327263,0.002807893790304661,0.0020892175380140543,-0.0019223529379814863],[0.004529999569058418,-0.0003781256382353604,0.002488690661266446,0.004212997388094664,-0.008279306814074516,0.0008629176882095635,-0.0044882637448608875,0.0030106729827821255,-0.0026958012022078037,0.0031719012185931206,0.0007711926591582596,0.00027314084582030773,-0.0034069307148456573,-0.0036479949485510588,0.009229441173374653,0.0004364931082818657,0.0013042772188782692,-0.0008192038512788713,0.0019776104018092155,-0.003657827153801918,0.0038612710777670145,-3.8422364013968036e-05,-0.00794485118240118,-0.001673037768341601,0.009428762830793858,-0.005960586480796337,-0.00014672914403490722,0.004483626689761877,0.0006568985409103334,-0.0020627249032258987,-0.004255165345966816,-0.0005927110323682427,-0.0031667747534811497,0.0036658355966210365,0.0016554283211007714,0.004880683496594429,-0.0021786848083138466,0.002448195358738303,0.0026478474028408527,0.004058566875755787,0.012816259637475014,-0.0064573646523058414,-0.002333449898287654,-0.0009361428092233837,-0.006897196639329195,0.008969523943960667,-0.0012851268984377384,0.0008428468718193471,-0.007223480846732855,0.001821639365516603,0.0062324474565684795,0.0005269030225463212,-0.0021065049804747105,-0.0037053520791232586,-0.0004225941956974566,-0.0025408072397112846,-0.00026782197528518736,0.0063835796900093555,-0.00088611023966223,-0.0022260292898863554,0.0002627126523293555,0.0021515702828764915,-0.00506582111120224,-0.008321955800056458,-0.004018863197416067,0.007555753458291292,-0.001882197568193078,0.003358151763677597,0.008700673468410969,0.007210184819996357,-0.006964245345443487,0.0009826218010857701,-0.0068632387556135654,-0.0003815879754256457,0.0005514273070730269,-0.0012421507854014635,0.00026612664805725217,-0.0035722891334444284,0.0073636798188090324,0.0023506481666117907,-0.00046473523252643645,0.0076836575753986835,0.005838869605213404,0.00027403535204939544,0.0025164715480059385,-0.0035942152608186007,-0.002598836086690426,-0.005341614130884409,0.005673956125974655,0.0042708925902843475,0.0025180417578667402,0.0073361690156161785,0.0015709500294178724,-7.289587665582076e-05,0.0013755594845861197,-0.005829099100083113,-0.0027957784477621317,0.0016152492025867105,0.008044284768402576,-0.000359013385605067,0.003079057205468416,-0.0003534831921570003,-0.00672340439632535,1.3432849300443195e-05,-0.010726327076554298,-0.0015833006473258138,-0.0034033607225865126,-0.001944631221704185,0.004323969129472971,-0.009045573882758617,0.004472991917282343,0.011725297197699547,-0.002569460077211261,-0.003062270116060972,-0.006412650924175978,-0.002365831285715103,-0.005099030211567879,0.002105258172377944,0.0038590531330555677,0.009029615670442581,-0.0007189196767285466,-0.007632262539118528,0.003227890469133854,-0.00581227894872427,0.005273503717035055,-0.002318651182577014,0.0071172574535012245,-0.0005658943555317819],[-0.0020990269258618355,-0.002268871758133173,-0.0022806276101619005,-0.002100556157529354,-0.0009612473659217358,0.004080681130290031,-0.004826891236007214,0.0015134033747017384,0.0022436045110225677,0.00022123460075818002,-0.0012460165889933705,0.0012923612957820296,-0.012397374026477337,0.0035542200785130262,-0.011185338720679283,0.006981914862990379,-0.006081622093915939,-7.26297075743787e-05,-0.0037778206169605255,-0.008488724939525127,-0.001514698495157063,0.00679139606654644,-0.0026862805243581533,0.009771859273314476,0.0027300328947603703,0.00517995236441493,0.0008779103518463671,-0.0028822736348956823,-0.006276750471442938,-0.0019390356028452516,-0.0034030433744192123,0.0010266172466799617,0.0041803112253546715,-0.002420627512037754,-0.005813489202409983,-0.0022540483623743057,-0.004522120114415884,0.0011144698364660144,0.004649572540074587,-0.003493855008855462,-0.0062984684482216835,0.004327464383095503,0.0044683050364255905,-0.003334138775244355,0.012246634811162949,0.00038840132765471935,0.006676977965980768,0.001761101302690804,-0.002823174698278308,0.003742506029084325,-0.00807267241179943,-0.009517446160316467,0.004168523941189051,0.003859118791297078,0.00267259799875319,-0.0006266645505093038,-0.004678678698837757,-0.006689179688692093,0.0011592981172725558,0.007046717684715986,-0.0022901277989149094,0.006149613298475742,-0.0050448402762413025,-0.0035940867383033037,-0.0012819748371839523,-0.0014431042363867164,0.009019257500767708,-0.004903913475573063,0.00277662742882967,0.00025582415401004255,-0.0013185314601287246,0.0008873715996742249,1.710728247417137e-05,0.0045422157272696495,-0.007608639542013407,0.00449418555945158,-0.001435307553038001,0.004456184338778257,0.004151742905378342,0.00616107601672411,0.004158478695899248,0.00536965299397707,0.007536738645285368,-0.00422327546402812,0.0036034113727509975,0.00479817995801568,-0.0010274661472067237,-0.00796867161989212,-0.00833712238818407,0.0018327150028198957,-0.0010135426418855786,-0.006149823311716318,0.009903782978653908,-0.0017792114522308111,0.001216533244587481,-0.0035041216760873795,-0.007284711580723524,4.209492544759996e-05,-0.008522270247340202,-0.00317698554135859,0.006428760942071676,-0.0018197750905528665,-0.0004232446663081646,-0.004875280894339085,-0.004033179022371769,-0.004838963039219379,-0.006657730787992477,-0.0029046509880572557,-0.004210513550788164,-0.006916817743331194,-0.0015323065454140306,0.001917441375553608,0.0033605340868234634,-0.005153138190507889,0.005678496789187193,-0.003400200977921486,-0.00294781313277781,0.0006822949508205056,-0.003411619458347559,0.005104453302919865,-0.0047216336242854595,0.0031088117975741625,0.0032061324454844,0.0004278892884030938,-0.011843702755868435,-0.0037436780985444784,-0.006237412337213755,-0.004468664526939392],[-0.0012434085365384817,0.0016061256173998117,-0.0048995171673595905,-0.003137618536129594,0.0009538049926050007,0.007984813302755356,0.004215357359498739,0.005391519051045179,-0.0018144099740311503,0.0063331397250294685,0.0024681715294718742,-0.0052133165299892426,0.005451710429042578,0.0024114330299198627,0.002917749574407935,0.0026962915435433388,0.00362227251753211,0.0010580067755654454,0.007295061368495226,-0.004155310336500406,0.0018649321282282472,0.0042520612478256226,0.0017147265607491136,-0.008842073380947113,0.003401042427867651,-0.0032896155025810003,0.0036921058781445026,-0.0011699910974130034,-0.0015467971097677946,0.0028708830941468477,-0.0037031671963632107,-0.0006854605744592845,0.003291544271633029,-0.00023492756008636206,-0.008543151430785656,-0.0009447713964618742,-0.004680570214986801,-0.0018321179086342454,0.0008116107783280313,0.0010511636501178145,0.0032838555052876472,0.007131094112992287,0.0016561612719669938,0.0017004729015752673,-0.0075048296712338924,-0.008248175494372845,-0.005273895338177681,-0.0010116853518411517,0.00941837951540947,-0.006836815271526575,-0.004085571505129337,0.0002602152235340327,0.0009333298658020794,0.004308028146624565,0.0008681737235747278,-0.005124294199049473,-0.007928450591862202,0.002557063242420554,-0.0020367924589663744,0.01170386653393507,-0.0004645798180717975,-0.0020850985310971737,-0.0007402439368888736,-0.003383913077414036,-0.004862226080149412,0.0027518875431269407,-0.0010803425684571266,0.003066286211833358,-0.0010317746782675385,0.005024479702115059,0.0023648873902857304,0.0007691150531172752,0.006387421395629644,0.0023682250175625086,0.0024173264391720295,-0.006603847723454237,0.002245674142614007,0.0071410140953958035,0.0006553897983394563,-0.0025875126011669636,0.0037550772540271282,-0.0029256881680339575,0.000897484365850687,-0.00023539448739029467,0.00469214515760541,0.0018490550573915243,-0.0035607153549790382,0.006184825673699379,0.0053793927654623985,-0.003257078118622303,0.008762804791331291,0.006222242955118418,-0.005333589855581522,0.0009058123105205595,-0.003750877222046256,0.0004363013431429863,-0.0011910883476957679,0.003064032644033432,0.0023493224289268255,-0.0003278942604083568,-0.0016719038831070065,0.0034911660477519035,-0.0009337870287708938,-0.006560861133038998,0.0024136709980666637,0.0020478840451687574,0.008760903030633926,0.0013873233692720532,-0.0002628553193062544,-0.002200667979195714,-0.0010936612961813807,0.003661855822429061,-6.680118531221524e-05,-0.00010430988186271861,-0.0020763014908879995,-4.6357356040971354e-05,0.0034317735116928816,-0.0040478892624378204,0.005117401480674744,-0.005027875769883394,-0.00035170375485904515,0.007654031738638878,0.0016847449587658048,-0.001037436188198626,-0.008910042233765125,-0.006312054581940174,-0.0008574516396038234,0.005589398089796305],[-0.008735680021345615,0.000797754677478224,-0.001760078244842589,0.012923556379973888,0.005485642235726118,-0.005665246397256851,-0.002986661158502102,-0.006678408943116665,0.0026689693331718445,-0.0013215010985732079,-0.00561833381652832,0.0016397404251620173,0.00048036634689196944,0.0022059930488467216,-0.005554890725761652,0.0017817713087424636,0.0005410125595517457,-0.0039778356440365314,-0.0040397197008132935,0.005941756535321474,-0.000629114918410778,-0.0034617148339748383,0.0033988389186561108,0.0003919615992344916,0.003154273610562086,0.009182319976389408,-0.0013607237488031387,0.00028835205012001097,0.002884527202695608,0.0022811105009168386,-0.0033409460447728634,-0.0013675752561539412,0.0027548454236239195,-0.000484278192743659,-0.00018350679602008313,0.000560921966098249,0.001227099448442459,0.006564202718436718,-0.0031469964887946844,0.0027911909855902195,0.0023339895997196436,-0.004681253340095282,-0.0033375751227140427,0.00031516814487986267,0.007785128895193338,0.0033081246074289083,-0.004955388605594635,0.0052919890731573105,-0.011211253702640533,0.0035836005117744207,-0.002980866003781557,-0.0005376221961341798,-0.003816724754869938,-0.007261394057422876,-0.004358332604169846,0.008403138257563114,0.002901320345699787,-0.0027324038092046976,0.0012904551113024354,-0.02117292955517769,-0.00099733576644212,-0.0004903884255327284,-0.009145715273916721,0.0014603129820898175,0.0020953489001840353,0.0032863663509488106,-0.005703458562493324,0.001070844940841198,-0.0034462627954781055,0.0011665364727377892,0.006798024754971266,-0.0006223873933777213,-0.0013053385773673654,0.0011903684353455901,-0.007859593257308006,0.0010124658001586795,-0.0022880847100168467,-0.0003910794039256871,0.007416411768645048,-0.006065411493182182,-0.0010357758728787303,-0.003233579685911536,-0.012017480097711086,-0.0032050255686044693,-0.006198548246175051,0.007235191762447357,0.0051514580845832825,0.0017002354143187404,0.004174642264842987,0.008173971436917782,0.008447617292404175,-0.0008009340381249785,-0.002427308354526758,-0.0009085332276299596,0.006411968730390072,0.0058930860832333565,-0.007729729637503624,-0.0062085906974971294,0.006558683235198259,0.002714368747547269,-0.007255303207784891,-0.010633466765284538,0.0013112720334902406,0.002452828222885728,-0.0015451855724677444,-0.0014663427136838436,0.0006570150726474822,-0.002063977997750044,-0.005858117248862982,-0.0036062346771359444,0.0057412367314100266,0.0053393240086734295,0.004146394319832325,-0.0013943066587671638,-0.006219369359314442,-0.008437755517661572,0.006450061220675707,-0.003214325290173292,0.0013113771565258503,0.004942193627357483,0.009887207299470901,0.00384514476172626,-0.004846320953220129,-0.00362494052387774,0.010967187583446503,-0.0035876412875950336,0.006751005072146654,0.004695936571806669],[0.005956192966550589,0.005417345557361841,-0.0025109441485255957,-0.011979571543633938,-0.005786596797406673,-0.01253865659236908,-0.0034921106416732073,0.0059792702086269855,0.0017744489014148712,-0.005665038712322712,0.002529784804210067,0.001371673890389502,0.00863803829997778,-0.006480419542640448,-0.01205433439463377,0.008989888243377209,0.0006242083618417382,0.003902481636032462,-0.0028805870097130537,-0.004117527045309544,-0.0038208365440368652,-0.00022099162742961198,-0.0039757597260177135,0.003690369427204132,-0.0029430591966956854,-0.009778718464076519,0.0024232538416981697,0.004262890666723251,-0.004974696785211563,-0.003307925770059228,-0.0044479225762188435,-0.006279997061938047,-0.0001468366099288687,0.006092039402574301,0.005195577163249254,-0.0008176082628779113,0.0010351178934797645,0.008242236450314522,-0.002894741017371416,-0.00028286612359806895,-0.0016405046917498112,-0.0015769618330523372,0.0014736010925844312,0.0037609334103763103,0.002510021673515439,-0.006464547943323851,-0.007795591838657856,0.0069458214566111565,0.0027986953500658274,0.0006058661383576691,-0.007397508714348078,-0.0008483268902637064,0.0019105735700577497,-0.0022533878218382597,0.0052847485058009624,0.0015632454305887222,0.0010454508010298014,0.00018364598508924246,0.00172510021366179,0.0005167641793377697,0.0005885772407054901,0.0009613653528504074,-0.0039046849124133587,-0.008323771879076958,0.002921454608440399,0.00020998957916162908,-0.006795084569603205,-0.0014834225876256824,0.005213079042732716,0.005203919485211372,0.004261672031134367,-0.0010935688624158502,0.00016033444262575358,0.005106993485242128,-0.0007365489727817476,0.0007776093552820385,0.00031203823164105415,0.004413195885717869,0.0033987383358180523,0.00010017380554927513,-0.0014539883704856038,0.001527689746581018,0.00011760672350646928,-0.005874886643141508,-0.0029133243951946497,-0.0009269120637327433,-0.00843979325145483,0.00364442216232419,0.00140449870377779,0.0025562169030308723,0.007677169982343912,-0.005796948913484812,-0.009902853518724442,-0.0025886455550789833,-0.000809064949862659,0.00046382282744161785,-0.0019277858082205057,-0.002222319832071662,0.0032653764355927706,0.0004029801348224282,0.007105178199708462,0.005210020113736391,0.014641585759818554,-0.005579689517617226,-0.006065532099455595,0.002073021372780204,0.0066746799275279045,-0.009335576556622982,-0.0036539146676659584,0.0013865510700270534,0.0025316844694316387,0.011280862614512444,-0.005082688294351101,-0.004156069830060005,-0.0030428047757595778,0.006254867650568485,0.004152670502662659,0.0003941933682654053,-0.0003430684155318886,-0.008465196006000042,-0.002456787507981062,-0.003094353247433901,0.0017220438458025455,0.0023100555408746004,-0.009381841868162155,0.001200078404508531,-0.016325831413269043,0.0016797733260318637],[0.0007548584253527224,-0.0028352048248052597,-0.006277062930166721,-0.011742615140974522,-0.0013819168088957667,0.0030226244125515223,0.004115019924938679,-0.0033757633063942194,0.004044989589601755,0.0017995706293731928,0.0003545821236912161,-0.0002873841440305114,0.007227638270705938,-0.007452304940670729,0.004858119413256645,-0.0026851091533899307,0.0005074923974461854,-0.0009608098771423101,0.002869024407118559,-0.00021304127585608512,-0.00671024015173316,0.0006469659856520593,-0.002905793022364378,-0.007196896709501743,0.008829981088638306,-0.0019795550033450127,0.0011406561825424433,0.006151752080768347,-0.00515941483899951,-0.002340056234970689,-0.004878877196460962,-0.003719472559168935,0.0026352303102612495,0.005171612836420536,-0.006927649024873972,0.007330138701945543,-0.00367716234177351,-0.007255285046994686,0.0019403365440666676,0.005202835891395807,-0.0031403801403939724,0.0014667367795482278,-0.0018905911128968,0.003919882234185934,-0.0049644955433905125,-0.00124956329818815,-0.0006667712004855275,0.0022899648174643517,-5.673287159879692e-05,-0.007394273299723864,-0.008009650744497776,-0.0018397793173789978,4.3894931877730414e-05,0.005351506173610687,-0.0002850549353752285,-0.004242459312081337,0.002602730644866824,-0.010221942327916622,0.005541503895074129,0.006158596370369196,0.005881279241293669,0.0014698036247864366,-0.009705533273518085,-0.0020413354504853487,-0.0033264225348830223,0.003124410519376397,0.0025278639513999224,-0.003392217680811882,-0.004328935872763395,-0.0010770420776680112,0.007226404268294573,-0.0020771112758666277,2.0597248294507153e-05,0.00045193760888651013,-0.007196927908807993,0.0017230308149009943,0.00016376256826333702,0.0018052749801427126,0.001363220508210361,0.0008264488424174488,0.006823873147368431,0.0021231588907539845,-0.0012613366125151515,-0.0001743191241985187,0.002039278158918023,0.009972075931727886,-0.0012863859301432967,0.002880027750506997,-0.0034762558061629534,-0.002844596514478326,-0.0037487416993826628,0.0075011225417256355,0.009076868183910847,0.0013163283001631498,0.00964108482003212,0.000867940834723413,-0.0022603205870836973,-0.005148481577634811,0.002732329536229372,0.001174099394120276,-0.004137592855840921,0.0010660933330655098,-0.00020738881721626967,0.0031430749222636223,-0.002103061182424426,0.003694619284942746,-0.0044715688563883305,-0.0007172952173277736,-0.0001993183104787022,-0.008267264813184738,0.00039353594183921814,0.007876366376876831,-0.0006792626227252185,-0.00701780803501606,-0.0008624360198155046,-0.003248313209041953,0.0016612726030871272,0.0047643957659602165,-0.004208514932543039,-0.006297451443970203,4.83646072098054e-05,-0.000567555078305304,0.0001309978251811117,0.0018938404973596334,0.0030219745822250843,-0.00024873940856195986,-2.771176332316827e-05,0.009921526536345482],[0.00642036460340023,0.000507705204654485,-0.0040979585610330105,-0.0035884473472833633,-0.007526073604822159,0.0007226471207104623,0.01171870343387127,0.010741774924099445,-0.0046194554306566715,0.003000643802806735,0.0056450096890330315,-0.0017308329697698355,-0.0039285700768232346,-0.0017141709104180336,0.0007221525302156806,0.001479842234402895,-0.0024577209260314703,-0.0028983589727431536,-0.0020776046440005302,-0.002918743761256337,0.00189690210390836,-0.000579914019908756,-0.005401426926255226,-0.002571957651525736,0.004708353895694017,0.0051958318799734116,-0.000583891524001956,0.005411629099398851,-0.00275176833383739,-0.0031295467633754015,0.000681414850987494,-0.003494937438517809,0.0009417306282557547,-0.0005149839562363923,-0.004093148745596409,0.0029774887952953577,0.0008601220324635506,0.005481067579239607,0.0032303158659487963,-0.004542941227555275,0.008175844326615334,-0.008610468357801437,-0.0007033121073618531,-0.0022369578946381807,-0.007118530105799437,0.006230158731341362,0.001648019184358418,6.898135325172916e-05,0.013457621447741985,0.005441069137305021,2.9650905162270647e-06,-0.0034265180584043264,-0.001436149119399488,0.007222571410238743,-0.0013060813071206212,-0.00765755632892251,0.0035156034864485264,0.002619968494400382,-9.796112135518342e-05,0.011174092069268227,-0.0015576299047097564,-0.0030664890073239803,-0.0010676335077732801,0.00019475964654702693,-0.00268104812130332,0.0032951298635452986,0.0012052013771608472,-0.0018644836964085698,-0.004916856996715069,0.0048975334502756596,-0.0016890688566491008,0.005156579427421093,-0.004638791549950838,0.002843090333044529,0.0047722989693284035,0.001189909060485661,0.005874916445463896,0.005210672039538622,0.0018172351410612464,-0.0024870363995432854,0.0008865199633873999,-0.0023449305444955826,0.008272347040474415,0.0007623105775564909,-0.0009738242370076478,0.0003277611976955086,-0.0035164037253707647,-0.0005893793422728777,0.007423758506774902,-0.0002824222028721124,0.007820998318493366,0.010795696638524532,-0.0019261923152953386,-0.0018274796893820167,-0.0023307367227971554,0.0006859436398372054,-0.0020171888172626495,0.004300331696867943,0.0016719372943043709,0.0007825047359801829,0.0005639219307340682,0.003601085627451539,-0.005981561727821827,-0.006377916317433119,-0.002117452910169959,-0.0015341452090069652,0.005245641339570284,0.0024929416831582785,0.0035027479752898216,0.003799720900133252,0.0007147822761908174,-0.008743315935134888,0.007067709229886532,-0.0010904308874160051,-6.501279131043702e-05,-0.001209537498652935,0.01325569674372673,0.0010245911544188857,0.002273627556860447,0.0013447096571326256,-0.001282631536014378,-0.005185115151107311,-0.006270658224821091,0.0007112209568731487,-0.012169932946562767,0.0011041394900530577,0.001595124020241201,0.002735427813604474],[0.007130736019462347,-0.0022865564096719027,-0.008359885774552822,-0.005398410838097334,0.00891532376408577,0.0034193028695881367,0.0073365941643714905,7.835881115170196e-05,-0.002374472562223673,0.00017492995539214462,-0.0018501377198845148,0.002773691900074482,-0.0037708147428929806,-0.0021776019129902124,0.004474202170968056,0.0018149538664147258,0.0030741984955966473,0.006783801596611738,-0.003298444440588355,0.00276813842356205,-0.003216071520000696,-0.004739176947623491,0.002412243280559778,0.00662963418290019,0.0025922260247170925,-0.009865953586995602,-0.00038863171357661486,0.0009384103468619287,-0.0029782108031213284,0.0010996743803843856,0.00855595525354147,-0.00016651958867441863,-0.0005726101226173341,0.005881204269826412,7.847102824598551e-05,-0.0007644621655344963,-0.0007460973574779928,-0.004592893645167351,0.0004817182198166847,-0.002140204655006528,-0.004555972758680582,-0.007357646245509386,-0.002850382588803768,0.0006393109215423465,-0.007326613180339336,-6.360415227391059e-06,0.002427493454888463,-0.0038390522822737694,-0.0022238800302147865,-0.0007873824215494096,-0.000151454281876795,-0.003275421215221286,0.004249812103807926,0.0007910282583907247,-9.29740781430155e-05,-0.0013361856108531356,2.6489011361263692e-05,0.006542984861880541,0.0011713976273313165,0.010304964147508144,-0.0034799480345100164,0.0017915336648002267,0.004257950931787491,0.004269714001566172,-0.0022893217392265797,0.004333909600973129,0.004229974001646042,-0.00014967314200475812,-0.002318008104339242,-0.0020633507519960403,0.0026056491769850254,-4.9624883104115725e-05,-0.0027831103652715683,-0.0024790549650788307,0.0021546536590903997,0.0031808929052203894,0.0002367837296333164,-0.0003338256210554391,0.0004441772180143744,0.0035899842623621225,0.0023387372493743896,0.002630502451211214,0.0016704555600881577,0.0006404086598195136,0.002000189619138837,0.002958622295409441,0.001935076666995883,0.004334575962275267,0.0026009732391685247,-0.004727403167635202,-0.0022831326350569725,0.002356987912207842,-0.0043919887393713,0.0016925656236708164,0.0004743530007544905,-0.001295558293350041,0.008199669420719147,0.003638459835201502,-0.00024109857622534037,-0.002855677856132388,0.0029193703085184097,0.00388153619132936,0.010678600519895554,0.00014732083946000785,0.006323155481368303,-0.004998006392270327,-0.003312337212264538,0.00043205986730754375,-0.0028550804127007723,-0.01064982358366251,0.0023290086537599564,-0.0003759262035600841,-0.002820962341502309,0.003259288612753153,-0.009262338280677795,-0.006235896609723568,-0.013347160071134567,0.0008815989131107926,0.0045479098334908485,0.012157279998064041,0.0022371357772499323,-0.003471443196758628,-0.008235850371420383,0.0021413606591522694,0.003561733989045024,0.0020284277852624655,-0.0022523871157318354,-0.006631535477936268],[0.0017680944874882698,-0.0009105026256293058,-0.0076519702561199665,-0.011202886700630188,0.004910250660032034,-0.003800795879215002,-0.010906079784035683,-0.006009368225932121,0.01132589764893055,0.002877966035157442,-0.00029874543542973697,-0.006542452145367861,-0.0030976752750575542,-0.0034518891479820013,-0.00018341143731959164,-0.0011976576643064618,0.0094911465421319,-0.009155649691820145,-0.0043821027502417564,0.003392221638932824,0.001314307446591556,0.0011785541428253055,-0.0025780699215829372,0.0009641011711210012,-0.010340269654989243,0.014213756658136845,-0.0002414042828604579,-0.004344434477388859,-0.0030673835426568985,0.0021668029949069023,0.0006702709360979497,0.0057166144251823425,-0.0009718472720123827,-0.0020630091894418,0.0068685272708535194,0.004251249600201845,-0.001976016443222761,-0.006736384239047766,0.0009604248916730285,0.0025649722665548325,0.00010460588964633644,0.0029279934242367744,0.0016859413590282202,-0.0010625452268868685,-0.011199422180652618,-0.0024349119048565626,0.0010206288425251842,-0.003917224705219269,-0.0008535482920706272,0.006504493299871683,-0.008564500138163567,-0.005027995444834232,0.0019133667228743434,-0.008783797733485699,0.00601023156195879,-0.007094286847859621,0.0006258617504499853,-0.003423739690333605,0.007160922512412071,0.010914306156337261,-0.00504583353176713,-0.0025166082195937634,0.00543659832328558,0.003402942093089223,-0.006238290574401617,0.001845211023464799,-0.001597957219928503,-0.0025119995698332787,-0.011829853057861328,0.004015511367470026,-0.009657390415668488,-0.003475629724562168,0.0043884762562811375,0.0015715128974989057,-0.0029885100666433573,0.005329598672688007,0.0007666866295039654,0.002981069963425398,0.007674569264054298,0.004671195521950722,0.0050618601962924,0.004158312920480967,-0.00021085288608446717,-0.007361900061368942,0.0019258771790191531,-0.006686834152787924,-0.000209281308343634,-0.004951723851263523,0.001064850832335651,-0.0016692964127287269,0.0001968516589840874,0.0005608794745057821,-0.0035691657103598118,-0.0009177060564979911,0.0006435969844460487,0.001210085698403418,-0.008063556626439095,-0.0011760378256440163,-0.002052967669442296,8.16576648503542e-05,0.009311887435615063,0.001982299843803048,-0.004909848794341087,0.0012444836320355535,-0.002943403320387006,0.004763326141983271,0.002564199035987258,0.004999957978725433,0.002650461858138442,-0.0010613994672894478,0.002518858527764678,0.00047782561159692705,0.00496293418109417,-0.0042542628943920135,0.0013624518178403378,-0.004214481450617313,0.013684315606951714,0.010561542585492134,-0.0007791688549332321,0.006267910823225975,-0.000541379617061466,0.004524154122918844,0.008082720451056957,0.003980676643550396,0.006044588517397642,-0.0018288037972524762,0.00990946777164936,-0.000861994456499815],[-0.00563589995726943,-0.0007703807787038386,0.005692935083061457,-0.006230685859918594,0.0017386114923283458,0.0035707878414541483,-0.0014053666964173317,0.010253982618451118,0.00855994876474142,-0.0017357085598632693,-0.003980967681854963,0.0016661961562931538,0.004882579203695059,0.0015332330949604511,0.0031891879625618458,-0.0016817899886518717,-0.00211086287163198,-0.0029514229390770197,0.004740559495985508,0.0022583480458706617,-0.0016969467978924513,-0.0022729753982275724,-0.0016111695440486073,-0.00033625433570705354,0.0006222441443242133,-0.011984468437731266,0.0005334553425200284,0.001698946813121438,-0.0030066168401390314,0.003167541464790702,-0.010054409503936768,0.0018222377402707934,0.00021025199384894222,-0.003176136640831828,-0.00200998829677701,0.0010609379969537258,-0.006310478318482637,-0.002830875338986516,0.002151262480765581,0.0030029932968318462,0.0027597080916166306,0.004199857823550701,-0.0014621168375015259,-0.0011922549456357956,-0.0017463263357058167,-0.0014584390446543694,0.0025787311606109142,0.007777825463563204,-0.002103326842188835,0.0013635125942528248,-0.004592437297105789,0.007730395998805761,-0.0014845867408439517,-0.0011823782697319984,-0.00063252670224756,1.622674426471349e-05,-0.0028091473504900932,-0.00037120614433661103,0.007643408142030239,-0.002345993649214506,0.0014084101421758533,0.002042187610641122,-0.0046489485539495945,0.0027543206233531237,0.0013772017555311322,-0.002449638210237026,0.003159867599606514,-0.004182360600680113,0.0054106623865664005,0.0018778981175273657,0.012356807477772236,0.0006663199746981263,-0.0021450959611684084,-0.003245479427278042,-0.007870894856750965,-0.0004797252477146685,0.00425162585452199,0.007863362319767475,0.00889959093183279,0.004665064625442028,-0.003850368084385991,-0.009204912930727005,0.008495946414768696,0.0010414394782856107,-0.004712534602731466,0.0002650771930348128,0.0006269715959206223,0.0010736780241131783,-0.0008585104369558394,0.0027910599019378424,0.009330473840236664,-0.0007661168929189444,-0.01137768104672432,-0.0005356936599127948,-0.0004423822683747858,-0.002022957894951105,0.0004826559161301702,0.004385654348880053,0.002386061241850257,0.0007622198318131268,-0.0014431390445679426,0.0011197288986295462,0.004560749977827072,-0.003563280450180173,0.007092055398970842,-0.00404009222984314,-0.0012630041455850005,0.000718930852599442,0.0029164860025048256,-0.010312830097973347,0.0035091873724013567,0.001752375508658588,-0.0009089317754842341,0.0006522100884467363,0.0006307433359324932,-0.004090156406164169,0.0013375179842114449,-0.00655935937538743,-0.0023945868015289307,0.005272380076348782,0.0019948126282542944,-0.005592570640146732,-0.00713106757029891,0.003128078067675233,0.008825244382023811,0.003162706270813942,-0.006808110978454351,-0.003265976207330823],[0.007816837169229984,-0.0015251642325893044,0.005376534536480904,0.011294016614556313,0.013817443512380123,-0.0007866788655519485,-0.01459950115531683,0.0011600591242313385,-0.00047907608677633107,0.0016830809181556106,0.0022843999322503805,0.0019509138073772192,0.0005163882742635906,0.0030692899599671364,0.0009734134073369205,-0.0008252685656771064,-0.0004197533999104053,0.004905545152723789,-0.007049802225083113,-0.004471484571695328,-0.0024904687888920307,-0.003154656384140253,0.002002855995669961,-0.004052917938679457,-0.0013448824174702168,0.0012892491649836302,0.0005202039028517902,-0.0028357594273984432,-0.0042624869383871555,0.00217484962195158,-0.00264865905046463,0.0025125988759100437,0.0017562886932864785,-0.005332328844815493,-0.006517284084111452,-0.0040975334122776985,0.000553763413336128,-0.004251203034073114,-0.002406799467280507,-0.0001348892110399902,-0.005385404918342829,0.0077302176505327225,-0.00130122946575284,0.0017218567663803697,0.009503764100372791,0.008236685767769814,-0.002639786573126912,-0.001832434325478971,-0.0026936500798910856,0.0020697764120996,-3.766376539715566e-05,0.00828220508992672,-0.002639645943418145,-0.00706669082865119,0.005042237229645252,0.0035921891685575247,-0.005164798814803362,0.003436377504840493,0.0012879385612905025,-0.0028541658539325,-0.0027745161205530167,-0.005365788005292416,-0.004903281107544899,0.0013509778073057532,0.001836608862504363,-0.0030148362275213003,0.0016869184328243136,-0.0063434480689466,0.004594953265041113,0.0022076484747231007,0.005203657783567905,-0.0006974044372327626,0.0023832046426832676,0.00029915693448856473,0.005929058883339167,0.003270783694460988,-0.0030159896705299616,-0.0033365036360919476,-0.0079557616263628,0.0016995202749967575,-0.0008297090535052121,-0.0015964473132044077,-0.0021605382207781076,-0.002217218978330493,0.0001851908746175468,0.004058327060192823,-0.007104874588549137,0.005436542443931103,-0.0019138477509841323,-0.0031672411132603884,0.008253471925854683,-0.008859182707965374,-0.0077552590519189835,-0.004158475901931524,-0.0047159637324512005,0.00294835795648396,0.0023538623936474323,0.0010165127459913492,0.0046896315179765224,-0.00010652530181687325,-0.004679667763411999,-0.0006942989421077073,-0.0031361763831228018,-0.01578541286289692,0.006276391912251711,0.004007791168987751,0.006239794194698334,-0.0029809174593538046,-0.0025408007204532623,-0.00572409899905324,-0.0001788573426892981,0.0021889342460781336,-0.0039559900760650635,-0.004020023625344038,-0.005453241989016533,0.00016735678946133703,0.010242932476103306,-0.002863883273676038,-0.0014700801111757755,0.006880586966872215,-0.0036690696142613888,-0.0013272500364109874,-0.001815888681448996,0.00028656612266786397,-0.0028487900272011757,-0.003470164258033037,0.0007395041175186634,-0.0028022639453411102],[0.006168555933982134,-0.0034739593975245953,0.010860204696655273,-4.854390135733411e-05,-0.0027747254353016615,-0.0015453381929546595,0.00020394657622091472,0.0001565866550663486,-0.0018370929174125195,0.005991388112306595,0.0058780875988304615,-0.001906600664369762,0.006256864871829748,-0.0012340679531916976,0.004762029275298119,-0.002556038787588477,0.00028913634014315903,-0.004942876752465963,0.005616381298750639,-0.005104123614728451,0.0008627403876744211,-0.005417952314019203,0.002161160809919238,-0.0030859941616654396,0.006673842668533325,0.0032609193585813046,0.006442959886044264,-0.0007878032047301531,0.006626056507229805,-0.002832067897543311,-0.00036051537608727813,0.0028666192665696144,-0.0005443177069537342,-0.004178484436124563,-0.00403441209346056,-0.0021280895452946424,-0.0015570053365081549,0.0049403999000787735,0.0013863061321899295,-3.357369132572785e-05,-0.0005712326965294778,-0.001395694212988019,0.0015985561767593026,0.0022853445261716843,0.006166007369756699,-0.002096104435622692,-0.004144114442169666,-0.0011234363773837686,0.012127640657126904,0.0060281516052782536,0.005590051878243685,0.004993571899831295,0.006381975952535868,0.009913221001625061,-0.005377127323299646,-0.0018246420659124851,0.006157450843602419,-0.009418446570634842,0.0011196732521057129,0.0013641862897202373,0.00029818533221259713,-0.0008638384169898927,0.005554066505283117,0.0025947196409106255,-0.0027490248903632164,0.0016463350038975477,-0.003738491563126445,-0.004262417089194059,-0.007484850473701954,-0.0016403654590249062,-0.0035189951304346323,-0.0030161079484969378,0.0003673868777696043,-0.002003478817641735,0.005294893868267536,-0.003574296599254012,0.0008862434769980609,-0.00073445268208161,0.012103719636797905,-0.005137340631335974,0.003260929835960269,0.000341683131409809,0.004286913201212883,0.0027446546591818333,-0.0016528216656297445,0.0023383258376270533,0.0003560178738553077,0.003887797240167856,-0.0010179240489378572,0.006026268471032381,0.007314593531191349,0.0036441804841160774,0.0022833968978375196,-4.67213467345573e-05,0.0008390189032070339,0.001370196114294231,0.009018071927130222,-0.0008194830734282732,-0.0027857529930770397,0.0004930236027576029,0.0012139490572735667,-0.004595083184540272,-0.006376642268151045,-0.0018302204553037882,0.0018052045488730073,-0.0023999048862606287,-0.00020987239258829504,0.001768382964655757,-0.0018638019682839513,-0.005169478710740805,0.003864971688017249,-0.0044775670394301414,-0.0003639910137280822,-0.0014539840631186962,-0.002762182615697384,0.0006023158202879131,0.019627898931503296,0.002250643214210868,0.007222807500511408,0.002324548549950123,-0.003922232426702976,0.008768088184297085,-0.002128301188349724,-0.0009549370734021068,0.006445264909416437,0.0023743866477161646,-0.0050759403966367245,0.00015957874711602926],[-0.008769555017352104,-0.002015611156821251,-0.009272189810872078,0.005049641709774733,0.004226775839924812,0.002671190071851015,0.00281254923902452,-0.00010346613271394745,-0.005621589720249176,0.004851001314818859,-0.004570175427943468,0.0034100681077688932,-0.004301977343857288,0.0038002703804522753,0.0003274566843174398,0.0032850762363523245,-0.003959163557738066,0.0010028448887169361,0.004864788148552179,-0.004518016707152128,-0.0022648172453045845,-0.004819755908101797,-0.0026878181379288435,-0.009434385225176811,-0.0006373830256052315,-0.003049802267923951,-0.005566369742155075,0.0015554196434095502,0.003785409266129136,-0.0046352967619895935,-0.004253101069480181,0.0013306037290021777,0.0016745334723964334,-0.0004606888978742063,-0.005526599939912558,0.000811524863820523,0.002922534244135022,-0.007439863868057728,-0.006088860798627138,-0.003511211136355996,-0.0004429341643117368,-0.0046777185052633286,-0.0016378071159124374,-9.565280197421089e-05,-0.016504403203725815,0.009272705763578415,-0.0010939538478851318,0.0048331995494663715,-0.00398474233224988,-0.008606852032244205,0.004030563868582249,0.0020531537011265755,0.010189215652644634,0.0031192044261842966,0.0035064949188381433,0.00596572645008564,-0.0014338105684146285,0.004361513536423445,-0.008046901784837246,-0.008475126698613167,-0.0007323632598854601,0.0026834863238036633,-0.003329722210764885,0.006555361673235893,0.00036478141555562615,-0.0012221424840390682,0.002154769143089652,0.0019536579493433237,0.0071202837862074375,0.003378291381523013,-0.011456684209406376,-0.0012627039104700089,-0.004264194518327713,0.00045575370313599706,-0.004608274437487125,-0.0007745648617856205,-0.0017046526772901416,-0.005560917314141989,-0.0049951812252402306,0.0010159948142245412,0.0035138651728630066,-0.00022617736249230802,0.0050071487203240395,0.00421934574842453,-0.0013160437811166048,-0.007003845181316137,0.0024636792950332165,-0.004263598471879959,-0.0026618025731295347,0.004527689889073372,0.0009905357146635652,0.00017575680976733565,-0.0035468610003590584,-0.005720328539609909,-0.004314137622714043,0.0022664975840598345,-0.0043390970677137375,0.0004805616335943341,0.0005738045438192785,-0.00089456228306517,-0.0076203783974051476,0.007934482768177986,0.003552587702870369,-0.0039039282128214836,0.001265148282982409,-0.0004443030629772693,-0.0015125382924452424,0.004739264026284218,0.0041015841998159885,0.006022930610924959,0.003255185903981328,-0.0032620555721223354,-0.00018496271513868123,0.008260373026132584,0.0043371208012104034,-0.0004158813098911196,0.004801926668733358,-0.001519208075478673,-0.006247637793421745,-0.006192390341311693,0.002097249263897538,-0.010038134641945362,0.0006003447924740613,-0.0012195254676043987,-0.00811022613197565,-0.0007133895414881408,-0.011604594998061657,-0.0041971225291490555],[0.0007553940522484481,-0.005716843530535698,0.0029175013769418,-0.0010779249714687467,0.002799249952659011,0.007070434745401144,0.0005625273333862424,-0.0015089605003595352,-0.002494296059012413,-0.0014190078945830464,0.004009047988802195,-0.0038656967226415873,-0.009588740766048431,-0.000760641589295119,-0.00606233486905694,-0.007486108224838972,-0.0007184654823504388,0.002331136493012309,-0.0023799410555511713,-0.003976861480623484,-0.0026193137746304274,-0.0074883680790662766,0.006647326052188873,0.00017359433695673943,-0.00913435872644186,-0.0036244201473891735,0.0028751976788043976,0.007853766903281212,0.004606850910931826,-0.005919511895626783,-0.0060647823847830296,0.0045239306055009365,-0.0038558361120522022,-5.706109004677273e-05,0.0030905858147889376,0.0070688845589756966,-0.0046547879464924335,-0.0011471585603430867,-0.0026040063239634037,-0.0024229558184742928,0.0050564357079565525,4.803344199899584e-05,-0.006748519837856293,0.002489009639248252,-0.0017527262680232525,0.004443207290023565,0.004926276858896017,0.010823599062860012,-0.00580864492803812,0.003589126281440258,-0.009692893363535404,0.0009095902205444872,0.004220259841531515,0.0036658362951129675,-0.00325982179492712,-0.0004002641944680363,0.0012494069524109364,0.007270639296621084,0.0011247555958107114,0.012670069932937622,0.002115959767252207,0.0009695220505818725,-0.003996541257947683,0.0034485107753425837,0.001660469570197165,0.0010173784103244543,0.012291190214455128,0.0023987048771232367,-0.007736723870038986,-0.0001413271966157481,0.0037925562355667353,0.0011455147759988904,-0.0015178628964349627,0.0003766779263969511,0.0034588181879371405,0.0014228253858163953,-0.0006047619972378016,0.0001186145527753979,-0.004384384024888277,-0.0014614984393119812,-0.004804824013262987,-0.005060464609414339,0.00011985716264462098,0.0017570717027410865,-0.0017871370073407888,0.0002485901932232082,-0.002552336547523737,0.0006393894436769187,-0.0006599336629733443,0.0033826970029622316,0.003806266700848937,0.0007010498666204512,-0.007802318781614304,0.003189482493326068,0.0006445014732889831,0.0011307260720059276,-0.004365110769867897,-0.005190803669393063,-0.0004929774440824986,0.0023992194328457117,0.0014874114422127604,2.3894082914921455e-05,0.010228847153484821,0.0030674778390675783,0.006316672079265118,-0.0013784222537651658,0.006137976422905922,-0.0017823001835495234,-0.003270018147304654,0.004880305379629135,0.006035156082361937,-0.0018091041129082441,-0.005712399259209633,-0.001528720953501761,-0.001764671760611236,-0.0005378589266911149,0.006324568763375282,0.005053297150880098,-0.005140373017638922,0.0007002105703577399,-0.0020575763192027807,-0.0011005018604919314,-0.0016475589945912361,-0.0027412858325988054,0.006242715287953615,0.008029831573367119,-0.007090180646628141,-0.0009156924206763506],[0.00340512883849442,0.004310494288802147,0.003669807454571128,0.003923634998500347,0.010454203002154827,0.010198106057941914,-0.009253251366317272,-0.0029836229514330626,0.0013562231324613094,-0.00048805263941176236,0.0008233677945099771,0.006473963614553213,-0.003682284615933895,-0.0015123183839023113,0.0010859424946829677,-0.005816688295453787,4.4750097003998235e-05,-0.0020491855684667826,-0.0039053913205862045,0.0013075035531073809,-0.000270476215519011,-0.003529871581122279,4.3555635784287006e-05,0.000848199415486306,0.011879472061991692,0.0036681981291621923,-0.007650150451809168,0.0030446627642959356,-4.198525857646018e-05,0.0014661205932497978,-0.0013153173495084047,0.008402143605053425,0.0016335793770849705,-0.007453191559761763,-0.0001581185933900997,-0.006580896209925413,0.002166363410651684,-0.0002403921535005793,0.0014049774035811424,-0.001735055586323142,-0.0014808655250817537,-0.007396393455564976,0.004773412831127644,-0.00019735567911993712,0.013238717801868916,0.01090023759752512,0.0029919312801212072,0.0005347783444449306,-0.0028597747441381216,0.00398495327681303,0.007774841971695423,0.004242235329002142,0.005993122700601816,0.003204681910574436,0.0002787345147226006,0.0007635356741957366,-0.0036988856736570597,0.00857438612729311,-0.00787542387843132,0.012281310744583607,0.002742217853665352,0.002363624284043908,-0.0006365278968587518,0.0032535367645323277,-0.0011067887535318732,0.005649336148053408,0.0022202329710125923,0.0029357930179685354,-0.0011725792428478599,0.0018001121934503317,0.003587764222174883,0.0015363002894446254,0.005411140155047178,0.0005365817924030125,-0.012520150281488895,-0.0014251320390030742,0.0020682774484157562,0.001494128257036209,0.001730932854115963,-0.00243661692366004,0.0010287199402227998,-0.00959318969398737,0.013097903691232204,-0.0054473960772156715,-0.00025068235117942095,-0.0056852912530303,0.002153196604922414,-0.008615510538220406,-0.00821136124432087,-0.004663609433919191,-0.01174162793904543,-0.003142561065033078,0.007802898529917002,-0.0015162890776991844,0.010435838252305984,0.0038532251492142677,0.001963877584785223,0.008484631776809692,0.00263234437443316,0.002545291790738702,-0.005138280801475048,0.0019242827547714114,0.004460598342120647,0.0041166143491864204,-0.0034594344906508923,0.0003100812900811434,0.003751457668840885,0.007140591274946928,-0.0024929239880293608,-0.003956747706979513,-0.0010778780560940504,0.002469216240569949,-0.009617437608540058,-0.004014591686427593,0.0031188286375254393,0.003482816042378545,0.010644782334566116,-0.003860803321003914,-0.0036008022725582123,-0.0012828180333599448,-0.010381669737398624,0.0067855846136808395,-2.360025064263027e-05,-0.0007765567279420793,0.004517667926847935,0.004604557994753122,0.002397655975073576,0.0038666336331516504],[-0.01188176404684782,0.002433597343042493,0.009959667921066284,0.004242607858031988,0.002441282384097576,0.009501902386546135,-0.008647060953080654,-0.0035019514616578817,0.00246787047944963,0.00016795287956483662,-0.004030641168355942,-0.0006443502497859299,-0.005225956905633211,-0.003225499764084816,0.007843743078410625,0.0034935344010591507,0.002901219530031085,-0.0008831369341351092,-0.004685797728598118,0.001069204299710691,-0.0007018558098934591,0.0021988300140947104,0.01180377509444952,-0.0022191363386809826,0.0015535701531916857,0.00018081621965393424,0.006723746191710234,0.0001127147552324459,0.008046009577810764,-0.002078484743833542,-0.00422615697607398,0.00309540843591094,0.0037457270082086325,-0.004823449067771435,0.00687864376232028,0.003468238515779376,-0.005658645648509264,-0.005463781300932169,-0.00010038725304184482,-0.005193853750824928,-0.00796721875667572,0.007987633347511292,-0.0022636360954493284,-0.007219426799565554,0.0011007260764017701,-0.00929658580571413,0.0009080734453164041,-0.0024299542419612408,-0.0012514734407886863,-0.0039672828279435635,0.0008288006647489965,0.006343870423734188,0.005634333472698927,0.010083712637424469,0.0019663956481963396,-0.0005772266886197031,-0.00533780874684453,-0.001462967018596828,-0.001104414346627891,0.007774490863084793,0.000609929149504751,-0.0006925807683728635,-0.006216355599462986,0.0017763548530638218,-0.003789871698245406,0.001744246226735413,0.012401876039803028,-4.6062377805355936e-05,0.003756428137421608,0.00255258334800601,-0.00156055495608598,0.0011919101234525442,-0.002008863491937518,-0.0018514657858759165,-0.0011320671765133739,-0.003153963480144739,-0.0008001337409950793,0.006437838077545166,-0.005848992615938187,-0.004206758923828602,0.0035478398203849792,-8.02160648163408e-05,-0.007176873739808798,-0.005103305913507938,0.0009624470258131623,-0.0036439611576497555,0.0005430077435448766,0.00929145235568285,-0.003922248259186745,-0.007304738741368055,-8.335088205058128e-05,-0.009268003515899181,-0.0019322234438732266,0.001619542483240366,-0.0005882394034415483,0.0012416595127433538,